764 100
the -0.34007272 -0.20097165 -0.115201645 -0.119414024 0.67881346 -0.39410537 -0.26070824 0.1384508 -0.111047335 0.027088778 -0.7119278 -0.11408367 -0.38867307 -0.10545878 0.15518196 0.04149744 -0.9408068 0.4089622 0.27795967 0.1772822 -0.2118454 0.005758624 -0.1639471 0.37084615 -0.16026764 0.15613754 -0.08055219 0.48402908 0.01680819 0.16343826 -0.34541854 0.41231185 0.094489194 -0.03204963 0.13508087 -0.56183654 0.24974096 -0.13639803 0.3165618 -0.31488466 -0.00059582654 -0.3498538 0.15931547 -0.30134934 0.524532 0.08789077 -0.016975127 -0.8119437 -0.14934236 -0.011909752 -0.256222 0.117609054 0.16299337 0.23084693 0.044053037 -0.09016773 0.34509766 0.1621266 0.319155 -0.060984533 0.30111653 -0.2575078 0.254983 -0.15539561 -0.38506535 -0.21938108 0.2494387 -0.0714828 0.41004658 0.21156164 0.18182254 -0.2804554 0.3208947 0.25794154 -0.13812058 0.55575883 -0.0502629 0.2550676 0.26959205 0.12517229 -0.30051875 -0.120583795 0.2485611 0.15029767 0.11578705 0.15757646 -0.077910736 -0.37652305 -0.10837214 -0.12417895 -0.37940884 -0.14011933 0.36746144 0.28105134 -0.46929258 -0.13903244 -0.33470422 0.010911834 -0.1657173 -0.46630743
she 0.16326535 0.2740732 0.25175363 0.036894076 -0.11554046 0.25564402 -0.11935587 -0.08110152 0.10121788 0.071660675 -0.4421431 -0.10101036 0.25421035 -0.20527719 -0.17108645 0.32174563 -0.3421627 -0.13556036 0.1735482 -0.06199619 0.19331433 0.2987186 0.020259092 0.11590616 -0.16843727 0.23638731 0.21538728 0.24034064 -0.10919187 -0.33199048 -0.14049082 -0.20926824 0.18403982 -0.022245523 -0.32426438 0.012669147 -0.3211434 -0.22512901 0.0645736 0.025163408 -0.041225616 -0.14781602 0.14314774 0.008484694 0.22252949 0.62716275 -0.18079291 -0.48900208 -0.20081636 -0.17569806 -0.33715913 -0.00015487557 0.24181528 -0.4870753 -0.03482304 -0.2674325 -0.021525363 0.4785393 -0.016861327 0.6322669 -0.0068104905 -0.20339936 -0.20548442 0.20652667 -0.4290612 0.5048028 0.40172195 -0.029688956 -0.38226616 -0.02183782 0.15135534 -0.016740238 0.06403035 0.29871586 0.05089834 -0.09905055 -0.19404462 0.5162166 -0.1984668 0.056106176 -0.34731176 0.08504746 0.036011502 0.22363171 0.12285498 0.1844749 0.025755238 -0.10771828 -0.012041927 -0.10532795 0.037686847 -0.118974954 0.2372585 -0.27202588 -0.018903382 0.1569755 -0.24848533 -0.34966865 -0.0820631 0.09760189
to 0.006695979 -0.045061145 0.34369144 0.056405738 -0.16696319 -0.29133707 -0.15753268 0.1781437 0.2919125 -0.25232157 -0.12209508 -0.12616484 0.13584909 -0.21706603 0.08911 0.08819846 -0.047012296 -0.44502062 0.5482614 0.2958513 0.17691955 0.42120126 0.028028933 -0.4397665 -0.21805371 0.306578 -0.3601387 -0.16734506 0.13373843 -0.25615656 -0.44033897 -0.18625517 0.25549492 -0.25225177 -0.22167459 -0.07246565 -0.25477692 -0.049543522 0.042269785 -0.19952041 -0.20208046 -0.2158316 0.24818763 0.1343582 0.20778024 0.32470992 -0.16353779 -0.30622205 -0.1489611 -0.12994891 -0.025482822 -0.019358099 0.05049836 -0.104329936 -0.18316095 -0.45275584 0.043712076 0.59179074 0.09441809 0.43696073 -0.0034959067 -0.14111534 -0.08643211 -0.12585317 -0.092948414 -0.19139887 -0.017959263 -0.16755036 -0.3239917 0.2336127 0.44061643 0.4751403 0.27640244 0.30719998 0.057855938 0.22391145 0.022482155 0.19112885 0.06157929 -0.13875166 -0.06969567 0.22525008 0.23547418 0.156065 -0.17670302 0.34794882 -0.14299661 -0.35736552 -0.07820661 -0.3933098 0.03728109 -0.014063555 0.2431173 0.016365936 -0.2721592 0.31129837 -0.34778684 -0.09868405 -0.0011653823 0.08585261
and 0.23247908 0.018151946 0.20001061 -0.16548024 -0.020799257 -0.18358216 -0.053519048 0.2837145 0.18969017 -0.1592413 -0.07528844 -0.24299501 -0.085359834 -0.04186691 0.28370503 0.23469675 -0.2025649 0.15365477 0.07293375 0.010125059 -0.0594919 0.2699574 0.11812692 -0.30079013 -0.11276448 0.20078766 0.0025938388 -0.1960361 0.13412371 0.06720781 -0.079704344 -0.16249806 0.19595557 0.118754 -0.34430954 -0.0641054 -0.011130537 -0.29183418 -0.2316567 -0.11838942 -0.045351923 0.0037317143 0.10406027 0.08285387 0.11487599 0.11501205 0.28623766 -0.10338323 -0.19144732 -0.07429081 -0.17889366 0.0058801305 0.31673297 0.030142888 -0.08036973 -0.047789 -0.026423272 -0.047205176 -0.3437125 -0.21988042 0.16740161 -0.27823755 0.07420291 -0.20987958 0.05250589 0.04661803 0.030926485 -0.37953135 -0.3860368 -0.016387805 0.13444665 0.21336956 0.06557786 0.25559014 -0.041385308 0.06838695 0.11889593 -0.018238826 0.3404831 0.13549684 -0.022342317 -0.12171818 0.17846335 0.11941984 -0.018274277 0.37673467 0.1822806 -0.10699104 -0.049368583 0.14333004 0.14215378 -0.08619997 0.3578426 0.023389738 0.26753622 0.27979052 0.1378927 0.19511007 -0.049789302 -0.20992391
it -0.21385789 0.2736614 0.056313504 0.030702822 -0.1434978 0.08568212 -0.2005472 0.20194659 -0.051974703 0.28722918 -0.40927452 0.06204118 0.12597878 -0.29698485 -0.08712449 0.23257658 -0.24956352 0.019211544 0.072349295 -0.08771278 0.18839614 0.1085487 0.14640187 -0.09087302 -0.08485273 0.34069562 -0.15916553 0.23267274 -0.05737214 -0.01037627 -0.358647 -0.07651502 0.2340736 -0.056453608 -0.14548804 -0.011661821 -0.29587758 -0.04070786 0.060950987 -0.026923 -0.16386221 -0.13250193 0.15864858 0.14376447 0.17642343 0.37378007 -0.10240831 -0.27100605 -0.06323524 0.013811965 -0.3434782 -0.09942725 0.32596773 -0.15600817 -0.036768947 -0.20588443 0.06797435 0.29152027 0.08639169 0.2943078 0.11117664 -0.108976886 -0.108429484 -0.15268026 -0.043173194 0.11260499 0.2536792 -0.12043174 -0.26857924 0.27981734 0.16610008 0.013022493 0.16623797 0.11498067 0.015991531 0.1195005 -0.23106699 0.3639227 0.12952931 0.13647209 -0.2446271 0.14565207 0.16110866 0.35310334 -0.04064334 0.11677123 -0.13039461 -0.23206046 -0.03341955 -0.100559026 -0.08135497 -0.22500983 0.20995502 0.10911942 -0.17585707 0.040636428 -0.15869941 -0.20648879 -0.035588916 -0.023136916
was 0.07937864 0.04413052 0.10559369 -0.06848755 -0.08129246 -0.21818101 -0.032603428 0.25259104 0.22415112 -0.21891987 0.023957431 -0.038465418 0.10336291 0.061183073 0.14346403 -0.028276373 0.05097619 -0.26173288 -0.066026144 0.08254958 0.1113285 -0.04889393 0.17888604 -0.03935355 -0.15510644 0.041690376 -0.34815294 -0.08062051 0.12375569 0.11360133 -0.31901968 -0.110224485 0.23210709 0.09687918 0.03512479 -0.03718765 -0.42499602 0.06903575 -0.20388998 -0.0008265581 0.023544516 -0.16784845 0.35910285 0.12973319 0.023632593 0.15871409 0.29397994 0.1381069 -0.061755568 -0.016334567 -0.080088824 -0.083256476 0.21811067 0.05898135 0.015550153 0.029171247 -0.008189022 -0.0738635 -0.23795752 0.10157316 0.030863343 -0.25481316 -0.17121531 -0.021518838 -0.07173965 -0.23697399 -0.05776184 -0.3371048 -0.20672175 0.11864379 0.065531015 0.4772808 0.14842722 -0.07130429 -0.18289554 0.11469933 0.01359821 -0.083586626 0.47168857 0.26903033 0.0356868 -0.026183149 0.058161635 -0.0661952 -0.19866912 0.191825 0.3503541 -0.109975755 -0.0917542 0.013616961 -0.00876744 -0.10533673 0.17953281 -0.13256326 0.36549038 0.28426343 0.159885 0.0681745 0.048330136 0.11311177
a -0.09735079 -0.09291164 -0.04788204 0.17418987 0.33221844 -0.1568786 -0.20277429 0.28391218 0.30919376 -0.1270174 -0.31490898 -0.048203196 -0.1545611 -0.20185162 0.25262082 0.20217437 -0.6460347 0.026539875 0.24809 0.061727155 -0.18258028 0.10527034 0.0546764 0.29443324 0.09949964 -0.18122685 -0.22026312 0.30199715 0.012518924 0.08235233 -0.46527213 0.022115186 0.18831414 0.1696873 0.14930095 -0.23989901 -0.14733192 -0.16066879 0.14207907 -0.049948096 0.22232154 -0.39079785 0.41778296 0.14793646 0.4938255 -0.017228873 -0.005679122 -0.33783922 -0.16268674 -0.20668638 -0.17316611 0.23167092 0.4769248 -0.09347227 -0.047655195 -0.3312043 -0.032841094 0.3417854 -0.055925965 0.14086238 0.21621877 -0.13995539 0.12499441 -0.14178735 -0.5136457 0.09440782 0.28601432 -0.007838131 0.038211554 0.052450154 0.30458024 -0.25123754 0.23704894 0.12208267 -0.1212761 0.4002062 -0.06756848 -0.08655668 0.23567331 0.09618721 -0.05229346 -0.043203957 0.10228511 0.10529151 -0.14972015 -0.10280571 0.14215067 -0.083359905 0.107895896 0.09669688 -0.075854465 -0.28280604 -0.0032900441 0.058570895 0.17810306 0.22791061 -0.32407197 -0.15276416 -0.053619873 -0.23911454
of 0.0815011 -0.16796146 0.27762228 -0.2712321 -0.17752576 -0.3714404 0.09553936 0.65989935 0.50197065 -0.31958377 -0.1437923 -0.4558422 -0.38121963 0.005490601 -0.27337623 0.1871618 -0.18128955 -0.20964685 0.12470673 0.3293275 -0.21375385 0.2621402 -0.07461819 -0.14168888 -0.20081484 0.48217624 -0.08125316 0.1440265 0.35439163 0.15509413 -0.12044975 0.21237029 0.079099394 -0.14433077 -0.49074543 0.063509844 -0.19961911 -0.28214487 -0.11047731 -0.10203918 -0.039620522 0.02450655 -0.03639208 0.3147092 -0.09087384 -0.013485159 0.090762004 -0.10234287 -0.032300245 0.010747114 -0.053739417 -0.10577682 0.13565655 0.28463703 0.2901741 -0.0967439 -0.16672352 0.014451416 -0.29301682 0.01933883 -0.016613755 -0.3262844 0.08353044 -0.34662786 0.07785554 -0.44791082 -0.043289997 -0.2305676 -0.29583758 -0.12203363 0.10489525 0.26088965 0.02907476 0.15367915 0.097798154 0.07562622 0.24122542 -0.18477987 0.19439055 0.14910905 0.20908983 -0.18301806 0.042426582 0.101644516 -0.060768697 0.120162666 0.27087748 -0.061510652 -0.39496958 -0.022931594 0.19724666 -0.13576175 0.24655686 0.3271431 -0.013912832 -0.047752798 -0.14220962 -0.124555536 -0.091216944 -0.44091278
’ 0.12365267 0.15593763 0.08297072 0.0055335877 -0.05263616 0.038983386 -0.36414474 0.10066783 0.04142744 -0.02651067 -0.024085868 0.026882038 0.13043003 -0.053569175 0.3919727 0.09878007 0.22978331 -0.12934902 0.40383804 0.04722214 -0.094773896 0.06351397 0.26355442 -0.40102774 -0.1128345 0.21265198 -0.35846865 0.030816946 0.32229817 0.02745035 -0.15034041 0.10343142 0.12745509 0.015749745 -0.067434505 -0.34864834 -0.09620956 0.08766213 -0.15624252 -0.34924674 0.09121873 -0.06091735 0.1795891 0.0581923 0.097352706 0.3604222 -0.0006436988 -0.029774088 -0.05778474 -0.15467374 -0.14795427 0.21080738 -0.06136502 0.011982472 -0.12924528 -0.1788303 0.20102535 0.004826194 -0.027948972 -0.029736962 0.27579236 0.09880661 0.11429507 -0.02152227 0.039147116 -0.047618113 -0.02478545 -0.16482227 -0.14839743 0.13320853 -0.06439686 -0.04796113 0.12539254 -0.046914168 -0.28480774 0.0021429143 0.064009 0.09162425 -0.043084327 0.2795266 -0.36350822 0.00606026 0.3461516 0.15939514 -0.051912334 0.30919653 0.1665592 -0.35182512 -0.10676282 -0.08407749 0.34476563 -0.20216793 0.26434264 0.008559467 -0.13824612 0.1510304 -0.012799512 0.15569848 -0.052784134 0.058757152
in 0.06757387 -0.1632598 0.34236917 -0.1454786 -0.08293204 -0.012912717 -0.008796596 0.3068915 0.33102557 -0.086804636 -0.21120198 -0.14510956 -0.17134015 -0.12115857 0.13442402 0.11778999 -0.057908554 0.13152795 0.0077416194 0.05809066 -0.05284372 0.049484503 0.17718643 -0.076379396 -0.12783976 0.23880213 -0.119005986 0.056535598 0.16522105 -0.04835232 0.100143395 0.19944963 0.21027784 -0.023551337 -0.30308908 0.09024233 -0.14447509 -0.07735198 -0.08313711 -0.03659803 -0.027425924 0.008321956 0.12384423 0.3319521 0.16269729 0.05535331 0.19425656 -0.2319327 -0.037603237 0.004199083 -0.11045884 -0.030378647 0.20786372 0.028135858 0.19146238 -0.082693875 -0.23785912 0.15367432 -0.19570349 0.31860217 -0.053908557 -0.21035182 0.092588365 -0.32050416 -0.14191242 -0.19142608 0.012636849 -0.20611373 -0.41758755 -0.06923202 0.10973425 -0.12623999 -0.06997479 0.0760497 -0.040562402 -0.026529092 0.05327399 -0.013541043 0.26346123 0.16233113 0.12864394 -0.098863356 -0.0711407 0.20108193 0.07793666 0.2941971 0.06934803 -0.06449198 -0.0042619207 -0.007746677 0.10741961 -0.00463378 0.20340337 -0.009559754 0.030735299 0.21758828 -0.13321754 -0.24769199 -0.08772968 -0.12199967
alice 0.28928712 0.13571246 0.10500634 -0.04629656 0.081690945 0.10321683 -0.09298461 0.030844819 -0.028872818 -0.2749938 -0.3143884 -0.0553213 0.14878266 -0.14055614 -0.102653794 0.30319396 -0.030950753 -0.09319557 0.006436808 0.06564185 -0.086336404 0.09639679 0.27644685 0.096448466 -0.19767141 -0.117468394 -0.041293185 -0.07745425 0.09157482 -0.15083458 -0.22806154 -0.12783091 0.0026603793 0.16060893 -0.32522258 -0.08424525 0.008739969 -0.02918677 0.087336205 -0.19707675 0.013273112 0.09114212 -0.015065177 -0.020906217 0.12631094 0.5008863 -0.07053175 -0.15692788 -0.22854723 -0.32530478 -0.10154005 0.08059357 0.14079121 -0.10906462 -0.10520773 -0.24347256 0.07070404 0.26108983 -0.12800407 0.14695795 -0.026490234 -0.022972768 0.043884464 0.062749974 -0.14594825 0.09162488 0.23759392 0.029754784 -0.099913225 0.21333939 -0.060943387 0.09651771 0.16799252 0.24005044 -0.14439133 -0.07184481 0.08717264 0.42051518 -0.13984548 0.039010677 -0.4450039 0.029015087 0.038664836 0.049624454 0.13045388 -0.12976761 0.06312237 -0.115498066 -0.13268806 -0.07244933 0.11385132 -0.53409255 0.18241769 0.16259424 0.07612782 0.10008997 0.10497354 -0.046310216 -0.0071863886 0.10829322
her 0.00977224 -0.08160393 0.03848128 -0.23167051 0.23322363 -0.07507953 -0.19923484 0.15334648 0.023197185 -0.06813176 -0.15841255 -0.23127417 -0.11133794 -0.1668941 0.27068084 0.06587972 -0.3524757 0.14007026 0.21529825 0.020341925 0.0058155674 0.033936396 0.21965072 -0.061499692 -0.053982846 0.042567935 -0.04142641 0.2468546 -0.11912437 0.12733896 -0.03456917 -0.10512765 0.24558236 0.22304437 -0.092827335 -0.06588352 0.029619563 -0.21011584 -0.12763576 -0.44390252 0.14060275 -0.1888101 0.078898445 0.113760695 0.21696545 0.39179137 0.10251328 -0.14228982 -0.2124768 -0.28077796 -0.21276969 0.044083897 0.24827702 -0.19522177 0.08100727 -0.08312349 -0.21356523 0.099855475 -0.1110597 0.28288952 0.22956033 -0.033472084 0.28476444 -0.06787671 -0.11540643 0.072755545 0.2850318 -0.046718568 0.06295683 0.14971055 0.12583064 0.093498684 0.22515327 0.17467435 -0.10889778 0.18686327 0.19403988 0.2740005 0.13715066 0.13140734 -0.13311489 -0.03595819 0.16154997 0.12943508 -0.076313555 -0.020314135 -0.031871878 -0.016751157 -0.08787416 0.1741439 -0.068295166 -0.17181653 -0.076942585 0.17565787 0.09880614 0.047551896 -0.31753165 -0.14547327 -0.17816679 -0.01888026
i 0.08693899 -0.032240678 0.16893463 -0.0771285 -0.031828914 -0.287139 0.21945345 0.25516656 0.17207181 -0.029757818 -0.01612125 -0.13988994 0.21797709 -0.20359223 0.27131847 0.17659172 -0.13561533 -0.27881938 0.34802973 0.31368113 -0.024513684 0.23919694 0.05058304 -0.18062754 -0.3071201 0.30250856 -0.07963596 0.18174069 0.14726618 -0.2873956 -0.115886696 0.22532779 -0.021770034 0.17367148 -0.32150602 -0.22573256 -0.10334438 -0.027756011 -0.08020501 -0.2025245 -0.007970413 -0.257998 0.21205074 0.10819632 0.13673982 0.32266518 -0.011674048 -0.04165503 -0.11750581 -0.19102687 -0.03266799 -0.036678247 0.22391023 0.059777588 -0.12001918 -0.20555134 -0.02869413 0.16231167 0.03423215 0.021421578 -0.037572682 -0.45082685 0.14290506 -0.09860826 0.11711633 -0.11976221 0.1882107 -0.05686941 0.2005833 0.07515961 0.14194784 0.12510528 0.116557516 0.44916555 0.03490552 0.1218765 0.13246924 0.3914052 -0.0016865575 -0.055854563 -0.33292955 -0.0016871975 0.23342198 0.2345084 -0.12130451 0.09053111 0.11902898 -0.30135727 -0.21576351 0.011678597 0.15978335 -0.19601747 0.13150944 0.47443718 0.0036658973 0.07883757 -0.35348207 0.24433944 -0.14351998 -0.155496
that 0.052461803 0.13926251 -0.013315657 -0.16654919 0.0042292457 -0.05514692 -0.2487147 0.065433845 0.04452098 0.013183889 -0.12921406 0.08705 0.09571054 -0.13141336 0.06473726 0.17524286 -0.0025349963 -0.08041613 0.02391732 0.0037270694 0.057344962 0.029712947 0.25825348 -0.15812333 -0.12942939 0.12041959 -0.25380564 0.088447474 0.043561213 0.09109506 -0.1947582 -0.14419223 0.21102011 0.120529376 -0.059635356 -0.062608294 -0.20136052 -0.011610942 -0.014453379 -0.20481412 0.073179096 -0.03104341 0.04958411 0.13062304 -0.039917335 0.22644018 0.082102485 -0.15066518 -0.03775814 -0.14217882 -0.19920248 0.14414105 0.15116146 0.02013718 0.15394606 -0.17288452 -0.10460963 0.18038408 -0.12071791 0.17740087 0.2160865 0.030402672 0.007385644 -0.088881716 -0.039164294 0.17694636 0.039952558 -0.115402095 -0.1520751 0.2877029 0.019784953 0.15316918 0.09887874 -0.01799053 -0.23000859 0.14110418 0.038559828 0.21554764 -0.0007906853 0.19629201 -0.14948846 -0.06217751 0.14451334 0.10619793 -0.03716466 0.11710855 -0.08288045 -0.0074802935 -0.056770045 0.12178892 0.14479218 -0.20992564 0.0626 -0.019592227 0.10675215 0.07874729 -0.08688156 -0.14157826 -0.05974648 0.12887204
down 0.069554985 -0.093783565 0.017939081 -0.09573586 -0.092197895 -0.1275722 -0.10829401 0.22801252 0.06334785 -0.15077493 -0.1797181 -0.13768284 -0.05312741 -0.048311982 0.06052596 -0.048537698 -0.20579183 -0.04477079 0.195431 0.07460354 -0.110553935 0.005631369 -0.0054411106 -0.0917281 -0.11158389 0.18398823 -0.13810067 0.11079504 0.13808343 0.1015811 -0.108840354 0.018363278 0.08715651 0.09165382 -0.11159858 -0.1500266 -0.2214402 -0.09730323 -0.0022342936 0.048243277 0.05275532 -0.10856327 0.18576877 0.19469248 -0.008385527 -0.0637136 0.09592329 -0.07408458 -0.09642691 0.06685552 -0.0638054 -0.004736028 0.023800274 0.1474718 0.08167725 -0.07743944 -0.11532153 0.04742271 -0.18731034 0.053440508 0.008324605 -0.17357808 0.060614396 -0.10014224 0.06281434 -0.17043348 0.010071503 -0.19553153 0.030708646 0.031634394 -0.016415222 0.17151524 0.030853678 0.23820902 -0.07143647 0.024312256 0.095049694 0.06310923 0.13972959 0.19750132 0.028612152 -0.13325278 0.23146878 0.04090134 -0.010206428 0.2161385 0.0696825 -0.0938801 -0.12522307 0.12530914 0.26797524 0.016132649 0.056116257 0.09914685 0.05827702 0.08409163 -0.13229749 -0.031350885 -0.104735166 -0.058455326
you 0.16532 0.10806737 0.13929294 -0.14949748 0.23133966 -0.09757634 -0.021866197 0.24533308 0.012111294 -0.087967746 -0.095918134 -0.031828403 0.2419608 -0.15460803 0.25422838 0.19577208 -0.08509496 -0.23199469 0.14164908 0.21237856 -0.10149683 0.1292534 0.0141165545 -0.13316628 -0.15028948 0.12926438 -0.24985987 0.1345569 0.19573301 0.08389869 -0.2723129 0.042074755 0.05130211 0.09046603 -0.13620032 -0.11296164 -0.16381365 -0.032107383 -0.10601092 -0.122698985 0.04495252 -0.13674328 0.20040593 0.048543293 0.15524428 0.27477148 0.049933888 -0.08671754 -0.017584955 -0.23342976 -0.041091826 0.1372546 0.15680498 0.09771217 -0.08734932 -0.19470163 0.09162077 0.2533103 -0.03126494 0.021471897 0.061148047 -0.276933 0.023240156 -0.101269364 0.04496171 0.06994169 0.22942343 -0.006213284 0.09167496 0.18215099 0.1845237 0.15349747 0.08042781 0.11015751 -0.07651326 0.14062043 0.087262206 0.19024019 0.00079362764 0.041689854 -0.344897 -0.08347013 0.18369268 0.1892271 -0.18378255 0.10478338 0.22887518 -0.27431697 -0.0969193 -0.14177427 0.18329117 -0.3979067 0.13082373 0.14227551 -0.056062944 0.088819526 -0.1901956 -0.06923876 -0.0354354 -0.06973523
for 0.08971973 0.01232099 -0.027629472 -0.11729564 0.06488117 -0.083437465 -0.08906141 0.13952865 0.08511497 -0.10646162 -0.07629034 -0.06301127 -0.031406026 -0.079975046 0.1247193 0.0517844 0.07069496 -0.16340001 0.1169407 0.047521997 -0.21198595 0.034849267 0.036388647 -0.070882544 -0.06547036 0.053535752 -0.18283248 -0.033784907 0.19579564 0.08019707 -0.12683366 0.05520131 0.115407564 0.09100693 -0.11767806 -0.13816066 -0.15636992 -0.0445687 -0.1823299 -0.05194335 0.08223743 -0.00396994 0.07539913 0.2159181 -0.017074687 -0.01691393 0.1819416 -0.026442433 0.012913922 -0.08042632 -0.12615949 0.017180597 -0.017134717 0.07490212 0.08936594 -0.077059396 -0.03704379 0.087937295 -0.13997002 0.05902494 0.049222182 -0.124762036 0.103834935 -0.16323774 0.10883571 -0.12029573 0.07390406 -0.18033823 -0.13323699 0.13783894 0.061277416 0.21113275 0.151058 0.026794603 -0.070268266 0.08841751 0.092790775 -0.0254548 0.16817768 0.18487383 -0.061780404 -0.10305145 0.22062677 0.13799192 -0.07500014 0.16100307 0.13406326 -0.1641172 -0.20247833 0.0400423 0.2081837 -0.12763417 0.07497525 0.15161355 0.09258401 0.12628464 -0.12970787 -0.078745045 -0.13879678 -0.083261564
but 0.010002369 0.0839592 0.054035693 -0.13921212 0.017750623 -0.14925863 -0.046838477 0.11293481 0.09407306 -0.25086212 -0.018327784 -0.12740546 -0.032480784 -0.11593424 0.12587969 0.1953802 0.026647769 -0.022709796 0.04303119 0.17683421 -0.054620128 0.19833432 0.01753019 -0.15447426 -0.057576697 0.15958747 -0.077475436 0.11718727 0.19999532 -0.07424936 -0.15585035 -0.013640646 0.0029974417 -0.07406124 -0.18363139 -0.044150636 -0.014629099 -0.14573567 -0.11336776 -0.27122226 0.03525699 0.09899193 0.07281834 0.038009044 0.070115484 0.08128073 0.028786037 -0.11534004 -0.11920365 -0.17847674 -0.008055531 0.05658493 0.0012344474 0.22704099 -0.009592837 -0.07587785 -0.026438266 0.09379257 -0.0026715416 -0.23131971 0.08427047 -0.14665756 0.03637112 -0.1288873 0.14123137 -0.050013337 0.096314356 0.029138759 0.033260003 0.0125276055 0.08412755 0.19969143 -0.010455578 0.07717082 -0.0024905028 -0.029323362 0.02952662 0.17684875 -0.10823272 0.012493308 -0.17033726 -0.14708349 0.074781604 0.124012776 -0.11242213 0.050089434 0.08581788 -0.28871366 -0.18238352 -0.034071013 0.22236939 -0.27765894 0.13850062 0.19084038 -0.06442116 0.11172589 0.019753283 -0.016333599 -0.15512437 -0.15398887
very -0.014875468 -0.009701376 0.010443999 -0.10555086 0.06073749 -0.10123974 -0.14000542 0.18264198 0.079558484 -0.04137825 -0.22019544 -0.07977057 0.014438944 -0.18495843 0.08136951 0.073235005 -0.27724022 0.019863956 0.101356864 0.03377976 -0.15180491 0.027880894 0.18012898 -0.17552592 -0.06547684 0.10552485 -0.21573792 0.1489932 -0.027990524 0.050472867 -0.034295283 -0.1055603 0.19093476 0.09182949 -0.089308575 -0.051250204 -0.1945222 0.0069681457 -0.03816245 -0.1795894 0.061015833 -0.141071 0.12511362 0.18227562 0.09957429 0.16790609 -0.0034357088 -0.14335942 -0.07696837 -0.084965765 -0.27899382 0.017498322 0.0919922 0.014901376 0.21439514 -0.09680098 -0.1630514 0.1872546 -0.083798684 0.03079539 0.060904354 -0.130525 0.01120476 -0.11850774 -0.13737355 0.035231136 0.22356382 -0.044979606 -0.18992138 0.19697021 0.16677342 0.06584984 0.08350699 0.08423934 -0.11322308 0.08481703 0.046335157 0.13980317 0.20622483 0.22381942 -0.071250685 -0.028327126 0.124177076 0.22740778 0.0074056285 0.08175156 0.088735834 -0.107633434 -0.06460402 0.11730517 0.054484744 -0.19072427 0.13468629 -0.085613936 0.020256575 0.12240564 -0.24933891 -0.18649614 -0.2026767 0.046013564
on 0.12975182 -0.107802995 0.09551769 -0.115597494 -0.006453752 -0.12537731 -0.08584074 0.21213607 0.2118102 -0.20698518 -0.07266982 -0.12890595 -0.15755856 -0.015803281 -0.0029161735 0.13758318 -0.12010778 0.21435413 0.061489195 0.2004947 -0.058198005 0.14304921 0.09758952 -0.058619026 -0.07036601 0.17885482 -0.12289232 -0.01908875 0.13449174 0.16231865 -0.018750839 0.011203444 0.14008406 0.16907714 -0.23851283 0.043903425 -0.14320333 -0.16810322 -0.106869444 -0.16231163 0.15009943 0.01762022 0.015048382 0.111014575 -0.029875468 0.11898571 0.14180867 -0.1003003 -0.101403385 -0.15421999 -0.099837944 -0.055497363 0.11983469 0.009013312 0.0681458 -0.017717294 -0.080139704 0.028697241 -0.21184802 0.09681165 -0.010325449 -0.122772284 -0.03741161 -0.11584802 -0.04687172 -0.15751128 0.037200645 -0.24434386 -0.16105568 0.005620276 0.17583005 0.25670418 0.07346224 0.080946624 -0.0058909524 0.067990206 0.16133256 0.10847077 0.13742201 0.13080421 -0.02371967 -0.07682298 0.043128587 0.06498471 -0.057764675 0.253984 0.14358225 -0.1073111 -0.064032875 0.097602345 0.059135705 -0.16958056 0.08317236 -0.04065278 0.12183426 0.1056547 0.042145733 -0.038896166 -0.040646512 -0.040781107
had 0.16680138 -0.017439244 0.035300467 -0.037793122 -0.028949182 -0.08535219 -0.2862048 -0.04619146 -0.07956014 -0.04963999 -0.0031333528 0.09197833 0.13465221 -0.018452194 0.15524411 -0.015595528 -0.02831695 -0.028005911 0.028506858 -0.030219706 -0.1927527 -0.063961044 0.27860707 -0.14692362 -0.14545584 0.0519229 -0.25071117 -0.13538654 0.053559273 0.14966555 -0.17056695 -0.012436691 0.14813876 0.16289143 0.05347711 -0.2978108 -0.14226039 0.030260328 -0.115682095 -0.050188698 0.036693845 -0.09540754 0.1555323 -0.0045516416 0.011577326 0.1156159 0.12591085 -0.009742605 -0.07078707 0.08218976 -0.20466764 0.16331734 -0.034958247 0.011714262 0.083409294 -0.1649627 0.053306196 0.08376543 -0.09316649 -0.07114109 0.25310376 0.034297876 0.009853197 -0.08736703 -0.0785 0.065645814 -0.092721365 -0.23382154 -0.021364449 0.24977002 0.08593081 0.22433613 0.15448737 -0.016065076 -0.3054736 0.019788897 0.14111377 0.006058588 0.1558365 0.1920845 -0.120799355 -0.035912532 0.17123932 0.020876821 -0.18612202 0.23239791 0.05773415 -0.012948725 -0.104520924 0.14727941 0.20427327 -0.02646185 0.1469109 -0.057184406 0.030224485 0.15110254 0.00633959 0.0068840296 -0.054672595 0.01864203
this 0.13670646 -0.07811784 0.079947904 -0.06547998 0.23718706 -0.041599765 -0.096877865 0.13419086 0.15987456 -0.11139262 -0.1524053 -0.1499763 -0.044909228 -0.046833415 0.04595006 0.18487781 -0.22224411 0.12229005 0.23203728 0.10156964 -0.08894348 0.114148736 0.1329158 -0.06385079 -0.07618947 0.1256786 -0.18675567 0.19740507 0.07030761 0.08570242 -0.09912564 0.061773196 0.04534516 0.113829754 -0.1303495 -0.08276673 -0.12380814 -0.03297357 0.0023309244 -0.09419718 0.12514849 -0.2706926 0.21958072 0.0713694 0.20775706 0.18146087 0.06880623 -0.26488793 -0.22805619 -0.087844014 -0.15629694 0.11577613 0.15448186 0.102958985 0.065448895 -0.13900469 -0.007230307 0.18513922 -0.04501232 0.15469603 0.18402515 -0.06895705 0.18479307 -0.16698663 -0.20286801 -0.06860794 0.28644407 0.06264226 -0.06754299 0.052772608 0.17781676 0.0519792 0.13550343 0.0017086926 -0.002569601 0.18987556 0.045482732 0.115240514 0.11244458 0.0067223944 -0.14092028 -0.13359502 0.18127611 0.13101912 -0.12909542 0.100342266 0.18598105 -0.13294087 -0.085104235 -0.022848774 0.0797617 -0.1337277 0.15100737 0.23624472 0.025868937 0.10555428 -0.23559058 -0.16305058 -0.14820679 -0.0691359
as 0.1372604 -0.072042495 0.068502106 -0.123519145 -0.10102018 -0.2353762 -0.12344501 0.15760864 0.18074843 -0.18477002 -0.21598674 -0.12739794 0.14324373 -0.14367239 0.056392293 0.16681954 -0.08635592 -0.16437976 -0.025888734 0.03492442 -0.065465115 0.074628845 0.16700271 -0.16676807 -0.20617135 0.1848028 -0.28984815 0.047609996 0.14616051 0.10690017 -0.14128155 0.044958584 0.18974113 0.052223675 -0.083671905 0.07048471 -0.2584414 -0.14950065 -0.20498586 0.005721226 0.0739104 -0.15463793 0.16146624 0.08984714 0.041979223 0.1175349 0.036086883 -0.049822323 -0.1365116 -0.07788705 -0.20424506 0.029209808 0.10406574 -0.10105675 0.035692133 0.045134775 -0.09502952 -0.0024776321 -0.10561551 0.14969343 0.07794701 -0.14405894 0.010191053 -0.107417464 0.091572575 -0.007737863 0.040780313 -0.06990906 -0.12139316 0.20221458 0.06696596 0.25889716 -0.048500877 -0.0046219775 -0.010801377 0.12266749 0.11644835 0.15084401 0.18298982 0.13799024 -0.149654 -0.06477226 0.17399807 0.109653056 -0.1875724 0.26275504 0.23058797 -0.0038124209 -0.15112367 0.09650378 0.03509725 -0.052131362 0.15452227 0.21879885 0.09065407 0.14684756 -0.1306015 -0.09736723 -0.1411318 0.010008193
be -0.029455815 -0.05278534 0.13562118 -0.07343758 0.09604008 -0.29566866 0.004740161 0.13812922 0.013123332 0.22096911 -0.22127226 -0.2858648 0.052568827 -0.26445916 0.39508715 0.06694667 -0.063888766 -0.09879185 0.13750367 -0.018095106 -0.16049267 0.03184122 0.34459385 -0.34160537 -0.17219757 0.15890901 -0.24315459 0.01314339 0.07213922 0.052529316 -0.13401148 -0.041579135 0.25077596 0.24302419 -0.19733404 -0.059909623 0.06656786 -0.2429768 -0.038105838 -0.2195685 0.14627004 -0.04270062 0.17118816 -0.037066735 -0.05034984 0.19454315 0.16318887 -0.040534504 -0.34900296 -0.23789254 -0.20927127 -0.009647608 0.20534296 -0.031289037 0.04647713 -0.042112403 -0.1309585 -0.0008243857 -0.13116513 -0.08111427 0.05017552 -0.24384294 0.23779133 0.033614524 0.023929954 0.035075407 0.08365099 0.028863221 0.1107086 0.10962389 0.057571094 0.098775156 0.03896632 0.16212744 -0.13782848 0.14878616 0.12880556 0.22408187 0.026675975 0.10865486 -0.30345592 -0.11349231 0.14342178 -0.02091544 -0.09471388 0.026609471 -0.03143669 -0.14383364 -0.24152888 0.18384019 0.0969957 -0.42796957 -0.08794485 0.37512258 0.0049091633 0.13430376 -0.19672458 0.0021711662 -0.116797134 -0.11381015
so 0.07290405 0.11985285 0.09552896 -0.086566105 -0.04461631 -0.14262378 -0.15536392 0.06645764 0.10979203 -0.14096336 -0.023442483 -0.058749054 0.07480356 -0.16504647 0.06954773 0.22967687 0.018660352 0.03150209 0.035844 0.0027598853 -0.14250527 -0.011547999 0.15392894 -0.14777674 -0.1286355 0.04606879 -0.17112829 0.028468534 0.08205049 -0.0028943531 -0.26095897 -0.013476914 0.18431689 0.050834186 0.04415099 -0.05302823 -0.06755708 -0.0025894241 0.026264064 -0.09702725 0.0026136362 -0.007182453 0.06246883 0.01565045 0.019545387 0.12161035 0.05692451 -0.063948095 0.00027825288 -0.055706363 -0.13946103 0.104358405 0.15193292 0.053244337 0.12891802 -0.16104506 -0.04684186 0.13729675 0.0025945143 0.018783392 0.11440144 -0.08309264 0.004455841 0.057635475 0.038874682 0.033529263 0.031692594 -0.14293186 -0.0931156 0.12342184 0.032003205 0.10370814 0.014473787 0.012295142 -0.10391873 -0.027861925 0.01826452 0.039234214 0.120684065 0.12856463 -0.0789494 0.06684767 0.06472054 0.07538482 -0.06026683 0.073690675 0.008475004 -0.08309743 -0.0057907077 0.01893631 0.21429437 -0.15623036 0.12794083 -0.0014996971 0.03695425 0.041013993 -0.013525145 -0.050915938 -0.060383115 -0.048673086
little 0.040610466 -0.14961739 0.3287076 -0.022539977 -0.080575615 -0.1016247 -0.07965977 0.3170673 0.33040527 0.15361246 -0.22348239 -0.24645522 -0.15858023 -0.01622073 0.013291368 0.1449565 -0.15610544 0.16944064 0.07255091 0.22416742 -0.18336698 0.05418637 -0.11423862 -0.105676286 -0.22891088 0.27885404 0.17008 0.16133438 0.16382618 0.10830628 -0.039886273 0.2684228 0.05526358 -0.08421407 -0.30788293 0.0053286636 -0.110272504 -0.16435714 -0.13609688 0.10949298 -0.081879206 0.051576555 0.18761319 0.20700435 0.078565896 -0.028927876 0.056603607 -0.05326906 0.08130073 -0.020239703 -0.055569086 -0.03142521 0.24612173 0.0005518219 0.18820265 -0.0034423766 -0.24958 0.060677215 -0.08145809 0.071333386 -0.07821442 -0.31918272 0.13371786 -0.25750247 -0.06976088 -0.028919887 0.016815465 -0.35054922 -0.3336314 -0.100396805 -0.020908011 -0.09007866 0.07849871 0.21438223 0.00446502 0.06899803 0.04378252 -0.059489846 0.115854524 0.16484238 0.025445597 -0.19241689 0.114908576 0.089352764 0.008100771 0.278394 0.14840275 -0.05258742 -0.12613273 0.11690523 0.059197392 -0.013815017 0.14572583 0.100923896 0.06603565 -0.02483978 -0.1223772 -0.15459645 -0.05009173 -0.17889787
with 0.113042645 -0.09316651 0.25603405 -0.1534623 0.038075306 -0.13121049 -0.10779382 0.31585768 0.18520276 -0.13051574 -0.17179252 -0.26523134 -0.073113106 -0.07457535 0.09674748 0.09932152 -0.14359444 0.04836081 0.10685751 0.14647007 -0.15874411 0.1475257 0.04619742 -0.17480953 -0.08818272 0.16963394 -0.11229542 0.17417578 0.20032582 0.08398486 0.04879114 0.07021543 0.12784758 0.09217775 -0.14269188 -0.05056438 -0.020865697 -0.19638342 -0.06208408 -0.020420277 0.029685063 -0.07309922 0.20654377 0.1519032 0.111016646 0.051700756 0.14059602 -0.00013683559 -0.06452951 -0.0853314 -0.06406596 0.08843677 0.18755785 0.24900983 0.14506587 -0.03562148 -0.12758458 0.08931708 -0.1600391 0.061623905 0.027189542 -0.10914619 0.14876002 -0.26347113 0.10803688 -0.13040377 0.13920702 -0.17919959 -0.19271162 0.017857008 0.15503 0.14739828 0.05546109 0.18561195 -0.085611284 0.16408992 0.10606187 0.047228374 0.17673883 0.21865892 -0.11241441 -0.19204442 0.10081589 0.1989976 -0.012679498 0.12823515 0.101720095 -0.06974295 -0.14100026 0.14617439 0.19621833 -0.072127126 0.19997041 0.045847908 0.09395105 0.105994746 -0.13668646 -0.19163434 -0.1167101 -0.18875994
way 0.06909807 -0.12296767 0.053078935 -0.13067281 0.075754955 -0.19719887 0.080838144 0.17884594 0.041356362 -0.105275124 -0.0029611916 -0.08749786 -0.17438188 -0.0011498417 -0.0074492656 0.11772458 -0.02750213 0.044612534 -0.0076027736 0.083113104 -0.19891472 0.17510383 -0.082066916 -0.06479407 -0.10920007 0.108135164 0.07309281 0.13154651 0.13925895 0.051599007 0.033332683 0.10881083 -0.05828043 -0.06935062 -0.14990188 -0.06054827 0.14516218 -0.108580515 -0.1578145 -0.10821872 0.11661086 -0.0064205127 -0.023280205 0.076960735 0.022041073 -0.054521352 0.006406003 -0.09397914 0.034309685 -0.04991813 -0.0054262937 0.02069894 -0.07594189 0.1995324 0.13657263 -0.025316868 0.00393716 0.08325387 -0.0112260915 -0.02835361 -0.06860107 -0.18934904 0.088115245 -0.19588488 -0.00976908 -0.17263933 0.09332454 -0.048698775 -0.092779465 -0.08313769 0.0046123033 0.10807326 -0.054334324 0.101997755 0.04167928 0.08489778 0.09300523 -0.051866837 -0.07372025 0.018933898 0.024344811 -0.03754719 0.013297949 0.035427794 -0.10822721 0.09066087 0.14421266 -0.1299985 -0.077665195 0.022536708 0.085621916 -0.089719705 0.079916894 0.15068884 0.05920938 -0.036654692 -0.11969554 -0.0016317663 -0.055702202 -0.23936787
at 0.123257644 -0.07392905 0.0046404996 -0.06319652 0.021134736 0.02205693 0.023570975 0.15458286 0.13276522 -0.16684964 -0.08404197 -0.1219425 -0.19026305 0.03980597 -0.021763686 0.037043497 -0.034073442 0.065148346 0.033599894 0.17576018 -0.06412274 0.1585575 0.013171334 -0.09291126 -0.028346537 0.11002284 -0.0033055765 0.16647865 0.1338093 0.03621589 0.052088983 0.10997916 0.06520796 0.03440658 -0.11570216 -0.11569969 -0.06287116 -0.116166405 -0.11328086 -0.055348363 0.049456693 -0.07390225 -0.016123116 0.12211825 0.08571606 0.0029700573 0.109961584 -0.105719775 0.0130531415 0.039215207 -0.07778791 -0.060264904 -0.055073995 0.14409803 0.06474692 -0.010615478 -0.114637636 -0.0017478459 0.0015046195 0.042776097 0.06731278 -0.17716296 0.052508384 -0.1456812 -0.043185744 -0.17149091 0.052293185 -0.1161303 -0.1341421 -0.01709172 0.10922264 0.055132136 0.115131155 0.19213937 0.052044857 0.02453368 0.06329724 0.073971964 -0.037557002 0.11115269 -0.06438621 -0.16961099 0.09959672 0.03095964 -0.1424842 0.1592807 0.008025185 -0.20488334 -0.17690815 0.011916432 0.08044617 0.02051787 0.15127397 0.06451927 0.06328584 -0.00482848 -0.089092664 0.04017982 -0.122059315 -0.07991715
out 0.005701714 -0.13789356 -0.042092234 -0.031453695 0.08163226 -0.23843405 0.028642371 0.038958706 0.012839962 -0.0774698 -0.22072786 -0.061201114 -0.1346593 -0.075856395 0.02880757 0.022514384 -0.051677182 0.025068786 0.035617594 0.10634882 -0.17322907 0.040917255 0.06477979 -0.036481574 -0.034539938 0.005551805 -0.08264215 0.065555915 0.065814875 0.08227787 -0.043493178 0.1509888 0.09347121 -0.03404593 0.030428527 -0.13533029 0.14335583 -0.17223446 -0.08259437 -0.07073117 0.051940836 -0.16889594 -0.05146211 0.054309074 0.088447936 0.11817108 0.009520123 -0.07677709 0.0035164442 -0.106319144 -0.07413286 0.022773575 -0.115316726 -0.03895062 0.015549779 0.06747841 -0.026228912 0.027512874 -0.08227114 -0.02340443 -0.059001938 -0.13669887 0.077257566 -0.045109842 0.0013112584 -0.06972184 0.08699207 0.009936579 -0.007005771 0.016593492 0.10325873 0.114087895 0.023070559 0.07973989 -0.013235044 0.10377023 0.030570693 0.06633344 -0.006678104 -0.11279474 -0.018205307 -0.046925474 0.06975464 -0.029613068 0.030914504 0.00087013585 0.024703134 -0.080277234 -0.09208869 0.08605092 -0.040470187 -0.16339603 -0.06056853 0.15794198 0.03168941 -0.009393884 0.016498344 0.023124268 -0.05347665 -0.06669972
not 0.09990476 0.047966268 0.109868 -0.10507379 -0.0023690097 -0.14740963 -0.22737971 -0.0073096235 0.01873598 0.027212067 -0.042877227 -0.075035654 0.1590783 -0.10907723 0.13881232 0.053602062 -0.06521423 -0.043853104 0.0039918334 -0.012161944 -0.082918294 -0.03120827 0.18692589 -0.1891563 -0.10865567 0.059414446 -0.103781626 0.051012754 0.14220239 0.08213551 -0.09127958 -0.15295622 0.20827492 0.14936973 -0.05802926 -0.064134605 -0.22639789 -0.060844336 -0.1449701 -0.050530482 0.10913191 -0.0915874 0.16127081 0.13298921 0.03657269 0.020757608 0.1397138 -0.088771425 -0.09126886 -0.010071038 -0.18234034 0.03235036 0.17416835 -0.05961171 0.121697456 -0.116814755 -0.12967587 0.047472276 -0.16856806 0.12157395 0.12794694 -0.050743513 -0.05743446 -0.026471773 -0.07212607 -0.09744847 0.015288753 -0.16693504 -0.13619211 0.10473114 -0.042744905 0.13846993 -0.011023974 0.027642267 -0.16243847 0.08250329 0.11646107 0.11391286 0.15087193 0.17740603 -0.02241916 -0.061473753 0.16931595 0.12496146 -0.12130301 0.09716092 0.017955868 0.0043697683 -0.009032358 0.20827556 0.14777416 -0.11655333 0.04701803 0.0555296 0.028514892 0.15325244 -0.042658728 -0.112315014 -0.09402698 0.022483613
or 0.054508727 -0.0368657 0.075888075 -0.09606275 0.060118474 -0.048213635 -0.08666335 0.14226036 0.121466145 -0.19958559 -0.060977925 -0.13160482 -0.085825674 -0.07223677 0.221643 0.1506121 -0.14241518 0.1014608 0.061096612 0.09323429 -0.052581698 0.17617552 0.12933071 -0.10060598 -0.06420214 0.07229415 -0.16214341 0.0950953 0.11506419 0.13874455 -0.05204606 0.019644417 0.10637348 0.072812885 -0.099351935 -0.03184487 -0.19892164 -0.07681458 -0.15391764 -0.059462044 0.08390561 -0.030240767 0.18799478 0.20644663 0.059844222 0.10210579 0.12723154 -0.17018579 -0.076193586 -0.10310459 -0.05136653 0.16058725 0.16829604 0.18197751 0.07597904 -0.077551365 -0.07123954 0.11697382 -0.2071778 0.06258746 0.13116425 -0.080183074 0.13664164 -0.128728 -0.063051865 -0.04294714 0.0842427 -0.18024398 -0.16197616 0.021262977 0.17848739 0.18495248 0.046813473 0.0366888 -0.1369543 0.0895202 0.04670733 -0.010448081 0.159126 0.2023273 -0.10108156 -0.12278049 0.1283736 0.14260304 -0.18490009 0.20120187 0.10605994 -0.09819233 -0.122480765 0.11194754 0.122725114 -0.07567463 0.11634956 0.12189683 0.08081371 0.092970625 -0.10317098 -0.14416806 -0.06182009 -0.07518408
herself 0.041747093 0.08489363 0.0050278716 -0.053455852 0.019402742 -0.1586649 -0.040970817 0.089061126 -0.029500997 0.047225688 -0.057706438 -0.14954965 -0.054956116 0.014335856 0.23234442 0.042276956 -0.09320071 -0.088287674 -0.023347922 0.050894517 -0.06346608 -0.024354015 0.20745622 -0.22031529 -0.044008475 0.03802373 -0.18622701 -0.01239941 0.045552067 0.10809356 -0.08512028 0.027465336 0.18370421 0.06182125 0.00965477 -0.07207295 -0.06383899 -0.0943991 -0.033177864 -0.1333078 0.033914283 0.0040557557 0.01718239 -0.002141943 -0.004342721 0.21026696 0.039317153 -0.067117095 -0.07352361 -0.042603917 -0.14934808 0.08449523 0.10031769 -0.014450375 0.01645868 -0.13042904 -0.04452351 0.030497164 -0.16462643 0.009606801 0.10383866 0.027726302 0.011084531 -0.07335416 -0.014085778 -0.040578824 -0.018523278 -0.1584814 0.01260267 0.1643693 -0.013222047 0.1621791 0.038356993 0.17139412 -0.21090016 0.03346233 0.05151844 0.03137012 0.18845998 0.08304534 -0.00020332844 -0.034568913 0.10072106 0.021702912 -0.11982197 0.074758925 0.044498347 0.036744893 -0.10458534 0.09969208 0.1542016 -0.18753563 0.046963356 0.050934028 0.10521879 0.08086733 -0.06915551 -0.050573464 0.0010983752 0.08549732
up 0.058817327 -0.038123056 0.06414133 0.015951691 0.059779454 -0.02601452 -0.043332715 0.008877815 0.056673706 -0.048765972 -0.18601993 -0.08889311 -0.09350705 -0.03643576 0.061932318 0.022614816 -0.11361474 -0.026245119 0.043369047 0.06698716 0.015057828 0.052023 -0.013685452 0.011565721 -0.07563057 0.14484353 -0.09465859 0.0752143 0.06926787 0.09569949 -0.12074018 0.11027144 0.044948813 0.10002053 -0.13449405 -0.08203027 -0.037252612 0.006332219 -0.09685056 -0.03034751 0.031717435 -0.055558 0.1507829 0.12259943 0.019856961 0.053686194 0.09525317 0.04303749 -0.047249295 -0.0608025 -0.08622934 -0.0040947413 0.100569725 0.080667056 0.077923164 -0.007207897 -0.007519791 0.0021099458 -0.07908235 0.025966207 -0.004245737 -0.073755324 -0.0015731808 -0.07650016 -0.10122988 -0.10494728 0.05533939 -0.104130514 -0.10399887 -0.015777396 0.06267872 0.033738155 0.004075146 0.18151475 -0.047990594 0.030412767 0.018093606 0.05119338 0.071744524 0.08603241 -0.037354145 -0.11171918 0.035863537 0.044981573 -0.046128165 0.065892525 0.05856705 -0.0677767 -0.028128486 0.010833138 0.00021771615 -0.104352 0.01723966 0.0028893368 0.0255569 0.07702005 -0.1009911 0.032256577 -0.03973459 0.0087235905
how 0.11048658 -0.09140105 0.10387653 -0.11147948 0.031407002 -0.07903523 -0.17093971 0.030396758 0.03822325 0.046758875 -0.10457702 -0.06510865 0.0046462854 -0.104409225 0.14413264 0.10581699 -0.0019955102 0.015781514 0.15293802 0.09543146 -0.15471867 0.12108784 0.09273515 -0.075140074 -0.16024959 0.18921766 -0.1517044 0.041051414 0.10966031 0.123962365 0.03600859 -0.12897645 0.088983215 0.19323099 -0.13235272 -0.13366836 -0.012606842 -0.13748057 -0.15970573 -0.13913679 0.1266195 -0.061980043 0.13808478 0.11800047 0.15629877 0.038505074 0.083793715 -0.0719611 -0.15832305 -0.17199367 -0.23442802 0.12401272 0.07480545 0.08587619 0.15632582 -0.044163644 -0.24893716 0.0861083 -0.1400926 0.07767417 0.13609184 -0.105573185 0.15820473 -0.04962253 0.08807528 -0.120503314 0.13946834 -0.12834802 0.04000997 0.16659467 0.07765585 0.13156348 0.114434466 0.080710016 -0.14631185 0.14467636 0.18500887 0.24412896 0.10659118 0.10949055 -0.057730865 -0.16952126 0.11923082 0.13349313 -0.15771705 0.10655553 0.14754298 -0.14556275 -0.18424965 0.19848712 0.11197572 -0.08349439 0.08649028 0.1825318 0.12642398 0.07131009 -0.1934355 -0.047047235 -0.23938406 -0.11490443
like -0.044667922 -0.11834118 0.20914628 0.00031654793 -0.00949207 -0.020743426 -0.033102993 0.2827642 0.1308803 -0.13342896 -0.036179177 -0.16682228 -0.09345063 -0.024716863 0.029730476 0.16015133 -0.12914914 0.02022961 -0.023714967 0.12874265 -0.030946486 0.10479915 -0.021946352 -0.07249019 -0.10202073 0.10570789 -0.06417247 0.06355595 0.2043411 0.12116289 -0.17316122 0.21195352 0.11814577 0.06708029 -0.26842675 0.015291716 0.019595468 -0.11570472 -0.055356726 -0.04995129 0.043277703 0.0005557644 0.13581961 0.15040211 -0.014987764 0.11873337 0.08593098 0.013217194 -0.08756702 -0.06526868 0.0010024047 0.044009022 0.17943002 0.07599234 0.0056726527 -0.042566024 -0.08289224 0.024878347 -0.07772198 0.057221845 -0.059239946 -0.1299984 0.09081222 -0.19470513 -0.024178604 -0.031319175 0.02207932 -0.190002 -0.20329642 -0.052828785 0.0954577 0.048185635 -0.00033787685 0.15069601 -0.06963516 0.022108624 0.05844213 0.023854386 0.07524299 -0.0019090511 -0.060020477 -0.017653046 0.06591472 0.074203454 -0.0061470782 0.1671532 0.019148564 -0.017265197 -0.1085639 0.08878923 0.11441559 -0.13532287 0.089414544 0.08464855 0.011326327 0.030867549 -0.101406574 -0.0055774315 -0.043543447 -0.09771117
one -0.007992147 -0.030400503 -0.007624079 -0.12984338 0.09695455 -0.12560616 -0.08540863 0.026231991 -0.0029179682 -0.03562102 -0.25977412 -0.08015491 -0.0810405 -0.020804197 0.013952845 0.03330157 -0.07925427 0.18951492 0.020233095 0.038413703 -0.09454815 0.11768034 0.07912322 -0.07693463 -0.022621017 0.0040623005 0.07643996 0.07176586 0.06169683 0.1098253 0.00027101347 0.05663401 -0.014387464 0.0097311055 0.029749041 -0.13741708 0.1777747 -0.22536576 0.029648632 -0.10838419 0.074031584 -0.004594616 -0.11462923 -0.042927418 0.066421635 0.108831584 -0.0029049641 -0.11632666 -0.001550541 -0.0982848 -0.16628234 0.019531853 -0.04098455 0.041310452 0.083342366 0.031899523 0.0012204817 0.045926612 -0.010121667 -0.0059204125 0.092730835 -0.19623795 0.10642535 -0.0299184 -0.06967273 -0.04448638 0.16239914 0.03520987 0.014494716 -0.03306991 0.04685207 -0.040351328 0.08165455 0.12531905 -0.025194496 0.05123806 0.009831181 0.12267637 0.054186825 0.0042963712 -0.07632865 -0.09730176 0.09312676 0.079782054 0.016515855 -0.012359167 -0.040463377 -0.051702507 -0.103347465 0.07000406 -0.04710039 -0.01094361 0.054656018 0.115982324 -0.02641149 -0.061326794 -0.019196767 0.056206383 -0.10576472 -0.07474224
no 0.09063238 -0.056305755 0.1004471 -0.08365548 0.15034598 -0.0062012784 -0.09352894 0.085899964 0.035223156 -0.099614196 -0.17064773 -0.13801034 -0.079718456 -0.09863888 0.09873872 0.015319589 -0.14163405 0.013836101 0.17873426 0.14328374 -0.027299872 0.0012855728 0.10042058 0.022174852 0.014763056 0.10069266 -0.0452151 0.14702596 0.0017972314 0.045061167 0.02430149 -0.14051405 0.13232134 0.09854337 -0.07368266 -0.06778817 -0.08935299 -0.14321265 0.021924827 -0.19323543 0.12188754 -0.12862532 0.11327693 0.056127984 0.16061996 0.28233442 0.086977094 -0.22926238 -0.124486916 -0.05468878 -0.23308504 0.119217195 0.13464715 0.034040112 0.06680951 -0.07810461 0.0031916213 0.13288854 0.011492221 0.10590524 0.18268362 -0.07486533 0.11554214 -0.07360179 -0.15794642 -0.028704062 0.058286563 -0.021688728 -0.14924762 0.07497783 0.062292833 0.025658604 0.10452123 0.06848803 -0.115894005 0.082422435 0.03541698 0.16416088 0.09477883 0.03936484 -0.11080329 -0.05731535 0.030499596 0.050890766 -0.051960442 0.015397215 0.030738104 -0.11791548 -0.13848215 0.09700798 0.020763278 -0.13572176 0.017722024 0.065644816 0.14600228 0.07790267 -0.1064818 -0.22828077 -0.1424504 -0.18736018
rabbit 0.07747623 -0.09065578 0.15783796 -0.1216643 -0.045236792 -0.032886855 -0.010412831 0.15500322 0.11612225 -0.1603867 0.0059718564 -0.13498558 -0.18920384 0.041058365 -0.074913874 0.10136274 -0.00062924233 0.22358587 -0.09148712 0.18590759 -0.08690114 0.14874315 0.05501071 -0.08050559 -0.034095008 0.1926931 -0.005083307 0.045338366 0.15774223 -0.0387946 0.0068486887 0.08197598 0.046636194 0.043567665 -0.14371355 0.017591914 0.026044488 -0.22098511 -0.07669978 0.104947485 -0.033278205 0.0051977797 -0.018974643 0.1422212 -0.0013952298 -0.07849296 0.12582026 0.04360778 0.05756695 -0.036508117 0.051628843 0.016858136 0.041366678 0.12766476 0.11887605 -0.037260953 -0.110136084 -0.024273999 -0.12567632 0.059260886 -0.0077929944 -0.21838133 0.09658922 -0.16228297 -0.026540041 -0.027807673 -0.025061222 -0.14856118 -0.053733587 -0.091499075 0.04202094 0.020947123 -0.020487184 0.22820668 0.02843994 0.0036141996 0.087545894 -0.051905606 -0.025212564 0.15796345 -0.020062568 -0.10912473 -0.09130377 0.13227384 0.09989966 0.19281554 0.053919256 -0.03235706 -0.15565366 0.03798178 0.018786173 0.084394634 0.07789674 0.12433487 0.07003984 0.06596092 0.007648686 0.01585552 -0.103242934 -0.108491205
when 0.16168992 0.0014823168 -0.02394088 -0.067685544 -0.021907162 -0.06920932 -0.11869075 0.016148495 0.05395952 -0.08611347 0.014005509 -0.04602571 -0.008738985 -0.005256635 0.08323327 0.02862398 -0.045243584 -0.05731971 -0.025133235 0.09809688 -0.09883088 0.07115877 0.036879692 0.039570156 -0.1247343 0.02511053 -0.011089236 -0.019068154 0.15736444 0.070401795 0.010399912 -0.05140051 0.0028228313 0.142004 -0.03888741 -0.051383425 -0.027489314 0.020642847 -0.15211567 0.12030805 -0.0059246817 -0.0675205 0.068980865 0.056940697 -0.029010441 -0.0056757247 0.12837313 0.008000356 -0.0034996406 0.0038300196 -0.021133816 0.015377627 -0.0144784935 0.12197148 0.056724843 -0.039791446 -0.07108009 -0.084302746 -0.09570541 -0.057059385 -0.020980293 -0.05442921 0.07563163 -0.16385923 0.07475912 -0.050460488 -0.055454552 -0.15785229 -0.08870025 0.06636071 -0.04265228 0.10665691 0.08719898 -0.009666631 -0.03536094 0.0420369 0.07184616 0.06873599 0.008004096 0.13216333 -0.0003391859 -0.08781794 0.028933784 -0.00329596 0.029095711 0.124773644 0.05973036 -0.103297584 -0.074445404 0.016686292 0.1643392 -0.072778046 0.14828464 0.044522367 0.0030887937 0.036412943 0.08363305 0.007249074 -0.01105276 0.019047463
all 0.11868952 -0.035868842 0.07696364 -0.15865517 0.034169205 -0.17226614 0.010557713 0.077382736 0.098774195 -0.15628253 -0.021178335 -0.14103337 -0.14204724 -0.12924042 -0.0022125826 0.13487579 -0.005400762 0.24587677 0.036570497 0.043728936 -0.0724109 0.17917548 0.09748676 -0.12927629 -0.1269763 0.15190682 -0.05545735 0.09317456 0.0936123 0.013061144 -0.08274579 0.11520814 0.05831895 -0.014536725 -0.18355231 -0.04312318 -0.14758012 -0.1566991 -0.05658323 -0.057712633 0.035998527 -0.09889231 -0.005997575 0.07864247 0.1579563 0.033199757 0.12466314 -0.15085176 -0.084094726 -0.11913125 0.021975368 0.036153935 0.12686983 0.16947451 0.12676309 -0.11084773 -0.18831685 0.17660041 -0.1225589 0.050878055 0.13256362 -0.14892375 0.05821145 -0.118311405 -0.030426245 -0.17688705 0.15627468 -0.09053897 -0.10647125 0.08260466 0.097051635 0.07158797 0.108049884 0.034446683 -0.04809805 0.06914931 0.086906046 0.035702832 0.08802832 0.08709446 -0.03274688 -0.0938021 0.038279794 0.13834222 -0.06392814 0.09441305 0.0963134 -0.16041028 -0.11236964 0.07656252 0.09003508 0.031712532 0.092022635 0.15537035 0.18075223 0.08109326 -0.08422892 -0.055007484 -0.07025152 -0.13265912
see 0.020051029 0.025886199 0.0037555974 -0.06319393 0.041703556 -0.0691307 -0.005001209 0.016719686 0.0060076206 -0.02354569 -0.04262672 -0.0035335328 0.156826 -0.13247314 0.15324788 0.053703416 -0.024003413 -0.08807243 0.067215666 -0.001818759 -0.035256386 0.06380101 0.06765032 -0.119043775 -0.046526834 -0.0018198974 -0.22424296 -0.027949406 -0.011325217 0.008786181 -0.1980209 -0.0313571 0.09492339 0.103315696 -0.0018543974 0.015474203 -0.01684397 -0.03063756 -0.10337889 -0.18086019 0.025598958 -0.08102437 0.071606375 0.026545351 0.01916361 0.15640521 0.05100101 -0.032836057 -0.12839235 -0.06777784 -0.083800666 0.06742567 0.14284 -0.09480725 -0.034216184 -0.14348327 -0.003528053 0.035336137 -0.027556105 -0.07971073 0.09836397 0.03238962 0.062419973 -0.019341633 -0.012787859 0.02609897 0.013134742 -0.057388246 -0.05772515 0.10581839 -0.057714004 0.2040102 -0.009867943 0.02000929 -0.10126387 0.07196266 0.020165771 0.14168306 0.025617644 0.082215875 -0.14458407 0.028339045 0.009756555 -0.025198244 -0.15626206 0.1325744 0.10333498 -0.015367221 -0.08008863 0.07799322 0.07251549 -0.2798421 -0.013926713 0.11308787 0.088753544 0.13498452 0.05074893 -0.11018526 -0.066312306 -0.02438992
into 0.08941882 -0.042208742 0.03334702 -0.14383745 0.03823593 -0.16717485 0.047378182 0.16425562 0.16888687 -0.16311042 0.047137357 -0.14419174 -0.08461694 0.014846736 -0.004470668 0.09168919 -0.030414322 0.18075235 -0.042774804 0.19259776 -0.11056889 0.18525949 0.034460984 0.024166077 -0.20699422 0.06771075 -0.068057224 -0.043769084 0.24200124 0.096419506 0.0038213644 0.217945 0.109576836 0.020574132 -0.12569165 0.04538838 -0.029032826 -0.22686675 -0.08636156 -0.008818008 0.046136595 0.034248043 -0.010332904 0.17779796 0.03845534 -0.09794649 0.09349115 -0.062784694 0.026843892 -0.052795466 0.054237124 0.07624111 0.009042182 0.20787454 0.06946257 -0.013663998 -0.07770446 0.070745565 -0.07942723 -0.03569941 -0.05682474 -0.28923795 0.035147518 -0.17481236 -0.054436997 -0.10978436 -0.0077734473 -0.16731876 -0.22130391 -0.10697473 -0.017390516 0.09706094 -0.006961114 0.14747624 0.04794736 0.045609143 0.09321421 0.016658252 0.036298897 0.057726327 -0.039139763 -0.09512897 0.004786362 0.012986042 -0.043894276 0.12737082 0.1705235 -0.14076917 -0.082392454 0.085181236 0.076297686 0.013426518 0.17359547 0.10701812 0.15854618 0.010199412 0.03761971 0.059872366 -0.0144518865 -0.26369473
what 0.0822139 -0.02234159 0.083734326 -0.10602397 0.079718314 -0.13121402 -0.0080261445 0.068600185 0.13369603 -0.044822406 -0.07203826 -0.0688508 -0.043490708 -0.16326636 0.054728433 0.15461828 -0.026261153 0.01490758 0.03981065 0.125892 -0.049825843 0.046274457 0.051918574 -0.11646309 -0.13603975 0.15887943 -0.07342451 0.11809245 0.013523572 0.0051474147 -0.07291057 0.08092152 0.010862681 0.09072049 -0.10384321 -0.06109881 -0.026087718 -0.10491405 -0.07234283 -0.11938465 0.11353971 -0.0063963085 0.12402596 0.05478384 0.10537361 0.10244494 0.13227619 -0.024020828 -0.1360785 -0.15331762 -0.0803545 0.005386871 0.056449313 0.036380056 0.099073306 -0.007073538 -0.09553128 0.066025466 -0.06449372 0.06759858 0.07704344 -0.16197547 0.10892851 -0.075761974 0.025593147 -0.10741643 0.052013587 -0.043728452 -0.15347707 0.04320538 0.11060502 0.081327155 0.05734339 0.11653272 -0.007396953 0.041547097 0.17612043 0.15375385 0.0424884 -0.021542998 -0.043089848 -0.113784514 0.0134709375 0.065603144 -0.15604801 0.010209351 0.17364246 -0.07280434 -0.10218519 0.09963422 0.08744302 -0.14584051 0.009691459 0.1104228 0.085576735 0.12323396 -0.091781884 -0.08310312 -0.064489886 -0.07266524
there -0.043234315 0.043858543 0.006843504 -0.11552012 -0.045105338 -0.028921612 -0.080359206 0.0046860673 -0.019273935 -0.0062145777 -0.21736509 0.075887 0.047401704 -0.10501515 -0.013769797 0.1848058 -0.10076655 -0.07361874 0.074975744 -0.020399395 0.053653322 0.07334923 0.049976513 0.05226959 -0.05078684 0.08469968 -0.031094493 0.15969376 -0.006301682 -0.07208852 -0.19276021 -0.02465815 -0.0038825176 -0.05444751 -0.031495504 0.07926968 -0.07458911 -0.0042454996 0.0571068 -0.069362305 -0.08744083 -0.09178467 0.074488804 0.10370009 0.036485896 0.22207934 0.021674749 -0.15379147 -0.0287606 -0.03554919 -0.190647 -0.02264321 0.06463773 -0.06738807 0.105822735 -0.068300195 -0.024846135 0.24125859 0.05496197 0.20693938 0.13891849 -0.009548081 -0.08478275 0.028547877 -0.16276705 -0.06212584 0.09777119 -0.0132072605 -0.11276063 0.14049748 0.043762945 -0.08858278 0.017254548 -0.03900927 -0.08911054 0.034305558 -0.020116257 0.09854813 0.09367471 0.068869516 -0.019874947 -0.05236853 0.06920523 0.15659907 0.02773579 -0.032034192 -0.015295598 -0.021631777 0.00017943513 -0.008881369 -0.03005 -0.084800735 0.083877325 -0.019017313 0.021382656 -0.02684281 -0.08760086 -0.12710439 -0.055863388 -0.05272355
think -0.005680423 0.102255434 -0.06151223 -0.0071823527 0.04328865 -0.07157148 0.01694861 0.06303753 -0.073165625 -0.015193344 -0.029737126 0.0034835297 0.0017072549 -0.10422345 0.1703558 -0.03642717 0.0053522754 -0.19988179 0.09353703 -0.07516674 0.07546252 -0.04937975 0.016748905 -0.13245375 0.041608825 -0.058636732 -0.09874499 0.029626532 0.02252132 -0.08391291 -0.16860597 0.06832563 -0.054492146 0.014977957 0.043161742 -0.022384733 0.077969395 -0.0239992 -0.044471253 -0.26286805 -0.12011249 0.048522014 0.042171672 -0.17391346 0.0004093725 0.08610106 -0.102495976 0.0011533978 -0.013223463 -0.023551028 0.019872703 -0.004087598 -0.071595296 -0.005955407 -0.12853725 -0.033731308 0.11636672 0.08328825 0.04314767 -0.19856139 -0.027762882 -0.06233023 0.065165296 0.01481196 0.0070316875 -0.018120943 0.0758635 0.11715792 0.089404374 -0.07267541 0.018440071 0.10457016 -0.06399595 0.16484177 0.07327891 0.020386832 -0.04383763 0.16783792 -0.11792989 -0.08034875 -0.1294143 0.11206723 0.044462416 -0.049196318 -0.14530203 -0.04003123 0.044260696 -0.052071583 -0.046397634 -0.10570567 0.032020807 -0.24378815 -0.015734201 0.19323142 -0.021903967 0.018603615 -0.06529066 -0.044100843 -0.04690131 -0.06584778
me 0.054864004 -0.15657327 0.07011537 -0.06827325 0.060327932 -0.16318476 -0.03262607 0.1402557 0.20867853 -0.1272443 -0.16523294 -0.07580613 -0.07989986 -0.12881616 0.20727268 0.123604454 -0.08717422 0.052266028 0.10794914 0.113632895 -0.13013184 0.1714075 0.018097527 -0.018994443 -0.09610051 0.1633397 -0.16931915 0.05393289 0.06351476 0.1677261 -0.07715311 0.06889075 0.105226316 0.086895816 -0.10322717 -0.09024295 -0.15035728 -0.11877461 -0.07480596 -0.1114484 0.052706078 -0.10344064 0.1762879 0.0986299 0.08346669 0.16380785 0.049692657 -0.14147498 -0.17032959 -0.17961986 -0.1560386 0.07895988 0.12314209 0.1447582 0.11003821 -0.095629506 -0.03899131 0.15787676 -0.06271498 0.08851846 0.12000628 -0.074718066 0.064288445 -0.02111138 -0.074023455 -0.039944686 0.19306508 -0.12750936 0.00092804315 0.154519 0.22043416 0.15420605 0.19254258 0.21074936 -0.04884762 0.043466426 0.115308926 0.08780344 0.12738788 0.11549396 -0.14444175 -0.049730655 0.14175653 0.09141843 -0.2315496 0.106361814 0.14488758 -0.10138393 -0.08104356 0.110919766 0.04409239 -0.14817353 0.10404497 0.14255287 0.17852618 0.15487908 -0.16168596 -0.032884113 -0.10307337 -0.11878797
if 0.06253199 0.102596804 0.034843665 -0.012179448 0.096696705 0.012860566 0.027168257 0.10302791 -0.0012325157 0.030594314 0.034070317 -0.06296855 0.12547615 -0.18581352 0.069782645 0.011158265 -0.013685623 -0.058359087 0.056460373 0.11319003 -0.0070228153 0.08613669 -0.031055532 -0.16640347 0.00042372744 -0.015862126 -0.10260456 0.06393761 0.09887465 -0.051679395 -0.068934 0.13888638 -0.0054710736 0.062470376 -0.051912453 -0.0030525501 -0.08057685 0.06791021 -0.18681079 -0.24262972 0.012512071 -0.009778856 0.21907389 0.04576531 0.048113342 0.078815125 -0.0078102094 -0.05578372 -0.04785134 -0.12435331 -0.011812477 0.02001643 0.07133879 -0.009231804 -0.08219671 -0.070583604 0.033344977 0.088279635 0.039450023 -0.10195671 -0.068524264 -0.13902006 0.0835052 -0.023902707 0.07502462 0.022602178 0.12027413 -0.002087514 0.059260517 -0.057477348 0.10069134 0.07015752 0.0101689445 0.091750346 -0.0062535903 0.055672273 0.08402682 0.18283895 -0.04436887 0.0025705586 -0.13788219 0.01371954 0.11927102 0.059770938 -0.21245112 0.09455071 0.07518868 -0.14275713 -0.021269294 0.019688545 -0.062383793 -0.16390568 -0.01418655 0.05044266 -0.04082572 0.13455412 -0.112310894 -0.08746715 -0.044079382 -0.020413922
thought 0.06829431 0.12183029 0.03637505 0.0071639875 0.0781504 0.008560901 -0.08712758 -0.09603982 -0.011853363 -0.17459656 0.06597626 -0.0090518175 0.05817067 -0.03484853 0.15394257 0.062383015 -0.010224644 -0.075780705 0.019921837 -0.041709267 -0.09874736 -0.0030967875 0.22543651 0.0068111243 -0.13992186 -0.073951684 -0.076336525 -0.13005896 0.04309491 -0.07183992 -0.22739765 -0.0001815526 0.0032387741 0.12235923 -0.09137681 -0.12038976 0.03149066 -0.017619863 -0.020611672 -0.16008052 -0.007673454 0.09097725 0.058203075 -0.045870155 -0.056395844 0.24447452 0.047512803 -0.05126484 -0.032436963 -0.037139833 -0.0011687704 0.11314765 -0.013946083 0.053691857 -0.084369175 -0.07883326 0.036559258 -0.05888919 -0.09214694 -0.11073246 0.05822702 0.08289161 -0.05608519 0.07107372 -0.075360104 0.025239948 0.054529242 -0.024098655 0.049905974 0.10905714 -0.0033603916 0.12574656 0.005548391 0.02044559 -0.18912524 -0.06903207 -0.017430853 0.02966342 -0.0480267 -0.062135402 -0.07635051 0.016849192 -0.06026483 -0.00849141 0.015655175 0.06780349 -0.0016368794 0.061286725 -0.05310266 -0.023050943 0.21000642 -0.06580644 0.090211764 0.028485326 -0.03401289 0.0400418 0.029642932 0.09019472 0.063624665 0.027039543
could 0.13245092 0.12359461 -0.097025305 0.054890476 -0.06329819 -0.08499592 -0.009633109 0.06921789 0.053782027 -0.10989076 0.136241 0.05646896 0.19243325 -0.020421948 0.10863327 0.056216955 0.05204799 -0.14718111 0.037641495 -0.03158863 0.042050954 -0.029851228 -0.00817155 -0.0024474952 -0.02947919 -0.06638888 -0.22119766 -0.03823382 0.11279965 0.09483528 -0.19251268 -0.04488013 0.095967054 0.041543953 0.13040167 -0.09555889 -0.20822796 0.08437449 -0.16454577 -0.03681879 0.07157216 -0.044180553 0.21048895 -0.023176769 -0.072594374 -0.036085885 0.054642674 0.11098913 -0.028833501 -0.03009604 -0.07004117 0.06379177 0.031688567 -0.029944064 -0.035977725 -0.0012748982 0.027832886 -0.06198524 0.011532769 0.009588361 0.1308427 -0.08078432 -0.10899912 0.028770179 0.10014589 0.0068211574 -0.026026236 -0.05411418 0.08047943 0.1274108 0.07830151 0.10309304 0.018919487 -0.070604615 -0.031354994 0.13454878 0.028162321 -0.021710554 0.08617035 0.132468 -0.051418055 -0.03192339 0.11270947 0.01905735 -0.18029194 0.16769451 0.21562012 -0.11896687 -0.04245209 0.033758786 0.059760056 -0.05142167 0.07616947 0.09596614 0.06912173 0.07376827 -0.04500712 0.0002831798 -0.05252966 0.043156736
time 0.11101939 0.05240338 -0.062373966 0.024861334 -0.019860767 -0.01261568 0.0015320501 0.025559692 0.020642292 -0.099382356 0.029968768 0.021235922 0.061644383 0.036517523 0.12272499 0.026566878 -0.010167347 -0.07640962 -0.048012704 -0.12794992 -0.034226246 -0.024079278 0.06666666 0.026877284 0.05325009 -0.055731673 -0.08459413 -0.010203278 0.03494289 0.07071279 -0.093083404 0.0387475 0.11512226 0.0631697 0.022574848 -0.06479905 -0.007342341 0.06909024 -0.09408137 -0.028463403 0.04896742 -0.0048426487 0.05268656 -0.035970397 -0.02514814 0.034624428 0.085478276 0.065852925 0.026890986 0.07034478 -0.050247367 0.07005541 0.061735135 0.007655549 -0.013735135 0.023445372 0.0058424603 -0.06607573 0.00089169206 0.014589755 0.07229789 0.009235078 -0.029284792 -0.0042134356 0.06254718 0.025349682 -4.5160967e-05 -0.010136789 0.010768124 0.039361108 -0.05214612 0.10355795 0.049275704 0.026201766 0.009896254 0.08937015 0.029408908 -0.009128157 0.12761018 0.08316858 -0.0012996858 0.01180769 0.06627869 -0.046155058 0.04587191 0.10144524 0.0122968005 -0.014574447 0.017458707 0.06692197 0.006708929 -0.09360334 -0.009957484 -0.027180256 0.113471135 0.0075249225 -0.024250545 0.05946336 0.05980946 -0.006045951
about 0.046181634 -0.024234412 0.13048786 -0.08550859 0.15868083 -0.12719846 -0.022658907 0.1691384 0.026286678 -0.12909704 -0.088505305 -0.09531962 -0.110009424 -0.18041767 0.052485604 0.099647775 -0.0473001 0.14738879 0.17425817 0.25173333 -0.14139728 0.14137825 0.12820877 -0.13080367 -0.0570725 0.106316686 -0.19850594 0.113341 0.17596969 0.08150299 -0.07403388 0.14042266 0.13192374 0.17887908 -0.09165417 -0.07054528 -0.07235063 -0.106032744 -0.12949008 -0.1774252 0.17712952 -0.08412781 0.16646984 0.06385804 0.06785966 0.07059099 0.13359746 -0.037630238 -0.09551667 -0.17260863 -0.11289234 0.1341639 0.03755459 0.17747316 0.021043954 -0.066959046 -0.09930987 0.12852529 -0.055220556 0.033175193 0.010270062 -0.109114625 0.17862235 -0.14591388 -0.037045177 -0.10640063 0.09657129 -0.06971531 -0.1335068 0.11182911 0.15838383 0.12782128 0.13858844 0.14693563 -0.15571913 0.19383 0.11049218 0.11907669 0.0289281 0.18999514 -0.20209137 -0.1383774 0.15732604 0.097044036 -0.24830629 0.17542048 0.108438686 -0.09692609 -0.15482685 0.13602826 0.07658413 -0.16346934 0.14923595 0.0945197 0.099609144 0.078177944 -0.1222961 -0.09981315 -0.1368392 -0.16823992
went -0.024960725 0.027649887 -0.008723355 -0.008040952 -0.034100737 -0.012226528 -0.1065786 -0.03772702 -0.101062655 -0.09824081 -0.04218208 0.049789462 0.08290632 0.059449848 0.055431094 -0.108372234 -0.01669831 0.031444892 0.044823933 -0.06707784 -0.009989009 -0.04549234 0.12594609 -0.036240265 0.014953623 0.016981788 -0.15131935 0.026595544 -0.0018284817 -0.0026113244 -0.06605597 -0.028189922 0.018046437 0.0012407366 0.023090918 -0.04251406 -0.009747922 0.08226029 0.032561943 -0.017052958 0.006567443 0.036356263 0.064543806 -0.01875548 -0.11219364 0.097758725 0.05863845 0.103676885 -0.0003445598 -0.0030459345 -0.0765772 0.0202929 0.006920139 -0.053649835 -0.0006361248 -0.031218313 -0.04813004 0.030276036 0.02046989 -0.019939356 0.06668483 0.096850224 -0.041809034 -0.0004762815 0.0903255 0.10632547 -0.090590835 -0.023580056 0.110787414 0.14176188 -0.03908087 0.058299515 0.019624451 0.050846826 -0.10850739 -0.025164206 -0.026528409 0.089744076 -0.019341016 0.06558608 -0.049809586 0.030342394 0.013831269 -0.039158374 -0.028769145 0.049208757 -0.04735065 0.050160117 -0.041557807 -0.04279453 0.08381669 0.05735973 0.04178701 -0.05495653 -0.062476736 -0.015015505 0.0010711604 0.041223954 0.008045236 0.025159122
were 0.11886883 -0.0729261 0.06415582 -0.13310675 0.0974121 -0.19523087 -0.04953704 0.22849776 0.065796286 -0.15810528 -0.06363179 -0.17090543 -0.019091645 -0.14873973 0.023445934 0.17717542 -0.12225582 -0.07895365 0.18353745 0.22527461 -0.19419378 0.12340589 0.113657966 -0.20443524 -0.11194497 0.13424423 -0.11832078 0.15907408 0.1323444 0.065820046 -0.041001074 0.1580802 0.09085209 0.016166888 -0.18625104 -0.14302407 -0.14046197 -0.16334702 -0.13363981 -0.15037867 0.08372134 -0.15945473 0.11636077 0.08544631 0.15090343 0.12702098 0.071962826 -0.08281036 -0.1466017 -0.13415092 -0.096630916 0.1666206 0.10496871 0.17780632 0.065161414 -0.15074146 -0.062018245 0.20736156 -0.13822149 0.057734743 0.101096675 -0.18196398 0.1074192 -0.09850511 -0.12247428 -0.09879046 0.18236215 -0.112290554 -0.062206596 0.14312565 0.15567511 0.10772257 0.12275759 0.17799638 -0.13848056 0.13945302 0.01849051 0.09645461 0.13518871 0.14351033 -0.10378675 -0.13313311 0.062934 0.1070618 -0.1529945 0.074630804 0.21633518 -0.20673461 -0.13726895 0.057115696 0.14627591 -0.103013225 0.188133 0.06035424 0.14435028 0.107495315 -0.09654058 -0.100635596 -0.20261265 -0.111781605
off 0.09774493 -0.02912337 0.15626243 -0.15981133 0.052462604 -0.04318629 0.0029192013 0.12113781 0.14044043 -0.09004404 -0.17473729 -0.21860212 -0.010688139 -0.059214994 0.07889115 0.07128108 -0.051801283 0.01017953 0.058773212 0.15393037 -0.0581082 0.10276977 0.006413919 -0.12433392 -0.07871432 0.093458876 -0.045162898 0.09774434 0.1454058 0.063333586 0.08651486 0.077776246 0.053891387 0.067121945 -0.13235028 0.0019992306 -0.025953665 -0.18217017 -0.17961943 -0.083427675 0.11119852 -0.07816808 -0.05525613 0.09740442 0.050678186 0.1562814 0.12793006 0.02347818 -0.12079418 -0.20365041 -0.086873196 0.0061010523 -0.050046053 0.10497101 0.018524017 -0.042423863 -0.1105945 0.09195878 -0.14071201 0.080742136 0.035466224 -0.16044743 0.12437706 -0.108591825 0.012382953 -0.074274555 0.10670904 -9.7502256e-05 -0.1266095 -0.019924393 0.13439722 0.20424974 0.022136142 0.118914574 -0.08599333 0.0022168246 0.13766481 0.11174887 -0.03997987 -0.0060577122 -0.08985048 -0.14630365 0.065101944 0.08230551 -0.11632057 0.094272986 0.18407525 -0.084563136 -0.13452862 0.0530995 0.025486108 -0.124594636 0.07625222 0.120718315 0.008456451 0.11407269 0.0008201841 -0.07687093 -0.088122256 -0.046813753
said 0.15696084 0.10346137 0.054313917 0.012557469 0.13145673 0.12848078 -0.006798343 -0.12112796 -0.16993237 -0.04270364 0.04985912 -0.021194879 0.02615581 -0.03974782 0.06547457 -0.0034507068 0.05877747 -0.04846671 -0.043649215 -0.12334582 -0.09976434 -0.10273201 0.15755028 0.06929079 -0.07582191 -0.06311408 0.03264246 -0.15879582 0.0007089161 -0.021093894 -0.06881004 -0.17466153 -0.1081184 0.19606602 -0.034034234 -0.16834608 0.0036731814 0.040848445 0.036350165 -0.036073975 -0.07352014 0.107295506 -0.018748093 -0.11571002 -0.05741171 0.21312085 -0.04123506 0.0036132985 -0.08842098 0.057300467 0.061005343 0.08282148 -0.07655433 0.046260253 -0.15372835 -0.11487174 0.05472983 0.0020580431 -0.08426922 -0.111370385 0.03976305 0.1581735 0.0036601406 0.05442624 -0.03522182 0.18475896 0.14186962 0.03056961 0.18792729 0.07918231 -0.07642983 0.038263094 0.0025051069 -0.026548209 -0.12904258 -0.07107376 0.027922789 0.1870971 -0.07672026 -0.09294333 -0.17394713 0.015548323 0.010622101 -0.10685313 0.018273938 -0.064986326 -0.080405764 0.11541954 0.038115326 -0.062343117 0.16334517 -0.15216817 -0.017052423 0.045243427 -0.054112397 0.0077687814 0.01756783 0.06127912 0.030881915 0.090423
by 0.01970085 -0.10150456 0.08547651 -0.041702904 0.05183984 -0.016864996 -0.068121925 0.13886043 0.13433059 -0.13958873 -0.05563144 -0.117888406 -0.20162836 0.010588498 0.010102063 0.060231727 -0.045868088 0.1884024 0.034692977 0.089277655 -0.071333036 0.15866666 0.07561475 -0.082705416 0.0099948915 0.06492128 -0.06542268 0.1608796 0.12767088 0.06782941 -0.051048335 0.14017162 0.11016434 0.023371363 -0.049840417 -0.059181776 -0.027969606 -0.16113077 -0.093772374 -0.14088002 0.10128371 -0.075002395 0.09407014 0.05212419 0.087006584 -0.045502037 0.08453204 -0.11185548 -0.012804838 -0.07532823 -0.059962995 0.08532407 0.09344756 0.12353378 0.0870354 -0.034780227 -0.01652285 0.080308735 -0.09219583 0.06312181 0.0236291 -0.06948635 0.10676127 -0.18286231 -0.049001213 -0.10286988 0.07284644 -0.11811774 -0.15238538 -0.056174953 0.16802754 0.09906246 0.078682505 0.036297604 0.02857689 0.10432118 -0.0044307914 -0.0076954733 0.13186966 0.102955006 0.021444457 -0.07318441 0.060616877 -0.014110184 -0.08057099 0.086597145 0.028280621 -0.10770254 0.010403345 0.032180544 0.07675986 0.034602128 0.049552206 0.1315069 0.008190377 -0.017985485 -0.1161509 -0.08549771 -0.022289567 -0.10345346
get -0.07894198 -0.037897162 0.014856346 -0.098190315 -0.017978773 -0.11691653 -0.0057965713 0.04883837 -0.047191072 0.08761052 -0.24015224 -0.105478756 -0.046310242 -0.13294157 0.057166368 -0.035427336 -0.042519283 0.00262257 -0.023332503 0.06956619 -0.056240708 0.025179919 0.1468996 -0.084429905 0.030067585 0.067710996 -0.09751235 0.0723964 -0.04195747 -0.018296896 -0.1074889 0.034085117 0.12930834 0.035410713 -0.08553917 0.03830773 0.041347858 -0.1399906 0.07838052 -0.14361082 0.013123231 0.0053058127 -0.15214443 -0.08104067 0.010706924 0.14260934 -0.040207885 -0.08825234 -0.072786815 -0.13643362 -0.14568175 0.023181045 -0.049865607 -0.13723181 0.018328277 0.06097321 -0.03496418 0.008454146 -0.014236518 0.08368295 0.049889307 -0.063181065 0.04989333 -0.0029330063 0.0027174419 -0.01968239 -0.046687987 0.010236146 0.096528605 0.11569158 0.017368449 0.13754041 0.026180688 0.06497087 -0.10768362 0.034609906 -0.01972519 0.1743086 0.090554975 -0.06954977 -0.10068597 -0.032914963 -0.0457739 -0.016992964 -0.028279947 -0.1287698 -0.045051154 0.060173985 -0.16750845 0.05342088 -0.06482458 -0.16575143 -0.07990329 0.025905084 0.01411149 -0.012219748 -0.0371929 -0.04658282 -0.012277643 -0.0068563595
do 0.06568822 -0.05538761 -0.026141707 -0.07977037 -0.00602704 -0.12443613 -0.059598304 0.066127755 0.031354446 0.024377998 -0.083156414 -0.09373187 -0.03031722 -0.020532249 0.14549053 0.10377646 -0.0359812 0.018954879 0.06541442 0.044853836 -0.079587236 0.022268975 0.08705552 -0.10528401 -0.056572996 0.08939269 -0.0923076 0.03506012 0.08961794 -0.023895789 -0.13749452 0.038386043 0.050336037 0.09677017 0.0065671876 -0.07061626 -0.031203775 -0.11342601 -0.04010184 -0.14481345 0.11043052 0.011208669 0.03986656 0.08665931 0.030701421 0.15019852 0.016635124 0.012708332 -0.13229449 -0.13312759 -0.1325444 0.072621 0.056237098 0.040010538 0.036238592 -0.054598644 0.0376588 -0.020390479 -0.07496517 0.015364876 0.097552225 -0.036991734 0.080277346 -0.026695026 -0.04425611 -0.07207447 -9.9252095e-05 -0.004367294 0.029899564 0.08088387 0.02856261 0.118079774 0.01917108 0.0277262 -0.09602053 0.043131348 0.026969358 0.05898318 -0.036468137 0.024775093 -0.047781184 -0.066288434 0.07338465 0.002718944 -0.08221244 0.042208217 0.06355563 -0.11158969 -0.050720558 0.060348798 0.1075521 -0.07791453 0.11807098 0.13558117 -0.018227676 0.09281384 -0.014817963 0.009472884 -0.04463508 0.010961601
would 0.06868159 -0.008636534 0.040475544 -0.038341343 0.016346721 -0.07782745 -0.007900996 0.045344695 0.05955599 -0.16297916 -0.035446815 -0.044641696 0.019657357 -0.0067974767 0.039535932 0.023505334 -0.06298048 -0.021370966 0.017369814 0.12649703 0.036040742 0.06148657 0.071243376 0.023898032 -0.028235862 0.057688233 -0.08279622 0.009813264 0.021402692 0.10397079 -0.06839593 0.06946877 0.07515615 0.05184448 -0.10207649 -0.044719886 -0.11538086 -0.0061114347 -0.14197919 -0.13219205 0.11939599 -0.07974033 0.19256115 0.09181177 0.028639954 0.060331993 0.1322145 -0.024149554 -0.08648301 -0.050255686 -0.013215514 0.033130415 0.14305206 0.030714849 0.046627603 -0.04255174 -0.023393517 0.06537721 -0.07458882 0.052201007 0.009204338 -0.10460464 0.041950904 -0.07377853 -0.1646019 -0.055982105 0.031587522 -0.10666311 0.011696828 0.055313803 0.02463815 0.04296069 0.03165268 0.079710215 -0.0622478 0.08607762 0.084826335 0.06343855 0.07082964 0.07223631 -0.004785429 -0.046952166 0.05366142 0.033649217 -0.07700172 0.104184896 0.077332854 -0.0995507 0.026628498 0.06263664 0.056051813 0.014297807 0.061416417 0.060175844 0.017615594 0.07899552 -0.07386224 -0.02053694 -0.0755302 -0.013112906
much 0.037872847 0.0050434815 -0.017328568 -0.06557445 0.021458725 -0.017228812 0.038946357 0.05121215 0.09437316 -0.029062733 -0.050714392 0.05445625 -0.0018072728 -0.020224089 -0.017939659 0.060470324 -0.05321703 0.020112203 -0.032708783 0.058705784 0.02734153 0.015219948 0.06693726 -0.052110817 -0.023584219 -0.06672783 -0.10182138 0.05793845 -0.025149142 0.012286412 -0.1055805 0.018054249 0.07292478 -0.08756319 -0.017129127 0.042671632 -0.0737008 -0.027797014 -0.049876433 -0.058562938 0.04697807 -0.04990315 0.056072723 0.042416442 -0.045767862 -0.018927654 0.07204516 -0.097801864 0.0075155054 0.052733023 -0.06393627 -0.003613462 0.023125155 -0.02759849 0.048737656 0.025189655 -0.010627486 0.031388603 -0.057809148 0.09493826 0.06338594 -0.0141751785 0.057639673 -0.030977 -0.088174686 -0.01788802 0.015617928 -0.06949857 -0.07898966 -0.0023711356 -0.0121915545 0.102563456 -0.042183712 -0.019107712 -0.032359477 0.085641265 0.0058905906 0.043089908 0.056304697 0.020077962 -0.020982808 -0.04301045 -0.027359255 0.073293075 -0.06759995 0.07144723 0.06449532 0.018943416 -0.07478479 0.007677083 0.011677548 -0.061284106 0.038294163 -0.003753546 0.024921523 0.043630786 -0.049219113 -0.05930202 -0.022256348 -0.077523746
feet -0.07307855 0.06466108 0.0069680777 0.020155363 0.05473102 0.03646603 0.019066287 0.03689513 -0.00012392912 0.0043916716 -0.07703361 0.0009879062 -0.02366675 0.05987539 -0.003333382 -0.02229606 -0.010567508 -0.045658667 -0.02611332 0.07415263 0.090009734 -0.03240881 -0.03841429 -0.027471714 0.020724876 -0.036917992 0.113153994 0.048027135 0.009648716 -0.068847865 -0.11256565 0.019498033 -0.13350207 -0.041665304 -0.047584623 0.024247192 -0.06046982 0.07793089 -0.039435007 -0.044099532 -0.012178496 0.033165395 -0.02484909 -0.038008053 -0.0075602983 0.04775464 -0.015668474 -0.023209255 0.06374817 -0.0146839125 -0.044909883 0.030575316 -0.049013123 -0.013668137 -0.07100728 0.0022799517 0.0060348734 0.0033815901 0.028214134 -0.001207379 -0.032850616 -0.024383284 -0.021788567 0.031139344 -0.07451608 -0.004123966 -0.023628812 0.0679973 0.008749407 -0.100824416 0.06981449 0.0066303546 0.036133092 -0.042311657 -0.0011175107 -0.075354785 -0.01464562 0.07693495 -0.041177947 -0.07750201 -0.040672336 0.076548405 0.0103869885 -0.06461261 0.018305631 -0.047712687 -0.0036979397 0.003319882 0.08037762 -0.020729933 -0.023774585 -0.04127341 0.027703987 0.035155706 -0.01378929 -0.042968255 -0.07198128 0.025250372 0.06326947 -0.0064205453
through 0.05436007 -0.15749411 0.18263327 -0.15104423 0.023843175 -0.04815277 0.048263807 0.07814899 0.13616611 -0.12415584 -0.0001711917 -0.14750129 -0.08582207 -0.0756972 -0.026435038 0.1757547 0.07819662 0.11963516 -0.02252213 0.121160515 -0.14213414 0.13620774 0.06131742 -0.054495696 -0.092305414 0.12166145 -0.040509976 0.047465257 0.15452884 0.024440164 0.042945214 0.113253966 0.037880495 0.0014521781 -0.17333184 0.04414303 0.09881798 -0.16544908 -0.0189757 0.01855572 -0.023405686 0.061168585 -0.013443536 0.069858335 0.059049945 0.03510223 0.0683742 -0.056595407 0.06848816 -0.06942767 0.044386428 -0.007847495 -0.033780936 0.1225637 0.04124492 0.0022099346 -0.068287276 -0.020717304 -0.093968496 -0.043338384 -0.07091349 -0.06819557 0.020122841 -0.18820149 0.017471317 -0.12549788 -0.027607283 -0.0923131 -0.045964524 -0.025787586 0.027268898 0.104235515 -0.022608463 0.12821424 0.036404468 0.050553575 0.09145315 0.077045895 -0.009337542 0.03568765 -0.05306761 -0.056917205 -0.05128911 0.0035061669 -0.071912564 0.1702069 0.079285555 -0.09461193 -0.15952154 -0.007401602 0.0146906 -0.035160903 0.06435512 0.13686502 0.10651248 -0.007508654 -0.0396234 0.07134023 -0.11151322 -0.12930946
door 0.02529817 0.07102941 0.015280775 -0.019522622 -0.13799243 -0.13781193 0.060818706 0.10366171 0.02157969 -0.07130746 0.12404236 -0.11873308 -0.010113038 0.01603552 -0.04595704 0.008693105 0.032664396 -0.039683048 -0.0938045 0.11144633 -0.10156033 0.055911157 -0.013303084 0.032083258 -0.092232816 0.04418611 0.02578004 -0.040119216 0.13076887 0.04683814 -0.008863389 0.12543896 -0.0570205 0.05044546 -0.04184817 -0.001243097 -0.016024187 -0.026497481 -0.038883917 0.04395093 -0.009227994 0.05254645 0.04385657 0.036351904 -0.03817556 -0.06488397 0.067744926 0.13096261 0.015942529 -0.026806382 -0.033615865 -0.059313037 0.016567644 0.062771805 0.02830051 -0.005922584 0.061075803 -0.05859003 -0.04285391 -0.07401021 -0.012487445 -0.08332218 -0.045581892 -0.093421206 0.09405844 -0.10708231 -0.103969194 -0.18960053 -0.05932793 0.032565836 -0.015109071 0.10092544 -0.06346229 0.089128375 -0.035034753 0.020931596 0.096370906 -0.06992683 0.028132329 -0.017224764 -0.0026831743 0.0020716114 0.03047768 -0.05684501 -0.052364644 0.13567548 0.07751862 -0.034995727 -0.12705621 0.09565327 0.06646757 -0.013150978 0.1344602 0.065894864 0.07386554 -0.033304892 0.07726286 0.07962532 -0.0025038023 -0.10584839
alice’s 0.095702246 -0.07720117 -0.0021666875 -0.11446318 0.18957499 -0.0045608366 -0.1331243 0.15665737 0.09957176 -0.099167466 -0.10012054 -0.07878202 -0.16579007 -0.02439311 0.006508182 0.04705233 -0.15462388 0.12843034 0.11971007 0.090005055 -0.019230234 0.07490767 0.07245777 -0.02067104 -0.033514634 0.06676317 -0.100747295 0.122015625 0.0072157164 0.114522524 -0.10553144 0.09548991 0.0761717 0.11118628 -0.029109856 -0.14224434 -0.056833763 -0.051652472 -0.078876734 -0.055872727 0.08422303 -0.1708502 0.11514716 0.1112337 0.16694754 0.06565358 0.108464055 -0.14172126 -0.05202824 -0.057224717 -0.12506014 0.15833622 0.060400262 0.13541625 0.112529576 -0.070552185 -0.0417103 0.08124848 -0.11228312 0.08790058 0.10491834 0.004782023 0.12229846 -0.1887446 -0.21717891 -0.14237608 0.102357246 -0.014932223 -0.08156378 0.10941007 0.1801432 -0.004565715 0.07826005 0.051061265 -0.06825292 0.10082188 0.07702917 0.05532868 0.108508065 0.040065885 0.014100862 -0.030780045 0.11259064 -0.005474152 -0.10382894 0.031089174 0.06898989 -0.043267608 -0.030844254 0.016979707 0.006567637 -0.06336855 0.03320518 0.09428749 0.12560007 0.065404795 -0.17638336 -0.13683538 -0.059744954 -0.060669992
is 0.015171074 -0.002087509 0.049081385 -0.056560446 0.062232003 -0.06286284 0.080110386 0.087284684 0.15061702 -0.1787426 0.031176839 -0.01459527 -0.075778976 -0.044862956 -0.023453595 0.10594448 0.032401014 0.03878703 -0.0038044811 0.105560295 -0.0040049446 0.07838801 -0.015059822 0.0414506 -0.019745719 0.055346217 -0.08202409 0.084738016 0.13776425 -0.034798373 0.020689048 0.06910982 0.018286636 0.043781124 -0.12735564 -0.03978693 0.00161014 -0.121440135 -0.09195449 -0.08330946 0.04097319 -0.020709164 0.03870195 0.13109161 -0.0057846433 0.015510854 0.018099433 0.00476895 -0.024681613 -0.14843953 0.10360244 0.03958251 0.061017934 0.14196637 0.03338197 -0.0102951415 -0.0510785 0.0149641195 -0.015765082 -0.024083994 -0.035283666 -0.13052844 0.10209879 -0.07320207 0.07038046 -0.0031814717 0.004213278 -0.08995409 -0.07617761 -0.031795945 0.009472286 0.14806579 0.04043117 -0.0005494907 -0.023849327 0.019581378 0.07461274 -0.036108192 0.024540154 0.05900776 0.00011095364 -0.070517555 -0.019955477 0.025340244 -0.107352935 0.04744853 0.110153526 -0.15328275 -0.13516483 -0.03052883 0.0032523775 -0.07052678 0.015899431 0.1997907 0.029018132 0.04784579 -0.002251912 0.0148342885 -0.048132997 -0.048855904
use -0.020751951 -0.03060109 -0.04173256 -0.017510407 0.0054296525 0.00053383666 -0.05324762 0.080457404 0.07678713 -0.13924167 -0.06571469 -0.10278642 0.0013588663 -0.01946442 0.05048975 -0.034074474 -0.07089435 0.07713981 -0.0075488593 -0.0002116547 -0.06521313 0.07521327 -0.05175797 0.027049214 -0.040070184 -0.049074896 0.006531357 0.00254255 0.025084073 0.00026379168 -0.097272746 0.050981827 -0.02171054 -0.0015839334 -0.0105432095 -0.019305004 -0.0430766 -0.03747064 -0.06390432 -0.089219876 0.0053576413 -0.08080066 0.10626468 0.016278878 0.043109547 0.002985209 0.071136385 -0.114623815 0.054636914 0.03425322 -0.03446125 -0.00040041658 0.0001433176 0.108822964 0.00045650348 0.027824325 -0.016480045 -0.039345045 -0.07395612 -0.030647837 0.059245083 -0.083346255 0.034309924 -0.021662846 -0.117789485 -0.010971318 0.08089685 0.0017531114 -0.012794873 -0.075072005 0.09368592 0.05194927 0.033384386 0.11198981 -0.008160689 0.023894656 0.03782098 -0.055355333 0.0864271 0.04935107 0.03857501 0.035858672 0.059881452 0.015911052 -0.014921948 0.033384576 0.023519602 -0.092085354 0.07457618 -0.025055025 -0.06830964 -0.06603305 0.0043791034 0.015466571 0.04608684 0.011430634 -0.028236028 -0.044067677 -0.028246796 -0.01391875
nothing -0.097591326 -0.009186851 0.036650762 0.012944299 0.06301951 -0.039386973 -0.035249446 -0.016488941 0.03905018 -0.017920215 -0.1882168 -0.0024948048 0.081163876 -0.12350969 0.051747564 0.056573767 -0.13799718 -0.089129806 0.06418087 -0.050262176 -0.032717437 -0.028015116 0.08412055 0.06837332 -0.047235165 0.009339536 -0.06873522 0.09947138 -0.055612426 -0.050984815 -0.16681024 -0.037030973 0.065139554 -0.024914777 -0.018449467 0.0059989197 -0.026124792 -0.044404022 0.07257858 -0.15416144 0.04275509 -0.14205858 0.0001545928 -0.040542375 0.093435384 0.12109588 -0.05765098 -0.18919027 -0.05298259 -0.08462514 -0.20690496 0.018158982 0.054682326 -0.019665582 0.11654481 -0.08418434 0.00070919073 0.13281621 0.06817419 0.03568603 0.018928733 -0.07214025 0.061878715 0.120768905 -0.13916539 -0.019825485 0.14688872 0.010343178 -0.09066244 0.06114019 0.080526985 0.037492875 0.06987645 0.0015194074 -0.04592699 0.028211122 -0.07993066 0.06435879 0.10153386 -0.089905664 -0.026261766 0.031553026 -0.0008367888 0.016448233 -0.020288516 -0.15570943 -0.06695745 -0.078709275 0.019751549 0.073271565 -0.08587157 -0.13724716 -0.036700133 0.01869749 0.037167963 0.012806306 -0.05111811 -0.16269255 -0.09230744 -0.03061258
say 0.069131404 0.008920465 0.08199097 -0.13564453 -0.008085671 -0.14226553 0.021089071 0.11191147 0.010815951 -0.020473292 -0.09001273 -0.09345055 -0.0027255001 -0.050133478 0.11545624 0.08154027 0.004448763 0.10593259 0.0422827 0.04992755 -7.097269e-05 0.061030425 0.078136876 -0.08359407 -0.12300685 0.04879254 -0.10062419 -0.008773068 0.051037617 0.048794333 -0.1347267 -0.056873094 0.13008907 0.02159996 -0.10242891 -0.019107638 -0.07134947 -0.13296111 -0.0028426887 -0.18906605 0.082985826 0.0038978644 0.028846791 0.023295823 0.06798528 0.104082644 0.10124033 0.015547794 -0.19192979 -0.06387594 -0.12974787 0.009229472 0.08160648 -0.029317077 0.066300526 0.031403106 -0.060727984 -0.011408886 -0.13717817 -0.028192189 0.04679337 -0.15221989 0.1668987 0.021227786 0.03383158 -0.06785967 0.11357283 0.042848147 0.010782803 0.03779514 0.061576758 0.114537224 0.03480678 0.08940499 -0.0420812 0.022675069 0.11191914 0.08968286 0.03941545 0.09978713 -0.17192034 -0.082567476 -0.03079609 0.06789494 -0.048772413 -0.018459069 0.17716718 0.0048519773 -0.16846578 0.084971055 0.04524686 -0.12868732 0.03409771 0.1659701 0.045464847 0.051740784 0.026275564 0.015881129 -0.07104872 0.026010709
found 0.053157274 0.14494269 -0.119015224 0.029004438 -0.13998711 0.035156596 -0.016289838 -0.07171178 -0.029562874 -0.0048885164 0.05694352 0.065220304 0.14310874 0.13854314 -0.03070426 -0.08658923 0.08920008 -0.09026658 -0.024546515 -0.06980086 0.0021866604 -0.14155453 0.016131442 0.06326321 0.02588621 -0.11665849 -0.10460554 -0.099631995 0.062396657 0.092154 -0.004544161 -0.095413916 0.111930534 0.056997504 0.1150169 0.011073999 -0.13534589 0.21368638 -0.10372465 0.12912655 0.026373958 0.028812876 0.08759746 -0.016315285 -0.10944788 -0.14216243 0.09671808 0.06890562 -0.0047358354 0.13868746 0.012469525 -0.08854262 0.035021227 -0.033717033 -0.013262855 0.08351025 0.030795407 -0.12476121 0.013925405 -0.0990471 -0.0075627393 0.09449653 -0.06958885 0.020980766 -0.021420887 0.16032445 -0.04587794 -0.13651049 0.0037171734 0.0108302105 -0.16776524 0.06493547 -0.05637595 -0.16712928 0.007950032 0.020586818 0.024578411 -0.054393176 0.10230663 0.07911416 0.04130989 0.0743444 0.01877261 -0.08063442 -0.064019695 0.12639092 0.04613149 0.12139195 0.020725071 0.02012739 0.08146099 0.08389958 -0.07516918 -0.18393363 0.04365958 0.10097235 0.046947807 0.019993631 0.060469333 0.11992231
wonder 0.014215396 -0.005856877 0.042674918 0.03543698 0.11582153 -0.13874273 -0.037035022 -0.0075381477 0.025784647 0.09787841 -0.072155796 -0.06716997 -0.07142228 -0.12058569 0.10817929 -0.020978088 0.004820413 -0.12231799 0.099400006 -0.055934392 0.09400098 0.030715493 -0.017312333 -0.07304671 -0.07625174 0.08145605 -0.03793452 0.13048944 0.098952144 0.028685624 -0.08677203 0.03466167 -0.07471277 0.07779431 -0.10001432 -0.0868662 -0.0044645057 -0.0032642686 0.040338494 -0.14706232 0.0016001983 -0.032809995 0.038631074 0.07191594 0.07662706 0.11916667 0.038627286 0.03306657 -0.054045737 0.008527858 -0.07061947 0.050836008 -0.01808616 -0.013267438 -0.07456211 -0.009876488 -0.0127844205 -0.046750575 0.0234838 0.0047624866 -0.052590914 -0.09201282 0.04553686 0.05216378 0.015903251 -0.014532929 0.11309965 0.026803369 0.009029274 0.00054806424 0.09042967 0.02825015 0.02828173 0.15538579 -0.020646978 -0.028740766 0.0010851246 0.062559314 0.023899755 -0.041169047 -0.054241553 -0.07024632 0.063497014 -0.03920538 -0.090355314 -0.029003175 0.049786113 -0.048166778 0.026444782 0.01660157 -0.02481962 -0.11818616 -0.04360936 0.14863506 -0.008599643 0.09215457 -0.11033749 -0.054684833 0.0078379745 -0.091233715
they 0.094386704 -0.010832609 0.06728237 -0.06628637 0.1536261 -0.052297063 -0.095461145 0.0937465 0.099870436 -0.0766791 -0.16196133 -0.046205718 0.006749616 -0.10679167 0.068441816 0.12850662 -0.21212305 -0.025253333 0.053437196 0.16025825 -0.006940615 0.12467701 0.090713955 -0.2324042 -0.056625403 0.19635811 -0.19329588 0.115436025 0.05888776 0.091979876 -0.055749346 0.02458608 0.0759671 0.097086646 -0.16769595 -0.14762537 -0.00022330417 -0.08826302 -0.03935283 -0.25191987 0.032990377 -0.1517401 -0.0020846245 0.06497193 0.20068347 0.17195015 0.062628664 -0.1859952 -0.11954831 -0.06537549 -0.18462776 0.07831852 0.09805026 0.02154487 -0.012575111 -0.16196567 -0.10607115 0.08276069 -0.12371871 0.110888824 0.07951134 -0.121119514 0.009476612 -0.079985306 -0.14331298 -0.13433568 0.16063358 -0.076944195 0.011495415 0.1479799 0.1935942 0.12883238 0.14285752 0.04411128 -0.099690616 0.12929241 0.11904428 0.101296164 0.108326234 0.07556544 -0.14598198 -0.012175396 0.13649134 0.14304996 -0.026095394 0.06456219 0.034419585 -0.16084744 -0.10660617 0.06796601 0.027719624 -0.107646644 0.093871914 -0.0073373285 0.107469104 0.0925019 -0.057511408 -0.11596128 -0.060231138 -0.115025625
which 0.019832637 -0.0397827 0.13322145 -0.12169951 0.07605051 -0.056384917 -0.06755793 0.014939235 0.10050158 -0.018880667 -0.10112769 -0.0076195565 -0.08103007 -0.11981258 0.06911956 0.08313302 -0.03494063 0.105621904 0.10907765 0.03764368 -0.066284075 0.030456794 -0.0056224484 -0.06346981 -0.14128752 0.061492834 -0.073015794 -0.0023120125 0.0417377 -0.007158106 0.03578754 -0.008581458 0.08231719 -0.0059781703 -0.12934688 -0.05039929 -0.069191836 -0.09855782 0.00059657695 -0.09542572 0.004588035 -0.07639666 0.029780896 0.10448335 0.06886131 0.13622494 0.102094784 -0.071068406 -0.101167634 -0.11532269 -0.04814701 0.02355162 0.07412573 -0.011507348 0.03467522 -0.13646236 -0.0077178814 0.069794826 -0.068995334 0.1153873 0.08880765 -0.0048430376 0.07378622 -0.051877115 -0.0841967 -0.08633294 0.04622871 -0.055981982 -0.025507946 0.11270701 0.01164031 0.079572886 -0.0074959584 0.027070846 -0.12422875 0.057094675 0.040551685 0.09642515 0.13765326 0.06996268 -0.07424024 -0.028961614 0.061709642 0.04513108 -0.06535131 0.07137374 0.03915164 -0.022764258 -0.11535236 0.02036963 0.07809996 -0.06860272 0.057799593 0.05944507 0.029510645 0.08148228 -0.10830495 -0.053381655 -0.034788504 -0.10510257
key 0.044335578 -0.06860752 0.074535646 -0.06375805 0.036701806 0.060040534 -0.01096823 -0.010346789 0.06850967 0.05752592 -0.08099167 -0.064160496 -0.088730745 0.0012207316 -0.09500557 0.04205997 0.025303563 0.20164521 0.015908154 0.06899405 -0.0218942 0.034584545 -0.06985163 0.07455562 -0.05038613 0.01148118 0.113380276 0.12610734 0.029984789 -0.011420988 0.12775531 0.047245122 -0.08169335 0.090469845 -0.029340142 -0.010455845 0.029737972 -0.058577105 -0.07824957 0.030199967 0.028774053 0.02141394 -0.0036396454 0.050488744 0.07213459 -0.0033535936 0.051012624 -0.03779743 0.043389503 -0.056565054 -0.056965828 0.0588574 -0.020840453 0.007624705 0.032080673 0.0006536393 -0.077735975 0.027700359 -0.036809377 0.06139919 0.002261054 -0.06629634 0.02583457 -0.02927788 0.0116016045 -0.055731274 0.017723601 -0.028232351 -0.01249948 -0.025170563 0.017037736 -0.070628576 0.06696349 0.09423804 -0.035235263 -0.054544166 0.056887925 0.059862107 -0.067415446 0.044761963 -0.029248329 -0.13321531 0.041443378 0.048711725 -0.042576004 0.025618173 0.05673205 -0.04004007 -0.005872311 0.026174454 -0.004494264 0.064551055 0.022008793 0.020480355 0.060601752 -0.048235092 -0.071175665 -0.040261757 0.009998733 -0.04276141
‘and 0.04701212 0.017302997 0.035086825 0.002748203 0.0315877 -0.08833708 -0.046766628 -0.018342549 0.050266374 -0.042530604 0.060881745 0.014575699 0.07337274 0.03953948 0.030466886 0.07353719 0.07071787 0.027982924 0.05407585 0.021058992 0.034433607 0.030672228 0.043365937 -0.056767497 -0.045345318 0.0316151 -0.21380293 0.03884836 0.017473124 0.02233712 -0.07078865 -0.072138555 0.08097757 0.04046179 -0.051976632 -0.08391152 -0.06044215 0.06610633 -0.16053474 -0.14161268 0.14843024 -0.035251427 0.15953584 0.11701107 -0.029772935 0.08017742 0.12033294 -0.06584325 -0.0849608 -0.07225416 -0.023546457 0.008937411 0.06017527 0.011308761 -0.033746593 -0.019380745 -0.013950972 -0.023466194 -0.11455973 0.024971113 0.08727646 -0.06333732 -0.045340728 0.01067215 0.031085284 0.022709375 -0.0022690902 -0.11002797 -0.086639754 0.12518181 -0.01844712 0.054985046 0.077997126 0.029767588 -0.07506273 0.07271279 0.00019801117 -0.015328482 0.069192186 0.100023896 -0.053057883 -0.02942052 0.029471345 0.02078826 -0.14010431 0.08113188 0.11408361 -0.08699156 0.018685747 0.045873072 0.12624213 -0.07060118 -0.015942829 0.052900814 0.09955507 0.16471705 -0.004383335 0.1071504 -0.034441486 0.02897781
shall 0.042146016 0.051007852 0.03339238 0.028322939 0.0063725673 -0.08010743 0.062921874 0.1476585 -0.043426245 0.048814353 -0.063615695 -0.09343056 0.016222486 -0.003685508 0.14403224 -0.016069101 0.059871387 -0.1168314 0.089584485 0.101403266 0.15704224 -0.06897463 -0.0060133846 -0.015727328 -0.0005708523 0.105120175 0.00019290156 0.062926844 0.034920108 -0.035633277 -0.15472032 0.027937565 -0.12110601 -0.070966505 -0.09467087 0.039630838 0.05743281 0.07155529 -0.0011426503 -0.13796079 -0.03728785 0.028832084 0.14211524 0.027095363 -0.008711197 0.051255286 -0.056859285 0.08232863 -0.016595563 -0.025035886 -0.07415136 -0.008536374 -0.014929771 -0.03927782 -0.15003027 0.0126192765 0.10135463 -0.048902046 0.044142257 -0.007850361 -0.07156616 -0.14913951 0.06112214 0.00010156841 0.048280753 -0.044513438 0.04760542 0.056585252 0.035410114 -0.024493907 -0.02850233 -0.0045280242 -0.022727024 0.11073319 0.048499558 -0.0031597582 0.046347875 0.04740209 0.008958739 -0.008179513 -0.15073861 0.06748596 0.046735723 -0.036666144 -0.045236923 -0.052450083 0.040898316 -0.08851916 0.07114624 -0.1161807 -0.054148514 -0.13472514 -0.01305623 0.1744195 -0.08462974 0.042086717 -0.018338077 -0.008392758 0.0757102 -0.07059905
then -0.038653757 -0.03275736 -0.018899785 -0.0020388854 0.007824739 0.042180922 -0.10012443 0.006065294 -0.082439266 -0.017433695 -0.13167019 0.06299001 0.06174299 0.005376585 0.021376308 -0.041983314 0.022373175 0.0042376043 0.062015284 0.06980406 0.035084248 0.021883044 -0.023813955 -0.038169224 -0.010627169 0.07476901 0.020550083 0.011407614 -0.030113352 0.06251118 -0.04737346 0.024473237 0.0040697725 0.05491228 -0.03690958 -0.10002128 -0.0030731405 0.09495412 -0.0042985054 -0.03442484 -0.030788288 -0.09317177 0.034467448 0.03798191 0.0050072004 0.1327635 -0.0048447847 -0.071830325 -0.04453426 0.04562331 -0.07464684 0.018929798 -0.02568566 -0.016529623 -0.0906725 -0.032904077 0.033141673 0.02068221 0.07088049 0.12407497 0.030022962 -0.016933149 -0.006267827 -0.035146754 -0.03199277 -0.020763189 0.029905528 0.06874028 0.0396306 -0.0053855022 0.07669426 0.01276477 0.13757682 0.10660734 -0.00021949736 -0.035920538 -0.018792933 0.09200127 0.057772703 -0.029298756 -0.020935385 -0.034703746 0.113246486 0.0394329 -0.08995674 0.009102501 -0.07372441 -0.012452135 -0.032042943 -0.11131596 -0.077511646 0.03089061 0.0073186075 0.002016202 -0.06084964 0.0526151 -0.13117997 -0.05138829 -0.053102154 0.009928406
either 0.013111541 0.0055747153 0.0515467 -0.07043517 0.021391822 -0.072201535 0.002285575 0.06889267 0.06558175 -0.068713546 -0.016910844 -0.049184103 -0.07253389 0.031894468 0.025851455 0.056022458 -0.085304596 0.008169937 -0.029096859 0.19603284 -0.02440293 0.011940862 -0.04188843 0.0029907068 -0.1168949 0.07422327 -0.045147717 0.112033606 0.0881906 -0.0086120255 -0.003667023 0.07925046 0.060695644 -0.046689253 -0.10449955 -0.10334467 0.013995053 -0.04276757 0.027946355 -0.029848753 -0.06474834 -0.07449902 0.037805937 0.051130682 0.085119426 0.04906876 0.038313605 -0.07718357 0.01857207 -0.016331967 -0.019835334 -0.01766051 0.03622599 0.09559667 0.052111443 0.033027932 -0.0513264 0.0820747 0.006194421 0.09319469 0.021722566 -0.09560381 0.021277575 -0.041372158 -0.05320596 -0.08123443 0.009091556 -0.05849843 -0.035490118 0.009226527 0.05280639 0.047353677 0.078432806 0.06696036 0.0097508 0.044552516 0.098664075 0.04238913 -0.018655194 0.037624203 -0.07048143 -0.004670373 -0.025159653 0.018390765 0.014860806 0.030115299 0.044840515 -0.098170325 -0.05762121 0.009398836 -0.0006081464 0.050290763 0.16050954 0.11371022 0.071056254 0.031164212 0.0068721366 -0.081633896 -0.005971184 -0.034649994
moment -0.058379725 0.06732367 0.0075238007 0.05394269 -0.0068280576 -0.011559051 0.07586648 0.15449673 0.06747975 0.040143378 -0.010302557 -0.050401807 0.039993085 0.062481407 -0.050740875 -0.08689283 0.025531486 -0.08308459 -0.089782834 0.016273659 0.084116094 -0.04179361 -0.030110994 -0.022090185 -0.020274071 -0.025661023 -0.029482916 0.0066555655 -0.031042157 0.006905499 -0.082280084 -0.035636038 -0.07866861 -0.080910705 -0.057089377 0.05983275 0.006740848 0.050097328 0.026582254 -0.023913413 -0.030781485 0.026394831 -0.033065196 -0.020520236 -0.09304534 -0.04738346 -0.022307381 0.10862092 0.011946675 0.0681787 -0.015876012 -0.0043562213 0.002786266 -0.06799435 -0.06538689 0.027861815 -0.017578147 -0.07547626 0.04517523 0.036682993 -0.005695084 -0.012956402 -0.031747818 -0.02991284 0.032957915 0.07366124 -0.057879437 -0.009778945 0.055785343 -0.031793423 0.009139224 0.0031097238 -0.03148592 0.09548971 0.07998382 -0.062932946 0.046352006 -0.04547923 -0.024362037 0.035938233 -0.026418507 0.04449567 0.022223111 -0.0040656845 0.03243495 -0.0049872175 -0.007912774 0.096975885 -0.004535948 -0.03616848 -0.06972939 -0.01995478 -0.036982775 -0.07332546 -0.045170695 -0.07777895 -0.0046927477 -0.00065445976 0.05140114 0.049817897
going -0.0046189465 -0.015618457 0.03986889 -0.0063562263 0.0037183817 -0.027065199 -0.048442576 -0.007792314 0.0034838766 -0.004109945 -0.14343072 -0.018665854 0.006530616 -0.08548525 0.12943202 0.00014329841 -0.11818358 0.0019845383 0.046384048 -0.03190388 -0.037901483 -0.043968603 0.06841245 -0.018218016 0.00116583 0.04646238 -0.07333556 0.04045638 -0.036340352 0.005426508 -0.09444436 -0.11796432 0.13958769 0.038605426 -0.06390621 0.041489262 -0.026362585 -0.081847645 0.01511022 -0.14726765 0.08957545 0.009295905 -0.004844682 -0.018945249 -0.04148631 0.11716849 0.009058154 -0.01980161 -0.053893246 -0.09788893 -0.11122645 0.035311833 0.08991913 -0.049864408 -0.0059217014 -0.035492383 -0.014370311 0.06533333 -0.0579818 0.05842135 0.02892635 0.01376218 0.10141313 0.10121758 0.0016813083 0.08968631 0.00083795795 0.017590953 -0.038493082 0.15148948 -0.004480658 0.08657158 0.011239797 0.057464145 -0.11114103 0.042881235 0.065414645 0.06473748 0.027437024 0.03283526 -0.020854002 -0.0578369 -0.004917215 0.014184294 -0.005358746 -0.027252661 0.037659403 -0.045918286 -0.040059984 0.005847017 -0.002500194 -0.15250659 -0.021795427 0.014087872 -0.020003645 0.00072488846 -0.018442398 -0.052469537 -0.09729897 0.0012435807
too 0.007040908 -0.0038173995 0.061923422 -0.044270568 0.07653387 -0.053283885 -0.051511653 0.020301294 0.04240911 -0.020319935 -0.10611302 -0.038976476 0.016118983 -0.15123454 0.059191857 0.13390426 -0.032995597 0.1680288 0.0332095 0.047734927 -0.055904716 0.039727084 0.07707982 -0.0022956044 -0.076483905 0.049841076 -0.10656488 0.052942697 -0.057009272 0.054395817 -0.08545299 -0.075413726 0.13142714 0.019162152 -0.06855697 -0.018490495 -0.17215139 -0.076848105 -0.0026126294 -0.09940905 0.013914945 -0.037803795 0.042599916 0.017124418 0.07798005 0.08251926 0.059321612 -0.051297568 -0.13445665 -0.093660615 -0.10601878 0.034322724 0.10105929 -0.018401645 0.10565894 -0.11589271 -0.10694688 0.13881549 0.008375316 0.085781544 0.111439146 -0.017731378 0.06895755 -0.037357435 -0.11004341 -0.0251238 0.112869814 -0.08131887 -0.08324784 0.047915 0.037506223 -0.022003843 0.059065126 0.057612296 -0.096368045 0.09210875 0.043528248 0.09708294 0.08286148 0.04909523 -0.082155265 -0.085584745 0.030922063 0.11910203 -0.08985758 0.031243406 0.10662412 -0.009507688 0.027867878 0.031712588 -0.011592187 -0.10672007 -0.022619408 0.04138348 0.08016574 0.1101772 -0.04668603 -0.099504694 -0.08718026 -0.059558168
‘i 0.14163673 -0.12961526 0.13549115 -0.14938201 0.118092164 -0.14784464 0.008764183 0.06856741 0.1450432 -0.12672777 -0.0142603135 -0.122935295 0.020371635 -0.107115015 0.19004872 0.16751438 0.039377667 0.011940551 0.2052711 0.13100609 -0.07773607 0.1948324 0.04530017 -0.21325366 -0.18031742 0.20274536 -0.116461925 0.091173746 0.14247803 0.11432375 -0.05884279 0.06694102 0.15669571 0.0880111 -0.22205639 -0.15857556 -0.03788801 -0.09387453 -0.10994332 -0.107262105 0.12975112 -0.15691857 0.16866554 0.1266072 0.1571209 0.11962393 0.120690756 -0.1344127 -0.066864185 -0.20829436 -0.06294556 0.2023801 0.11715161 0.05943452 0.08803112 -0.131721 -0.082286574 0.13761084 -0.16150999 0.116825856 0.086497135 -0.1600539 0.16228183 -0.10522997 -0.07994041 -0.105484605 0.11940665 -0.17181955 -0.08848102 0.13179626 0.13578442 0.068876706 0.083469674 0.07800717 -0.08414738 0.09638744 0.07384052 0.11258951 0.027425697 0.061163716 -0.089987285 -0.081800416 0.13853003 0.19300413 -0.08785353 0.19804001 0.06946455 -0.23640847 -0.133436 0.026914395 0.12881039 -0.14922108 0.107727215 0.17693076 0.08855046 0.15894762 -0.124880776 -0.078293964 -0.08080607 -0.035518184
my 0.07149199 -0.15284777 0.16235508 -0.13347217 0.16099438 -0.13774703 -0.12615277 0.16410965 0.23033969 -0.12954867 -0.15309517 -0.10132305 -0.05996921 -0.18293372 0.1532841 0.16606902 -0.13792467 0.010130281 0.1800347 0.16032189 -0.16100915 0.21529935 0.11139001 -0.08843536 -0.12578766 0.10783206 -0.12620598 0.17549567 0.17645735 0.101524904 -0.13631393 0.11439064 0.08538453 0.17622204 -0.10485235 -0.093936354 -0.1888793 -0.10648592 -0.12954457 -0.1088475 0.08327441 -0.22861943 0.16072594 0.20544495 0.20572925 0.11828203 0.1558992 -0.12672995 -0.1717018 -0.16031082 -0.17010206 0.0922068 0.2151766 0.059119236 0.108124636 -0.16505706 -0.122743085 0.15734014 -0.07738406 0.18890823 0.1254981 -0.18620582 0.17932878 -0.121936284 -0.098808475 -0.08400871 0.17728768 -0.07212245 -0.0819662 0.15662542 0.12752095 0.092546895 0.12843762 0.07799073 -0.1464399 0.1210136 0.09908869 0.10956164 0.18504168 0.17982537 -0.08769434 -0.10892109 0.18555836 0.13563657 -0.12975359 0.09423264 0.12420211 -0.18018064 -0.08155166 0.15838972 0.09713003 -0.20415322 0.15038069 0.19209298 0.09977959 0.11370314 -0.18167573 -0.1751822 -0.16659956 -0.19762398
eat 0.11050088 -0.07601058 0.14343464 -0.042552143 0.095132045 -0.072306655 0.0014468553 0.020185426 0.15741445 -0.073737875 -0.13157363 -0.12266161 -0.097425625 -0.08953785 0.13576978 0.12508547 -0.02790611 0.062424276 0.032644134 0.047958005 -0.038802937 0.09665744 0.089655995 -0.06225546 -0.13316536 -0.01697124 -0.039689917 0.03669589 0.13342595 0.118268885 -0.12440252 0.018883493 0.052867748 0.12687144 -0.16113241 -0.0009430539 -0.13950202 -0.05849122 -0.011199797 -0.12873197 0.061038084 -0.06418767 0.08363657 0.051832587 0.05955607 0.14152461 0.07387787 -0.046807088 -0.003917171 -0.06520766 -0.03224427 0.0623237 0.08853611 0.06863577 0.05799813 -0.15781444 -0.084682845 0.050905462 -0.09648021 0.07371638 0.06659865 -0.07962873 0.049905527 -0.04488854 -0.063471034 -0.009086625 0.17064866 -0.10898231 -0.019777067 0.02114131 0.035302885 0.15424015 0.04497745 0.06043509 0.030087652 0.03911087 0.09780338 0.15774482 0.05547594 0.050867584 -0.157811 -0.060035873 -0.019108344 0.01950567 -0.0080105215 0.071471095 0.12816584 -0.037243687 0.014719222 -0.006203388 0.14337349 -0.10405012 0.097704954 0.109680556 0.024371872 0.09961568 -0.06908539 -0.060545582 -0.03134121 -0.09167488
