754 100
the -0.08174382 -0.21170959 -0.09952926 -0.105879575 -0.14449163 0.006437444 -0.37158912 -0.06114986 -0.21166885 -0.15362301 -0.1336722 -0.2536913 -0.26447845 -0.07885415 -0.18243077 0.04639173 -0.11486843 0.20501795 -0.17489262 0.066288464 -0.21839145 -0.2490344 -0.124072075 0.03479158 -0.26109543 -0.120966464 0.24573752 0.07234569 -0.031405576 0.1583918 -0.14014544 0.12889962 -0.07377252 -0.041751787 -0.05271766 -0.13414411 -0.13430518 0.29393715 -0.092063844 -0.16198047 0.24719757 0.14543603 -0.07661965 -0.08121847 -0.068913504 0.10499809 -0.075587526 -0.09599241 -0.15311056 0.18845367 -0.12723859 -0.10786307 -0.21006323 -0.14760236 0.24448152 0.040394366 0.31534675 0.07763134 -0.11412983 0.13263671 0.20774429 -0.074128956 0.21579856 0.17973034 0.09732644 0.07757931 -0.23991567 -0.18532607 0.069099985 0.09799566 -0.2626416 0.08889449 -0.08892716 -0.3284931 -0.053606372 0.25777838 0.22321081 0.11779444 0.12827154 -0.2584587 -0.1716555 -0.28604865 -0.30583668 -0.034477256 0.29822627 -0.17170805 -0.06354258 -0.13414079 -0.077234514 -0.1758409 0.14107092 0.112250604 0.36010572 0.044149972 0.2134714 -0.12272246 0.08284695 0.00706493 -0.05024662 -0.07088811
she 0.074722886 -0.30200148 0.17233568 -0.18758188 -0.01622875 0.09765826 0.031771388 -0.11322395 -0.16516303 -0.10112777 0.087063245 0.059595533 -0.11238511 0.08567281 0.08849716 0.08167221 -0.020274078 0.04231909 -0.16769612 -0.19356455 -0.2947474 0.02353144 -0.28072304 0.19304073 0.092194945 0.05706755 -0.08773941 0.0034044706 -0.016498704 0.03050583 0.23624837 -0.19626713 0.15335761 -0.14263289 -0.08896906 0.12298043 -0.0819058 -0.14053687 -0.04661388 -0.1107607 0.18788055 0.28617874 -0.27116817 0.029517783 -0.013842259 -0.048165586 -0.17265958 0.0907036 0.28478944 0.16224983 -0.17898923 -0.040000625 -0.11775846 -0.05657381 0.21947347 -0.18196233 0.01436073 0.042347774 0.044324465 -0.15627062 -0.049267422 0.122355014 -0.06486527 0.20280507 -0.30577567 0.03614239 0.1859922 -0.021602428 0.15345442 -0.055349026 -0.026899744 -0.13608897 0.14553277 0.15007919 -0.12137942 -0.08206013 0.0048564672 -0.00026816782 0.007805194 -0.20303014 -0.23280102 0.067524515 -0.1714788 0.057922643 0.13624477 -0.027026258 -0.080446795 -0.013806474 0.13266158 0.10804466 0.15949695 0.12456576 0.18736392 0.0029549135 0.022424119 -0.022037962 0.16219619 -0.31910634 0.09848671 0.20528774
to 0.18859239 0.12547715 0.15154323 0.057634894 -0.11370104 -0.106923 -0.27157012 -0.09822028 0.031174045 -0.1529924 -0.0072299987 -0.121044576 -0.07669147 0.112813495 0.025837993 0.07296949 0.08233714 -0.20729811 -0.08148879 0.0986945 -0.013305335 0.149168 -0.097667895 -0.23766604 0.20282365 0.1667465 0.18696716 -0.05016916 0.11322398 -0.013717894 -0.1263745 -0.10252561 0.1168859 -0.15965706 0.06834185 0.18512617 -0.18188049 -0.13401735 0.13551222 0.119933896 0.011711834 -0.13676947 0.005079666 0.029883344 0.06787443 -0.01916122 -0.2280061 -0.008527761 0.09820739 0.24708033 -0.16089068 0.007815766 -0.078520246 0.006644577 0.0648198 -0.3017889 0.063247904 0.15360048 -0.07471797 0.064129524 0.049311187 0.14756821 -0.14774895 0.0115646785 -0.23073111 -0.19442198 -0.27929327 -0.049581192 -0.09322156 0.11471128 -0.023322582 0.041630574 0.19197534 0.19500698 -0.25868 -0.023510959 -0.12531988 0.0010678592 -0.1677599 -0.16547717 -0.035031583 -0.018457526 0.02047054 0.087158985 -0.24844228 0.032330457 0.063184656 -0.13769688 0.30583203 -0.14774613 0.22395895 0.021642487 0.16845237 -0.014499167 0.16067578 -0.20176972 -0.09950992 0.069771275 0.018189225 0.021758137
was 0.16110353 0.1047681 0.12518719 0.05756562 0.03933185 -0.12151893 0.09545999 0.21344529 0.15039672 0.055328954 0.05599712 -0.05304754 -0.06841896 0.082583964 0.013506893 0.13749345 -0.17407387 -0.1129093 -0.060312204 -0.18291509 0.026637172 0.14862294 -0.17782803 -0.162559 0.26955417 0.10132361 0.1643023 -0.066599265 0.18364666 0.1868172 -0.08733484 -0.21865635 0.2122181 -0.12613761 -0.040359538 0.16735013 0.039096635 -0.122908205 -0.003413307 0.055455897 -0.15513706 -0.023684088 -0.16324367 0.023362854 -0.025226273 0.07625818 0.0026396916 -0.051099427 -0.0158958 0.21421519 0.00824732 -0.18798481 0.09143298 0.17603374 -0.107435614 -0.06688859 0.04853643 -0.03101518 -0.16171698 0.12350217 0.11790039 0.07948572 0.11702218 0.04632967 -0.22225061 0.13342376 -0.23947018 -0.17523058 -0.0886901 -0.11715215 0.11035892 0.0016741899 -0.086936206 0.12791203 -0.11428735 -0.048781928 -0.06903338 0.080689706 -0.013267384 0.08930759 0.12155762 0.015988758 0.14642464 0.1628769 -0.13179275 0.09364971 0.21848798 -0.113211036 0.23475423 0.2807147 -0.011030229 0.21518204 0.084460646 -0.035608537 0.04564031 0.00017741497 0.108645536 -0.08521218 0.21626222 0.03178559
and -0.0510968 0.12799755 -0.22887364 0.057343923 -0.079533935 0.18564731 -0.1767357 0.19921584 -0.10201542 0.15713286 -0.12521136 -0.029488342 -0.16246481 -0.1723736 -0.11588583 0.09989981 -0.08730974 0.099949986 -0.1511777 -0.12783794 -0.030570794 0.071625546 -0.094025694 0.07349554 -0.03931892 0.044705443 -0.03953082 -0.17631997 -0.07203208 0.1668053 -0.13833502 -0.15950668 0.12364465 0.029190091 -0.11704844 0.22969817 -0.14645635 -0.18880627 0.23706363 -0.057593036 -0.069922596 0.03794814 -0.24581715 -0.06924975 0.08832822 -0.025936333 0.008949821 -0.19638422 0.043293662 0.18465385 -0.08302153 -0.036085207 0.09748915 0.1375665 -0.03785833 -0.16187927 0.19820322 0.09842127 -0.11462702 0.10786133 0.04567416 -0.098071605 0.11550371 -0.13051394 0.09062922 -0.04840837 0.032400593 -0.13617872 0.18639168 0.14969698 0.031780943 0.04323548 0.1358179 -0.08306269 0.082364984 0.1914954 -0.12843123 0.27251872 0.02031349 -0.17206536 -0.07314404 0.005165646 0.0342268 0.17620033 0.09122452 -0.19828837 0.123763196 -0.10209485 -0.0933239 0.10741552 0.102097996 -0.042307228 -0.017777117 0.029062675 0.086073294 -0.17166686 0.029974515 0.05021223 0.121397145 -0.0061369766
a 0.039538145 -0.17135787 0.16151337 -0.17231505 -0.14885847 -0.13810419 -0.015101636 0.015206992 0.05878588 -0.14214054 0.11263805 -0.090084754 0.009712363 -0.0665708 -0.13280797 -0.19006601 -0.0856988 0.04209917 -0.0985405 -0.04532471 0.05922811 -0.15153615 -0.063240305 0.032828692 -0.20228384 -0.020188155 0.19153515 -0.12229213 0.13243511 0.14034405 0.17865919 -0.15579626 0.03171559 -0.006615367 -0.03695705 0.07587924 -0.15912718 0.13263744 0.052021153 -0.018488953 0.13551933 -0.06275601 0.041652266 -0.022829838 -0.15987208 0.0675404 0.14475179 0.050946962 0.12383687 -0.09124715 -0.03599502 -0.18081446 0.09864852 -0.14125472 0.21598765 0.03337591 -0.011974341 -0.058836836 -0.1893666 -0.04446691 0.18392685 -0.17285782 -0.10077387 0.25053695 -0.124267384 -0.100278005 -0.04588222 -0.2353134 0.1381954 0.15028086 0.042224042 -0.13974358 0.12991804 -0.19996607 -0.21604444 0.15280686 0.17543656 0.07433211 0.11572694 -0.064000174 -0.27944857 -0.1949433 -0.20036775 -0.03252558 0.14278089 0.17839272 0.22026119 -0.12081678 -0.13407725 0.12576072 0.18629235 0.027960988 0.20587948 -0.08064799 0.17106946 0.013623359 0.15070124 0.03577457 0.066392355 0.144035
of 0.045335695 -0.121971704 -0.19114466 0.04789938 -0.018101776 0.12860543 -0.11118863 0.19834517 0.17068005 -0.02511979 -0.2539428 -0.16316144 -0.13716194 -0.015060706 0.0009879977 0.002143025 -0.06421474 -0.18298583 0.024220316 -0.14322804 -0.21951826 0.2058926 0.038471073 0.10017384 0.2126123 -0.052702207 -0.030045556 0.18614542 -0.023109201 0.1921475 -0.1788629 -0.023273142 0.28910083 0.024001507 -0.08294797 0.009898952 -0.13133352 -0.19929981 0.29738107 0.017321976 0.17304622 -0.1161747 0.1731722 0.22981879 0.12909314 0.028206574 -0.09388627 0.09292465 0.0010270313 -0.094813734 0.22238298 0.16404694 0.0021697758 0.026156502 0.13370003 -0.21733496 0.17685902 0.15834117 -0.034240257 0.26718032 -0.06789757 -0.04465134 0.011355999 -0.07213061 0.042147104 0.029522391 0.21249573 -0.12556979 0.15202749 0.1503132 0.08735726 -0.09651028 -0.117521815 0.15760252 0.0327306 0.345212 -0.086816765 0.13741066 -0.20602368 -0.025827875 0.01250391 -0.24725594 0.04821254 -0.038201045 0.007817716 -0.11005158 -0.034629807 -0.1554039 0.22648063 0.26937586 -0.064859055 0.05103304 -0.06547147 0.124171466 0.09530722 -0.120071694 -0.16617341 0.00043576967 0.17249386 0.061737914
it 0.10684923 -0.072479196 -0.023100657 -0.18720846 -0.07287232 0.0034837238 0.008708532 0.047064923 0.0015969875 -0.20139284 0.002228143 0.062604554 -0.2040366 0.19005759 -0.044545896 -0.0017780839 0.09208789 -0.13013409 0.062056836 -0.19590224 -0.12744148 -0.107256755 -0.03828989 -0.0065717553 -0.099846646 0.090413734 0.10280515 0.086054936 0.074180104 0.026548628 -0.008914021 -0.02269713 0.17474839 -0.1646458 -0.14661117 0.08908069 -0.117306136 -0.13346982 0.007650936 -0.068617396 -0.020851599 0.026741372 -0.08862829 0.05575782 0.0049441704 -0.15348917 -0.07995174 0.14342749 -0.0143424645 -0.08290187 0.15219231 -0.050466795 -0.079256795 0.081249595 0.15541476 -0.16938624 0.2185721 -0.0077809 0.0077323755 0.008618469 -0.049078602 0.13520524 -0.045924153 -0.030427413 -0.09594248 -0.19591382 0.063262925 -0.0064445157 0.09428925 -0.0951278 0.0611977 -0.12144569 0.066080056 -0.081790924 -0.09338265 0.14696479 0.23881014 0.03146888 0.10355235 0.0068921703 0.09651215 -0.17151664 -0.20954017 -0.04818008 0.14491706 -0.14075658 0.10279176 0.074865706 0.034944076 -0.007664407 0.18640074 -0.029811824 -0.006418298 -0.04277541 -0.10311014 0.05603424 0.040417477 -0.288933 0.057209857 0.067130275
in 0.12156791 0.11305573 -0.20742239 -0.010411484 -0.17854476 0.08259055 0.06830156 0.09351801 -0.040727854 0.051338583 -0.09556265 -0.0541492 -0.03165472 -0.027124252 0.1739579 -0.085584395 0.040616676 -0.17689486 0.03194422 -0.18718083 -0.11730851 0.19312632 0.0063769356 -0.1278081 -0.055129252 0.03912378 0.07139775 0.03463739 -0.015096284 0.2129445 -0.09699845 -0.07326504 0.15032299 -0.1946012 0.012859236 0.22233136 0.030598829 -0.15648821 0.08122066 0.078308016 -0.028735725 0.063976996 0.10006 0.26224592 0.1137374 0.10541516 0.028317235 0.06589978 0.04410628 -0.074952886 0.05167171 0.09931684 -0.13303193 0.06607536 0.051718276 -0.07176278 0.18964687 -0.09012731 -0.060350504 0.13191913 0.10810506 0.110348955 -0.0833934 0.15889475 0.031096362 -0.045043882 -0.17767318 0.02157029 -0.07119524 -0.030538883 -0.05378224 -0.08983627 0.1077686 0.07204101 -0.11396497 0.17134473 0.039998256 0.15287372 -0.06900169 -0.0554644 -0.162602 0.033842415 0.008522936 -0.016650025 -0.051153578 0.11060475 -0.017466176 -0.11433755 0.12824868 0.08532611 0.20637047 -0.10016494 -0.033703383 -0.11512142 -0.09471783 -0.20387046 0.1149386 0.094707936 -0.06548368 0.16071138
her 0.16770354 0.026790781 0.024784777 -0.15312108 0.029439721 0.066868685 -0.14591803 0.073594734 -0.02524603 -0.13436186 -0.08715307 0.037911825 -0.029941503 -0.14580558 0.032019377 0.100682594 0.14258426 0.013319274 0.023085825 -0.15228796 0.008884178 -0.14228174 -0.027455026 -0.10540762 -0.20989276 -0.066155545 -0.06634901 0.09060015 0.21188682 0.00029561226 0.13367833 -0.012305417 -0.035198916 -0.09228817 -0.118930794 0.048647694 -0.0118257385 0.029389773 -0.0072432593 -0.029668882 0.082919374 -0.022302585 0.0108033065 0.17634542 -0.026386248 0.16418518 0.061998233 -0.076754995 0.10634367 0.08598036 0.037022173 -0.05609919 0.01679702 -0.028162835 0.19158234 -0.0554829 0.14594913 0.053155173 -0.10353725 0.07862647 -0.06331513 0.16005671 0.074453406 0.012181107 0.02477433 0.082590714 -0.11098176 -0.12587714 -0.07053209 -0.05279781 -0.1728949 -0.16784103 -0.07979161 -0.00079549174 -0.19429858 0.01712496 -0.027303157 0.18558264 0.14178817 -0.21092412 -0.023031948 -0.11594592 -0.12666821 0.0988776 0.009376684 -0.09748389 -0.010015968 -0.030401252 0.052642807 -0.068263136 0.14476639 0.007885913 0.13816442 -0.1716739 0.021463301 -0.022197405 0.09917704 -0.12135897 -0.04758263 0.004077314
i 0.16570625 -0.21052337 -0.2000693 -0.18641931 -0.18166848 0.13457224 0.09271486 0.16223751 -0.1594154 -0.15043646 -0.22203782 -0.2038257 0.02529715 -0.15214615 -0.24673222 -0.19992003 0.07153597 -0.12315038 -0.23365484 -0.13253774 -0.097429045 0.119168594 0.0039745104 -0.05596974 -0.0884259 -0.24594404 0.06143503 -0.07021838 0.12238951 0.014122671 -0.10199162 -0.024148129 0.04710308 0.12361056 -0.07957529 0.06573898 -0.2642339 -0.004517728 0.22522737 -0.19577205 0.10932178 0.10173203 -0.12346042 -0.0252107 0.04359296 -0.14497617 -0.26372087 0.07407111 0.017761195 -0.023372652 0.18883911 -0.10818187 -0.022794666 -0.08349107 0.058093462 -0.11956688 0.11766 0.19117883 -0.1190511 -0.040771946 0.04198246 0.14220491 0.15669312 0.09994661 0.10090518 -0.17183672 -0.118755415 -0.006323672 0.06829316 0.0316815 0.05351979 -0.07875313 0.15459456 0.19912879 0.082360856 0.007401187 0.17395395 0.19046545 -0.22898963 -0.036478035 0.0046966407 0.026533142 -0.017359635 0.10129932 0.059683897 -0.24652776 0.18866016 -0.09419247 -0.060251944 -0.012361245 0.06606184 0.1500988 0.06130807 0.29437935 0.13586596 -0.19883296 0.030061174 -0.18715486 0.21087144 0.08058495
that 0.0096467305 -0.025799902 -0.0065691713 -0.015435685 0.042569976 0.06693857 0.0014457095 0.049861006 -0.122973114 -0.116884485 0.026146406 -0.06429219 0.031692684 0.09715533 0.041389994 0.06926339 0.036144175 -0.0748633 -0.040924475 -0.121192515 0.035549026 -0.04127682 -0.031484418 0.10838284 -0.042568047 0.002751748 0.08997411 0.06767327 0.009109626 -0.022428393 0.09766866 -0.017037798 0.010539037 0.049740765 -0.06811549 0.021057185 -0.044555195 -0.024715843 -0.056666885 -0.078344904 0.115184315 0.07230256 -0.048929792 0.10080228 0.04256433 -0.035490807 -0.0102319475 0.09776887 0.029261667 -0.026716512 0.04780691 -0.17639999 -0.046890683 0.02393696 -0.0023997673 0.03419716 0.009901517 -0.0029931255 -0.032932382 0.019740697 0.118569545 0.019347548 0.060569864 -0.008595851 0.048015863 0.09204666 0.05226736 -0.08452957 0.036572125 -0.09248971 -0.051079858 0.016639968 0.07686234 0.021609973 -0.078433156 0.032752506 0.06100466 -0.016300417 -0.069268346 0.020633368 0.0048762 0.04895216 -0.03979908 0.106303975 0.04554867 -0.037944183 -0.06437594 0.02798708 0.14331685 0.0021360787 -0.05284258 0.088544056 -0.03881326 -0.016643753 0.13115326 -0.13562812 0.03640244 -0.0033312775 -0.07975255 0.13072523
very 0.076516576 -0.013146043 -0.03540352 -0.16138858 -0.13981603 -0.013983357 0.019453969 0.017762326 -0.0026840803 0.0024246126 -0.011249074 0.03684766 -0.07754512 0.040327482 0.018423976 0.021284075 0.0007383822 -0.08513834 0.020937357 0.00093574484 0.06602294 0.09453163 -0.16145669 0.098611176 -0.0505738 -0.07429565 0.15846993 -0.018913707 0.09298189 -0.10702407 0.04100955 -0.036916353 0.089900546 0.070494145 -0.05045898 -0.008981152 0.059845384 -0.059645347 0.121812314 0.059778858 0.016695814 -0.030491622 -0.06433809 0.12946019 -0.10230082 0.011258717 -0.0660272 -0.011855463 0.07583288 0.016830606 0.11027361 -0.08403634 -0.10822601 0.109827794 0.09676638 -0.116643995 0.041360922 0.017330885 -0.032011285 -0.06443153 0.02053017 -0.12072301 0.056296017 0.076511376 0.059454724 -0.02811879 -0.03216546 -0.00040264695 0.09374946 0.038694706 -0.034598373 -0.041226663 0.105099835 0.06797181 -0.105415605 0.054880727 0.12148915 0.12706795 0.03127218 -0.14478214 -0.115282215 -0.013324421 -0.1412221 -0.042735785 0.11225909 -0.13937238 0.041790687 -0.034939677 0.029982347 0.1372993 0.12829427 -0.07829136 -0.0010438669 0.01887425 0.0368123 -0.11622677 0.030462064 0.03793949 0.05883452 0.0778965
* 0.24685264 0.21254985 -0.27573404 0.22949807 -0.1768388 0.31591296 -0.23981756 0.16717371 0.1859336 0.2869976 0.31937397 0.295493 -0.25462613 0.21287555 -0.29340875 -0.30045676 -0.28174084 -0.29294276 -0.26661605 -0.2441213 0.2935107 -0.22538924 0.31762186 0.24300033 -0.2459408 0.310459 0.123604625 0.24778728 0.24737525 0.23394173 0.28109086 -0.30635998 0.275194 -0.20376158 -0.25312325 -0.31989068 -0.21144162 -0.25312474 0.29799893 -0.2863637 -0.24646127 -0.30844215 0.20985243 -0.22111136 -0.2598859 -0.28753668 -0.25516388 0.23078305 0.31753168 0.1729153 0.30310547 -0.17064823 0.3240899 0.21618494 0.30640066 -0.24170288 -0.17630437 0.26688877 -0.21775386 0.2545659 0.29595923 -0.32969567 -0.2726913 -0.22973455 0.3380255 0.30671325 0.27658916 -0.1966937 0.22756578 0.27400857 0.28208658 -0.28161696 0.3185837 0.19466415 -0.187281 0.34786183 -0.32780957 0.32005742 -0.31164435 0.37415063 -0.32226893 -0.23807386 -0.24217929 -0.25807822 0.30284333 0.26088032 -0.24113335 -0.18199566 0.27118358 0.31722817 0.23367676 0.2430051 0.26099536 0.3138342 0.29577437 -0.27182654 -0.3125047 -0.25182295 -0.27463123 -0.29356545
you -0.04282941 -0.20174406 -0.09776491 -0.13813655 -0.19459254 0.0049777054 -0.033599388 0.12562935 -0.13673219 -0.042196706 -0.17068383 -0.10783367 0.05416903 -0.11935588 -0.1869329 -0.18697947 -0.18189557 -0.21484815 -0.074095696 -0.008767214 -0.047642495 -0.06595843 -0.06672134 0.1639813 -0.05722227 -0.07273515 -0.013028936 0.10614149 0.1739332 -0.136445 0.13207445 0.044102434 0.07862701 -0.031756707 -0.12017142 0.0012325392 -0.1349769 -0.08381213 0.19140612 -0.16562454 -0.10867078 -0.0287544 0.033358943 0.10908086 0.17908625 -0.18940362 -0.22393672 0.09899229 0.01862395 0.16088049 0.20665954 -0.070082106 -0.18253069 0.10035725 0.054560747 -0.17856434 -0.02331759 0.08494145 -0.12289295 -0.021977603 0.09721697 0.007348888 0.13737261 0.07412107 -0.1204826 -0.06701192 -0.1586735 -0.14032348 0.19329242 -0.10588009 -0.027870446 0.0253691 -0.052397963 0.15018526 0.051100433 -0.047617763 0.13008153 0.008092329 -0.2116549 0.036488056 -0.02898496 -0.04851339 -0.111130014 0.14574218 0.16281596 -0.14443281 0.13392478 -0.10624039 -0.004104881 0.09148964 0.2054065 0.10193821 -0.01588311 0.13325772 0.031294428 -0.17327431 0.050043147 -0.13550958 0.03479668 0.16494209
alice 0.106424056 0.03273369 0.059111845 -0.10405242 -0.036113102 0.15218633 -0.015784692 -0.0073628123 -0.13511181 -0.04090076 0.005480444 0.030665727 0.099975705 -0.0011948255 -0.0008071795 0.070142746 -0.044178672 -0.10785445 -0.13090788 -0.1090498 -0.11437607 0.106342085 -0.1118388 0.09687296 -0.13275987 0.073631756 -0.0123326145 -0.13669842 0.09295895 0.0649091 0.16184403 -0.09024292 -0.03414742 -0.15979256 -0.11590573 0.12885585 -0.05322612 0.05123626 -0.001323447 0.034042772 0.031023981 0.07044207 -0.10300723 0.039044727 0.069004625 -0.13231888 -0.099606216 -0.026570715 0.17810786 0.08152847 0.10977142 -0.056877803 0.12784958 0.015222335 0.038706068 -0.040533695 0.1233128 0.13187636 0.07043636 -0.04779233 0.06139532 -0.11946042 -0.2002283 0.024829412 -0.061453592 0.09958175 0.074221194 -0.045245115 0.10694431 0.030823728 0.093554705 -0.18794441 -0.003366049 0.004552323 -0.00057171134 -0.0064802137 0.17239963 -0.04799584 -0.049394853 -0.059020378 -0.106108174 -0.03283218 -0.08522862 0.18131389 0.0471742 -0.102623105 -0.027815435 -0.08749207 0.16361323 -0.07011116 0.054045696 -0.0979767 -0.063325085 -0.037640538 -0.0069419974 -0.11699285 0.062028028 -0.09579241 0.15790068 -0.052785907
down 0.13315615 0.044421703 -0.031543706 0.025890052 0.0019684036 0.13785084 0.12035114 0.115103066 0.028470129 0.0016964574 0.060403343 0.0599868 -0.10153258 -0.026984636 -0.054139704 -0.14172642 0.0019606357 -0.01763973 0.018291825 -0.17717406 -0.07252779 -0.062012833 -0.050775286 0.04124262 0.10894496 -0.07159416 -0.07087826 -0.09154247 0.096942365 0.12798113 -0.008486914 -0.07498583 0.022788776 0.00074721186 -0.09982784 0.04662744 -0.047272585 -0.14896035 0.04443091 0.016046325 0.048636645 0.123385124 -0.10126056 0.1298567 0.09341285 -0.056529857 0.12491377 -0.022571525 0.048762325 0.026062809 -0.016072696 -0.07869273 -0.19525644 -0.09818005 0.06620003 -0.12286443 0.12883304 0.06929062 -0.08696382 0.08798677 0.009053585 -0.14950898 -0.015182951 0.013659753 0.0210602 -0.052995205 0.023063494 -0.1275593 -0.019664424 0.11039897 0.055611823 -0.07824136 0.10228363 0.00950391 -0.065634415 0.05532723 0.044831384 0.12059543 -0.02043682 -0.011045972 -0.05729339 -0.028028175 0.16408594 0.16376492 0.108953886 -0.08082176 0.013075372 -0.10052899 -0.015360913 0.120044716 0.078880385 0.015338622 0.11658332 0.13426794 0.0008113306 0.053182848 0.015167898 -0.034884423 -0.058822546 0.061120354
had 0.04167374 0.088945314 0.094877094 -0.08119722 0.009668244 0.07578291 -0.11578211 0.008697564 -0.06795876 -0.1645087 0.027759433 0.045129243 -0.011471281 0.07377037 -0.16130371 -0.04708207 0.06038078 -0.1334744 -0.058918953 -0.03820584 0.020769333 0.048812706 -9.324192e-05 0.16715814 0.09873549 0.06148835 0.093644224 0.13789138 0.089044675 -0.032052025 -0.057122055 -0.15406848 -0.0010900564 -0.12412321 -0.1114178 0.076380014 -0.08184645 -0.04224944 -0.023567375 -0.09765223 0.04693075 0.088212214 -0.023718338 -0.07479482 0.10275637 -0.13997355 -0.14603876 -0.018867353 -0.044702344 0.06961668 0.09969186 -0.023990616 -0.10585976 0.14207625 -0.013295348 -0.03973309 0.05896634 0.19639383 -0.0002588032 0.010196691 0.118613206 0.063668914 -0.060847722 0.117833816 0.0060172905 0.16445749 -0.109212875 0.04325094 0.07828467 -0.07557583 -0.058159802 -0.063166164 0.06777336 -0.088027634 -0.13759562 -0.12313041 0.11558948 0.0691589 -0.08335641 -0.05926252 -0.113515705 -0.00042415713 0.06548391 0.16260307 0.099101044 -0.11234951 -0.02698981 -0.13450192 -0.0045460444 -0.07437231 0.12955303 0.12573574 0.031235658 -0.03642095 -0.047692843 0.04791856 0.07760623 -0.07548138 0.028139317 0.004731777
but 0.009788126 0.016689923 -0.033656903 0.022567684 -0.1112142 0.13224557 0.013853178 0.043889403 -0.11682379 -0.01388511 -0.088874415 -0.17391002 -0.0033814437 -0.05023527 0.04496574 -0.0363681 -0.122224264 -0.1359655 -0.07210547 -0.1748472 -0.12515365 -0.0063059614 -0.0036047867 -0.07242661 0.03597833 -0.03426285 0.025314953 0.07310203 -0.09707566 0.01926022 0.020965142 -0.08274058 0.1989142 -0.08371747 -0.054427035 0.12975632 -0.027559282 0.044614837 0.12248314 -0.15039487 -0.01953709 0.075224616 -0.03199917 0.18230037 -0.093523614 0.010395975 -0.11255039 0.0091438955 0.15390113 0.06343098 -0.011307651 -0.09207949 -0.11654658 0.04427692 0.117206104 -0.026396917 0.06561985 0.084127106 -0.028746545 -0.023253055 -0.1001756 -0.12998247 -0.14858964 0.035385955 -0.06051982 0.102837734 0.05292789 -0.04187438 0.054132234 0.14129837 0.08148664 -0.11565826 -0.039644137 -0.060828995 0.057193547 0.03726285 -0.029289728 0.05875528 -0.0027897393 0.049971003 0.1037338 -0.019576041 -0.06182833 0.18019289 0.068739735 0.09614805 0.080121644 -0.059874095 -0.04205955 0.032706346 0.035384227 0.02338141 0.06338082 -0.056773666 -0.13204311 -0.06267374 -0.016832702 0.037722766 -0.029091166 0.16079953
not 0.10312309 -0.06631084 0.0480469 -0.08305149 -0.087731615 -0.027186738 0.003564656 -0.029018238 -0.11788488 -0.16385902 -0.098672956 0.02825453 -0.091239065 0.14487791 -0.0049327444 0.08916 0.040247243 0.06728286 0.085452534 -0.041009218 -0.10696173 0.027232466 0.01405624 0.09601594 0.08637678 0.08620095 0.05437228 0.019743027 0.05695687 0.14762802 0.092443906 -0.065332465 0.042673167 0.035638597 -0.121950604 0.08415561 -0.014209805 -0.1633707 -0.085091874 -0.10839467 -0.04505095 0.15440279 -0.15541087 0.019827183 0.04043584 -0.01633754 -0.063509025 0.014799791 0.12677377 -0.11690525 0.15496731 -0.112816334 -0.050955847 0.086547814 -0.0025243321 -0.07055192 0.06524841 0.035339225 -0.04187842 0.07768538 -0.06305093 -0.05293662 -0.14868233 0.07563925 -0.11637845 -0.008238509 -0.010500394 -0.05719673 0.02365326 -0.13081194 0.107446514 0.0453678 0.20549533 0.076571494 -0.04349705 -0.029553054 0.11081755 0.089246124 0.043527994 0.043405302 0.038607933 0.053935573 -0.06862016 0.07805542 0.10040553 0.032124657 0.01734286 0.066849396 0.14391148 -0.0396647 -0.015796518 -0.066993326 -0.059819072 -0.12633649 -0.0032434533 0.02869803 0.11760351 -0.03394169 0.06278631 0.12689534
for 0.07257664 -0.011711983 -0.02363584 0.07182841 -0.018746218 0.09812663 -0.05944554 -0.0009796299 -0.074779265 -0.03734269 -0.051925912 -0.0035072211 0.061799284 0.025475254 -0.14726573 -0.20486493 0.015206958 0.0009588951 -0.15988871 -0.16837004 -0.12791437 -0.012664983 0.06841237 0.086759426 -0.09689109 -0.044978358 -0.045145642 -0.022989241 -0.015804442 0.106837474 0.077555284 -0.04519246 0.057869907 0.076467276 -0.08007893 -0.0063695754 -0.11139453 -0.07810045 0.13758092 -0.093358725 0.009995423 -0.101195574 -0.025186881 -0.04472372 -0.05878117 -0.06956091 0.036240082 -0.07766802 -0.011289427 0.09744335 -0.001809742 -0.07227295 -0.09014464 0.082347006 0.013479212 -0.10472705 0.12519127 0.093346946 -0.047045805 -0.037598904 0.045661207 -0.12462494 -0.012647316 -0.058229297 -0.0010124609 0.06854448 -0.08178281 -0.14686523 0.030665513 0.078203015 0.098182954 0.05552962 0.07583381 -0.05626834 -0.099815704 0.08774899 0.105527885 0.1358336 -0.056069918 0.071879104 -0.110390864 -0.053232204 0.028785557 0.09642887 0.026807882 0.07307856 0.040367387 0.027079212 0.0881767 0.14231302 0.12800255 -0.03125456 -0.012386182 -0.02568917 -0.0667075 -0.044844184 0.06634011 0.024834631 0.114323445 0.06029883
or 0.16149527 0.049252965 -0.016114593 -0.07985464 -0.08284635 0.109037705 -0.053097356 0.11560722 -0.030971074 0.011321872 -0.04829054 0.024653006 -0.061251406 0.0852203 -0.06443522 -0.020328777 0.096862674 -0.081013314 -0.049340732 -0.17435548 -0.06753114 0.052957702 -0.0054853274 -0.07381075 0.09737374 0.025733005 0.028332505 -0.06987331 0.10607389 0.061709043 0.050810643 -0.12623134 0.04120306 0.04628718 -0.088672064 0.1341112 -0.03244292 0.014414487 0.14909402 -0.015528627 0.08108216 -0.049782198 0.040288966 0.08906027 -0.09978435 -0.09121217 0.0026536263 -0.028660616 -0.03294368 0.14735346 0.058263186 -0.049092926 -0.0874492 -0.020701889 0.08053708 -0.031382963 0.047367547 0.16981263 -0.07579962 0.11600078 0.011649489 0.01863088 -0.07133636 0.008468781 0.07093853 0.042752653 0.032066256 -0.041865095 -0.024807017 -0.032718316 -0.012949522 0.0049276734 0.088635586 -0.0770291 0.0057840575 0.16446958 0.12536655 0.14694734 -0.06969301 -0.13237518 -0.011323163 -0.10070044 0.045542058 0.109758765 0.021609105 -0.02116971 0.11784879 0.03175896 -0.022369618 0.023716057 0.101359904 0.0858734 0.1139466 0.05697176 0.13681808 -0.04680373 -0.0036740778 -0.036056373 0.064478114 0.115268975
it, 0.08782231 -0.11990327 -0.10473343 -0.11620436 -0.12683322 -0.03654077 -0.111755624 0.107067846 0.05381374 -0.11429327 -0.0773416 -0.03065918 -0.10234275 -0.047120716 -0.13203698 -0.049340293 0.10574783 -0.16135313 -0.14041394 0.00049532787 -0.13844776 -0.037216462 0.0788666 0.018227875 -0.17909269 -0.007933004 0.06383024 0.09805119 0.09156573 -0.004944768 0.018918328 -0.016162997 -0.04843948 -0.13716511 -0.06597668 0.09372763 -0.18799156 -0.08380368 -0.0686095 -0.096395954 0.072147615 -0.017998302 0.087120846 0.041120064 0.035917874 -0.015453358 -0.117201045 -0.06460869 0.05894165 0.022058018 -0.07225553 0.018292218 -0.1557774 0.0395302 0.056838002 0.008242522 -0.00029391015 0.049272537 -0.05049834 0.11315401 -0.06617356 -0.0795667 -0.019499006 -0.031990573 0.034315486 0.015750458 -0.0023830174 0.03188088 -0.064223014 0.027415378 -0.059479516 -0.045529924 0.019031605 -0.07105183 -0.0020130104 0.12967414 0.0032228087 0.06521558 -0.01818368 -0.18084781 -0.0024885265 -0.11702504 0.01736615 0.116003774 0.11417145 0.010994153 0.043146994 -0.064940415 -0.07259331 0.083995625 -0.06709369 -0.0037314612 0.1285398 0.12140456 0.1555341 -0.04973347 0.03154149 0.013258637 -0.063127615 -0.0031480333
up -0.031976193 -0.07126575 0.06065041 0.043024145 -0.10064857 -0.04893976 0.021626115 0.13594949 -0.054995913 -0.004121302 -0.13751411 -0.08261489 -0.09135287 -0.033066 -0.03568011 0.046649072 0.073301405 -0.0806907 0.0775915 -0.058021784 -0.14799485 0.0690584 0.07475598 -0.022007905 -0.13973022 -0.034923844 -0.013756185 0.07996062 -0.019732675 0.07303803 0.07479156 -0.084855884 0.13644655 0.07532284 -0.060035728 0.07685136 0.0409914 -0.19992729 0.076365896 0.055871375 0.013409046 -0.005680172 0.13517997 -0.1026998 -0.07500306 -0.055248324 0.045675423 -0.09603579 -0.03626277 -0.026600808 -0.01124767 -0.044089656 -0.041523233 -0.048065744 0.10012315 0.017217942 0.07395354 0.027463302 -0.0062718233 0.061650075 0.05369209 -0.0068412935 -0.009339683 0.12328389 0.0744024 0.087238796 0.024235036 0.050140835 0.1093896 -0.08241156 -0.009911619 -0.07217729 -0.014961504 -0.031867187 -0.014155073 0.17030166 0.07634314 0.037365843 -0.05127956 -0.046970412 -0.056361288 -0.09046812 -0.01703704 -0.056054134 0.10402464 0.027096415 0.01025497 -0.099884585 -0.00045401126 0.07519058 0.07593479 -0.051438674 -0.03780448 -0.0008814982 -0.030514833 -0.13016455 -0.06773549 0.028061464 0.008498063 0.08887779
all 0.07661155 -0.014522727 0.077897474 -0.04625995 -0.048493 -0.015573553 -0.01872319 0.059415948 0.014816471 0.0026809673 -0.0305063 -0.15390518 0.0067064883 -0.002213368 0.03609173 0.09345594 0.07982401 -0.08230246 -0.16634226 -0.10531569 -0.11210177 -0.042715475 0.04910136 -0.06631324 -0.066160046 -0.095570065 0.05558547 0.13919769 0.07271894 0.011720604 -0.0834978 0.016953157 0.1176804 -0.049145896 0.021554446 0.049159724 0.038957108 0.033283956 0.058295827 -0.05758065 0.0029033574 -0.065765075 -0.064165965 0.008503426 0.009219576 -0.1125282 0.033701073 -0.00820564 0.09504788 0.07110079 -0.050771333 -0.030293755 0.04696986 0.12452088 0.18392994 -0.07695582 0.03792114 0.012309866 -0.018377306 0.06254838 -0.0009652579 -0.095714964 0.0103023 0.11473893 0.09011692 0.14352211 0.004149476 -0.11003207 0.13448586 -0.02559418 -0.011023181 -0.09709827 -0.043317154 -0.118576184 0.060159806 0.027809454 -0.00950872 0.009528171 0.039110053 0.03432329 0.05136934 0.028465334 -0.11031014 0.06269732 0.092295006 -0.058854938 -0.008462221 -0.057450924 0.09288524 0.07002394 0.10802661 -0.063150845 0.08077506 -0.007114378 0.025045484 -0.0969469 -0.011358818 -0.058763154 0.07446434 -0.030512834
little 0.08061139 0.022656184 -0.100360245 -0.010167249 -0.13243605 0.022432111 -0.06074572 -0.012574376 0.0230014 0.053187326 -0.16274464 -0.13334218 -0.07319557 -0.06433669 0.018620089 -0.070039734 -0.003806605 0.02431538 0.07196155 -0.001068323 -0.19557007 0.049868148 -0.097460866 -0.036355566 -0.0861752 -0.09501935 0.032733362 0.084102795 -0.027231626 0.025678385 0.029179888 -0.034118146 0.04578676 -0.025466628 -0.1257917 0.111806914 -0.08422764 -0.09492913 0.12268148 -0.10665533 -0.057099182 0.08260863 0.069764845 0.06792103 0.030756777 0.010501068 -0.03677121 0.016167047 0.0768147 -0.029624762 -0.019571014 -0.05732862 0.017377395 -0.122452065 -0.010110695 -0.032643914 -0.033161193 0.09548876 0.04670849 0.08225255 0.01052626 -0.029610451 0.07226268 0.14459273 -0.009275818 0.096208595 0.050986614 -0.066543326 0.002610601 0.01766641 -0.0862002 -0.15094408 0.10528368 -0.02006959 -0.108277865 0.13053279 -0.017861005 -0.056097873 -0.13793059 -0.077973284 0.02692031 -0.14569122 0.045625165 0.068216436 0.08206803 -0.025320332 0.11523463 0.006064589 0.030610412 0.11906664 0.090495445 -0.0014464555 -0.08114429 0.09555871 0.023919094 -0.14918087 0.027023507 -0.12028191 0.022388712 -0.049785495
at 0.058877263 0.036485787 -0.011507854 0.0008727121 -0.14427021 0.12619606 -0.15860695 0.09753763 -0.06758029 -0.0048317714 -0.08454947 -0.15395565 0.04040039 0.07093031 -0.06014433 -0.048423465 0.098208085 -0.04824049 0.044242244 -0.03493794 -0.084852785 0.07857341 -0.07478423 -0.03848839 0.06010986 -0.094225354 -0.023361832 0.11029798 -0.028019419 -0.0041699666 -0.020287562 -0.0384973 0.0316848 -0.01457791 -0.035797954 0.1365946 0.0029509803 -0.11404526 0.08945419 -0.028087731 -0.0043710526 -0.057854988 0.030736802 -0.00267618 0.06528032 -0.11272549 -0.004390717 0.037324514 0.037473403 0.1518432 0.0680536 0.006997101 -0.061430037 0.082372606 0.10105651 0.08891273 0.11417025 0.12217101 0.027480435 0.036479957 -0.085665025 0.09528806 0.014303816 -0.05932104 0.063156754 -0.092755124 0.051918264 0.0056276107 0.07357954 -0.09092599 -0.023440477 -0.009865386 -0.0820349 0.06411453 0.014370173 0.1490265 0.007855868 0.008893709 -0.08524157 0.011311507 -0.08783811 -0.1269822 -0.08927857 0.09520596 0.062274113 -0.100353494 0.08537759 0.020729722 0.06590251 0.098397136 0.14172882 0.14400145 0.119151324 -0.039587103 -0.022709064 -0.006319541 -0.10854509 0.0045048483 0.10237653 -0.036698703
on 0.009437968 -0.09368625 -0.10118866 0.0033189594 0.028413003 -0.068656966 -0.013447145 0.12136211 -0.10374663 -0.04207902 0.039016813 0.010388239 0.00030415435 -0.0048268037 -0.095184125 0.037176337 0.09877566 -0.09025107 0.04823813 -0.015522849 -0.038028035 0.09187774 -0.05550478 -0.056756575 -0.07319471 -0.006079442 0.068051346 0.012938117 0.061716404 0.07908733 -0.010249737 -0.14411204 -0.022339445 -0.14853324 -0.07151496 0.14485618 0.034141723 0.038233016 -0.03969594 -0.09975254 0.092701346 0.046912797 -0.048483834 0.16914816 -0.121898 -0.03982972 -0.16048658 -0.085930996 -0.021259395 0.06228432 -0.06416269 -0.10311939 -0.046092555 0.07428829 0.12276027 -0.12608702 0.11466742 0.07650833 0.022782145 -0.015027016 0.0013871093 -0.088132925 -0.019763498 -0.03899497 0.058143307 -0.06419996 -0.027176626 -0.05227555 -0.03086435 -0.05630237 -0.04242028 -0.04315541 -0.052975193 -0.037153687 0.009642476 0.022203118 0.025131583 0.06585532 -0.09101195 -0.028429333 0.044267505 0.10628587 -0.0629197 0.015738077 -0.069453076 -0.025402727 0.0393127 0.046999943 -0.019956192 0.030765597 0.13590926 -0.025656898 -0.060274415 -0.02732464 0.08308897 -0.15038987 -0.012802804 0.000585514 0.10414876 0.08154469
so 0.09251343 0.08405517 -0.10061871 -0.029063929 -0.08560667 0.08380818 0.067776546 0.0758367 -0.04937629 -0.10723574 -0.06477496 0.00909881 -0.12942195 0.11592072 -0.090182185 0.06869004 0.07845389 0.0018900027 -0.10568517 -0.0052334173 0.07666192 -0.07086986 0.004991288 -0.006359605 0.054816093 -0.043966793 0.062916175 0.07445866 0.007162156 -0.036521398 0.12615201 0.004173375 0.07403357 0.009256532 -0.02383221 0.07290578 -0.0990541 0.005389116 0.05776337 -0.06472574 0.0020317724 0.14177525 -0.15135252 0.11368144 -0.047840405 -0.0050466843 0.034336116 0.042079106 0.13386586 0.089473896 0.10665234 -0.13571869 -0.07060481 0.12236944 0.05247211 -0.027325192 -0.0003609371 -0.009571158 0.05713692 0.015918106 0.07425292 -0.03826467 -0.07677468 0.13990739 0.04200834 -0.0894217 -0.08355613 0.009301198 -0.07457393 -0.050606605 -0.060473897 -0.105258405 0.12008507 0.055022568 -0.061844688 -0.03391549 0.014378297 0.07025638 -0.0061647105 0.00047547597 -0.03870856 -0.056872375 -0.046940133 -0.0045314236 -0.008740121 -0.095368065 -0.0857476 -0.027448626 -0.050836522 0.045962468 0.031148512 0.046181843 -0.038196713 -0.057821635 0.047431767 -0.043092806 -0.04745259 -0.04064653 0.035874024 0.10176115
as 0.09094686 0.039856438 -0.0073885275 0.09236563 -0.048009675 0.04059423 0.08536606 0.13962094 -0.072015375 -0.14891005 -0.051174846 0.020782558 0.02319591 -0.09948326 -0.12183017 -0.06197705 -0.03894451 -0.07096554 -0.06722366 -0.018539395 -0.03364503 -0.045324378 0.0677253 0.082051024 0.10331338 -0.020420434 0.12567021 -0.012981977 0.08561589 0.09237376 0.07519059 -0.06690335 0.10117321 0.011667799 -0.013102664 0.038649153 0.041192938 -0.12060694 -0.012575243 -0.026084954 0.01980024 -0.06932343 -0.15075988 0.049863063 -0.06018097 0.07280021 0.021470863 0.07970622 -0.0051511177 0.13094711 0.053160433 -0.14322674 -0.12611352 -0.0032729683 -0.06305354 -0.004223671 0.106912956 -0.013606159 -0.17492469 -0.02668534 -0.055870026 -0.1081129 -0.11911483 0.09774528 0.10318984 0.09746342 -0.01673704 -0.102061145 0.10571302 0.018008702 0.043554872 -0.046778914 0.016979925 0.10010047 0.041080076 0.00022437016 -0.0051452783 0.15909304 -0.124302156 -0.038225934 -0.010565288 -0.074088775 0.05520143 0.041796107 0.08795968 0.026224958 0.05289201 0.026221706 -0.014464622 0.081197485 0.03178506 -0.027651757 -0.07265916 -0.006221639 0.06195051 -0.061721552 0.07203564 -0.04584999 0.1180439 0.072958775
be 0.0006708525 -0.008917008 0.005932936 -0.051263627 0.05802415 -0.010555494 -0.11745588 -0.027335495 -0.09489957 -0.1370403 0.0316962 -0.07239912 -0.07070313 -0.03383194 -0.010395006 -0.07993154 0.08517822 0.05749511 -0.13312043 -0.0856423 -0.10819877 -0.03620882 -0.032933168 -0.07882496 -0.06360514 0.035214197 0.100509785 0.08606968 0.1811028 0.015837856 0.13601868 -0.057621557 -0.036270734 0.054307215 -0.15596391 0.06305988 -0.124270014 -0.047471873 -0.011723621 0.017529912 0.03003873 -0.037785325 -0.079573885 0.049257677 0.09010776 -0.03724524 -0.005617578 -0.12474097 0.080395445 0.082705304 -0.01176936 -4.991074e-06 -0.053627476 -0.045606542 0.12968566 -0.0824476 0.05028724 0.02179053 -0.09345835 -0.00226097 0.045492955 -0.022448061 -0.067096464 0.047824934 -0.022100698 -0.047848273 -0.08405662 0.06403607 -0.02010792 0.0853105 0.066520765 0.03824668 0.029472535 -0.01825317 -0.07082704 0.029717444 0.06596521 0.092960976 -0.050083537 -0.049659774 -0.017044779 -0.05702373 0.013434095 0.010479674 -0.060609523 -0.17106839 0.09264679 0.034563545 0.08275937 0.049324103 0.10132043 0.092712335 0.03032079 0.032981258 -0.03391354 -0.055226672 -0.013656781 -0.057195134 0.04181321 0.0952978
there -0.0154758915 -0.01219095 -0.091795176 -0.098777846 -0.013741095 0.1405205 0.09395495 0.022130894 -0.1109962 -0.11940737 0.082617514 -0.08110378 -0.11250728 0.14264254 0.11457875 0.07397353 -0.044478696 0.046189643 -0.11991088 -0.041420493 0.07149883 0.056381743 0.011506286 0.0830309 -0.029511124 -0.07994383 0.112663694 0.13632703 -0.012623799 0.12893388 -0.03430269 0.012086695 0.066918984 -0.12977871 -0.087024055 0.13820513 0.088408604 0.03723058 -0.106205784 -0.01100139 -0.02017663 0.18879077 -0.052450992 0.13966466 -0.12392849 0.04184431 -0.071642414 -0.11379165 0.090990715 0.027765086 0.0836403 0.07145478 0.04070635 0.14891309 0.055010125 0.02703025 0.12426798 -0.024664141 -0.04200404 0.109395355 -0.07020911 0.07014454 0.046657395 0.024358476 0.016847199 0.05877795 -0.13561106 -0.06344426 -0.07900657 -0.09963932 0.07987542 -0.06289743 -0.027214192 0.015518916 -0.1370471 0.031019123 -0.032248203 -0.05168898 0.104308985 0.06283477 -0.124908306 -0.040385872 -0.14513868 0.15350732 -0.0065864576 0.058230147 -0.034584153 0.05077145 -0.043127354 -0.01966406 0.07720419 0.038374044 0.11765952 0.066798255 -0.050990764 -0.01073965 0.02870944 -0.16750091 0.07895352 0.13116199
this 0.081224084 0.064386636 -0.1071665 -0.02610176 -0.113267 -0.026843913 0.0749593 0.0028579659 -0.12969483 0.0018285996 0.052094247 -0.111961514 -0.042681694 0.10699794 -0.022787942 -0.066334784 0.059910055 -0.032521322 -0.15380716 -0.042183533 -0.061103962 0.019984437 0.012054571 0.01974941 0.059773132 -0.12143229 0.06571199 -0.067679584 0.00846865 0.06734476 0.06947593 -0.034014206 0.10075054 0.025326218 0.0138226375 -0.039933648 0.006775207 -0.02598621 -0.032548007 -0.09175537 0.13311851 -0.00041907502 -0.062611565 -0.054181512 -0.0005871112 0.05859974 -0.02437239 -0.06725438 0.06931394 0.015768316 0.12239497 -0.021495106 -0.09037127 0.04982343 0.09460631 -0.06265422 0.095101625 0.1091484 -0.1652908 0.032794796 0.021103546 -0.037110552 -0.08476946 0.005331342 0.09090209 0.0316848 0.012486627 -0.16664773 0.14159784 0.10016246 -0.09648961 -0.0768211 0.05170218 0.021834215 -0.10353387 0.09267159 0.016130183 -0.006119014 0.034263488 -0.076379046 0.050410777 -0.12159353 -0.06965135 -0.033026475 0.005691672 -0.07491592 0.10009247 -0.03364829 0.0006201038 0.0037526642 0.12627694 -0.030931737 0.067468606 -0.0762552 0.103439964 -0.07360605 -0.012082608 0.11493751 0.09795046 0.023429172
no 0.08609457 -0.07634086 0.0101881875 0.0044928435 -0.071253434 0.1301371 0.011249433 -0.06532234 -0.09645337 0.016760012 -0.11076111 -0.074304044 -0.004743052 -0.10491355 0.093540266 0.048454046 0.051533356 -0.052241117 -0.09671562 -0.08001913 0.057725277 -0.029504882 -0.08068495 0.013887562 -0.108129226 0.08706025 0.023031553 0.059098806 0.02023041 -0.01877606 0.024972152 -0.0357364 0.01949322 -0.07793694 -0.08767345 -0.002045934 -0.014284361 0.048800696 -0.07416178 -0.05374636 -0.03295345 0.06294758 0.046821713 0.07049184 -0.11082079 -0.0010608647 0.004529423 0.05323001 0.022830447 0.024739116 -0.091035545 -0.08911748 0.06986472 0.003304447 0.15195596 -0.02416111 0.11309982 -0.027287694 -0.022737652 0.00082132313 -0.043892894 -0.011486939 -0.124981046 0.0809484 -0.04544758 -0.005522115 0.028921973 -0.080467045 -0.036145993 -0.11767079 0.096504256 -0.07228793 -0.017156776 0.041909315 -0.031285066 0.07382236 -0.07423607 0.076787986 0.017760342 -0.027131623 -0.0036637182 -0.14069094 -0.17359887 0.02028355 0.021670252 -0.13059478 0.014191883 0.0049598 0.08816625 -0.10677854 0.05038983 -0.12978673 0.033831555 -0.121656924 0.049280163 0.06846362 -0.029357098 0.0056137824 0.003976484 0.0863237
with -0.008736802 0.039718524 -0.08538954 0.0072109085 -0.10098548 0.12292677 -0.08560372 -0.01232777 0.03624635 -0.04788655 0.021548498 0.034915775 0.020755779 0.04382124 -0.0018271941 -0.07120732 0.0077971453 -0.066968374 0.017677883 -0.04844586 -0.10229163 0.07748535 -0.08390595 0.03092046 0.024932416 0.0114816325 -0.044749677 -0.042707562 -0.020219974 0.14032495 -0.021663645 -0.023024382 0.0023506985 0.05295144 -0.09152905 0.021171993 -0.022197044 -0.11179908 -0.022051567 -0.09235616 -0.013942166 0.11015356 -0.044212375 0.06139928 0.019166471 -0.05896924 -0.074615896 -0.13240983 -0.010015855 -0.019303326 -0.0058763106 -0.06837836 -0.09913835 0.05459617 0.07972375 0.0022349209 -0.011189917 0.09884142 -0.06739634 0.045424864 0.111921586 -0.012742256 -0.028711706 0.11355588 0.03253748 0.09581895 0.0057467916 -0.005044378 0.031327408 0.015910132 -0.036712464 -0.025004774 0.034218837 -0.008709176 0.01848322 0.12811975 0.016664702 0.12155615 0.013575459 -0.11613185 0.019670159 -0.055407587 -0.08843502 0.009037032 -0.0517915 -0.014375983 0.054577924 -0.091901675 0.008143099 0.13912646 -0.021473248 0.088952996 -0.053798642 0.11302583 0.04684499 -0.10391865 0.08200817 -0.017631222 -0.06665282 0.06532279
out -0.039416127 -0.088496 0.025332805 0.040282056 0.008535117 0.100339316 -0.06863684 0.07931 -0.10368877 -0.04933053 -0.031831544 -0.09667609 -0.025556937 -0.094523795 -0.0918202 0.090505034 0.011583836 -0.049627442 -0.09612953 -0.0019355126 0.096891135 0.057786394 -0.15330637 -0.089326546 -0.03100148 -0.05381553 -0.04903454 -0.050094597 0.085278705 0.10320659 -0.014419476 0.075814396 0.09180759 0.09637289 -0.11822944 0.127573 0.054929383 -0.07649401 0.024215553 0.019715339 -0.021612173 0.14723428 0.030678174 0.07248261 -0.031142373 0.15397492 0.05025108 0.029853448 -0.047869142 -0.0044497456 0.030021507 -0.0909502 0.079276554 0.04410107 0.07423957 -0.04850783 0.04837691 -0.06739203 0.02685041 0.003222254 -0.090162665 0.013472817 0.078933075 -0.051144157 0.12017048 0.048777707 -0.06874335 -0.05026748 -0.072907045 -0.029448256 -0.13444139 -0.15643439 -0.05287603 -0.016725024 -0.121005446 0.050715916 -0.06589925 0.041083645 -0.035672717 -0.10188729 0.0056069363 0.021112762 0.018020831 0.014959325 0.09563796 0.0063525876 -0.0536909 -0.039350662 0.008045847 0.10796605 0.082416534 -0.03785708 0.0043436857 -0.0052658506 0.08941591 -0.033552863 -0.0084877275 -0.009243569 -0.05932166 0.045283087
by 0.106921665 0.071840174 -0.03082238 -0.05846637 -0.05271379 -0.045442402 -0.13323992 0.10677686 0.063318625 -0.07327112 -0.06971951 -0.075933404 -0.024341399 -0.007623455 -0.112487875 -0.038705703 0.0110177845 0.038611293 -0.054204706 0.01281591 -0.032406162 0.11452218 -0.03900445 -0.042664167 -0.03414768 -0.13009557 0.1317584 -0.08114249 0.099486694 0.11704653 0.049275074 -0.09372923 -0.02406829 -0.04882641 0.04229667 -0.018191595 -0.008224752 -0.07782015 0.04421367 0.027273685 0.07836727 0.0008537879 -0.08709621 0.04048947 -0.0553979 -0.010174508 -0.072888054 -0.07001675 -0.00965465 -0.051612496 0.048567798 8.250878e-05 -0.012196559 0.015455038 0.06685843 -0.07053392 0.09182477 -0.07118196 -0.025491377 -0.018704541 0.122102246 -0.15381838 0.08610687 -0.021299105 0.036106434 0.016446939 0.081960656 0.007494664 0.009643634 -0.0029618712 -0.11165669 -0.07913559 0.046023387 -0.036412865 0.049891733 0.03927396 0.024564166 0.12712535 -0.10707313 -0.03033622 -0.07172119 -0.123263225 -0.040794756 0.089969255 0.059267234 -0.034167543 0.06326184 -0.01597213 -0.036371578 0.004276178 0.12430021 0.06899342 0.102144 0.028713653 -0.011742212 -0.14864431 0.079669945 0.017496044 0.047064748 0.108265415
the 0.13062865 -0.07903974 0.03211674 -0.054627284 0.010241808 0.034603905 -0.06609016 0.09707706 -0.078546576 -0.06586009 -0.08206766 -0.09512876 -0.03245254 0.05162122 -0.001684762 -0.11192698 0.063652076 0.0075103026 -0.08361367 -0.07887571 0.0063377526 -0.0971416 0.07855718 0.016544547 -0.008860247 0.042460572 0.054582898 0.10095989 0.00022073556 -0.054456007 0.102844656 -0.08785089 0.08009104 0.058427893 -0.06256301 0.08005736 0.008609404 -0.13963681 0.040968724 -0.077969685 0.12410368 -0.08307708 0.102279395 0.017395923 0.025239645 0.009830845 0.10131597 -0.045552533 0.03396983 0.12464485 -0.07829654 -0.010666848 -0.07480539 -0.022391979 0.018374715 0.01224075 0.13647087 0.07268426 0.03944309 -0.07832166 0.1342277 -0.046177093 0.09545539 -0.009491922 -0.069597736 0.09481202 -0.055072464 -0.0091199055 0.0028843794 -0.039830405 -0.10112874 -0.035192616 -0.06557622 0.062232293 -0.06796629 0.09538658 0.04907729 0.047377147 0.0071381098 -0.0373964 -0.013124179 -0.018317813 -0.10021246 0.03183256 0.0472312 -0.07817985 0.09009075 0.010162744 -0.031072732 0.07275437 0.083437845 0.11343135 -0.04939669 -0.0076233326 0.10108603 -0.05077888 0.02034079 -0.11157287 0.0071863206 -0.04730944
thought 0.12138312 0.058115806 -0.04711063 0.04832864 -0.07986981 0.08135416 -0.06958301 -0.041409098 -0.08439506 -0.071211465 0.03195356 0.046287466 -0.11350851 0.08901691 -0.05883881 -0.055638187 0.05447707 0.011486789 -0.05217885 0.031447895 0.007788881 0.063390374 0.042484745 0.05149107 0.031534564 0.013487704 -0.041034445 0.0051291217 -0.01796396 0.009748809 -0.010949265 -0.020776147 -0.025675999 0.0017532684 0.02434493 0.036244173 -0.10262698 -0.06535205 -0.008802531 0.04634844 -0.09414446 -0.028329356 -0.05739105 0.062767945 -0.041155778 -0.05699127 -0.0510845 0.03326407 0.09386228 0.054824643 0.10280703 0.017875608 0.029713428 0.07143 0.0035428132 -0.07578852 0.010458356 0.0053949645 -0.051475294 0.022266136 0.04776117 -0.050593063 -0.004171307 0.051381305 -0.05949112 0.098759376 -0.056241088 0.0023045484 0.027317464 0.021633592 -0.055156387 0.005164124 0.1401959 -0.05839529 -0.021223892 0.06142783 0.020651415 -0.029658478 -0.113178276 0.081206925 0.024566485 -0.0018652151 -0.060178798 0.103915565 0.1262295 0.011344425 -0.031239549 0.04806192 0.051560067 -0.042382095 -0.04341435 0.09783108 0.010123138 0.053501204 -0.06427945 0.08514283 0.0022279643 0.019924132 -0.028416755 0.073778026
would 0.11015382 -0.10435824 -0.073465124 -0.072187774 -0.0151437055 -0.04123961 0.008933593 -0.05306546 0.085630864 0.020349601 -0.04639661 -0.03998708 -0.09705232 -0.05164784 0.032827344 0.030335093 -0.08907146 -0.04920505 -0.07061026 -0.010452754 -0.10468981 0.15044175 -0.045017462 0.07414082 0.030381247 -0.039099406 0.07574668 0.04738002 0.1317539 -0.005430246 0.009736891 -0.081300735 -0.031422094 0.065033734 -0.041335233 0.09700207 0.005213798 -0.016393315 -0.010216729 0.0071164896 -0.12342424 -0.06843994 0.0077080503 -0.03647461 -0.007882534 -0.11691208 0.0071934992 -0.06228248 0.11151384 -0.015934195 0.058227107 -0.046656232 -0.031447805 0.05655113 0.0896228 -0.031482194 -0.042307965 -0.06415669 -0.137836 -0.013534734 -0.024442982 -0.08709403 0.06974009 -0.035265412 -0.04537011 0.057639245 -0.13325554 -0.09853855 0.025519067 0.010687324 0.0789827 -0.1480978 0.14123568 -0.086476624 0.084508196 0.06356346 -0.018288236 0.07742914 -0.074453875 0.032934017 0.01952916 -0.0033723451 -0.12859906 -0.013909263 0.09543724 -0.038924646 -0.011805885 -0.15115027 0.099471755 -0.048117965 0.0857849 -0.037161555 0.10135749 0.062441062 -0.0008335933 -0.05747134 0.1547242 -0.047827907 0.11751896 0.034502488
think 0.084542446 0.02812907 -0.026316138 -0.11615366 -0.023052745 -0.11037787 0.021966018 0.0038606517 0.0016357015 0.021406014 0.009817368 -0.09341176 -0.123722844 -0.06983583 -0.06421557 -0.04610489 0.077139765 -0.033885267 -0.10409597 -0.08131055 -0.012566793 -0.044327274 0.09545732 -0.050163925 -0.049428772 0.010209539 0.0041796574 0.008397434 0.064941026 -0.055054426 -0.021666056 0.032667786 -0.025260575 0.0047605317 -0.0807172 0.0692529 -0.09773691 -0.021762101 0.033020314 -0.007249802 -0.061793417 -0.07327215 -0.058875542 -0.04587242 0.038040284 0.018941252 0.036206704 0.010334811 0.09516459 0.061048094 0.08446707 -0.05192159 0.07031534 0.07076867 0.09763928 -0.08680312 -0.045554217 0.099020794 -0.13176976 0.028884802 0.11704022 0.024670254 0.094730474 0.11621665 0.07527144 -0.04290004 -0.02333807 -0.03858171 0.11025149 0.09305448 -0.017869342 -0.077075586 0.037580244 -0.08248858 -0.04425469 -0.09509903 0.0104634985 0.015484123 -0.014312813 -0.04274012 0.04272 0.058338482 -0.070538856 0.0566392 -0.019151492 -0.07061073 0.04641744 -0.055626485 -0.060846422 0.04430447 -0.046287112 0.10274115 -0.031034315 0.11350349 0.14990747 -0.06759069 -0.02446751 -0.08625012 0.068653174 0.061075706
like 0.023765316 -0.087226905 -0.024954505 -0.08015028 -0.028804932 0.0056569884 0.011026019 0.0092638135 0.026020002 -0.02492973 -0.024774816 -0.032482382 0.011958942 -0.036936454 -0.0040684193 -0.0455635 -0.12375463 -0.05756422 0.014999491 -0.12078612 -0.1414556 0.100015074 0.055283766 -0.08350952 -0.045249265 -0.07062828 0.006489549 -0.100354664 -0.010128488 0.07209132 -0.07805748 -0.09143931 0.07730006 0.05304859 -0.06805352 0.07514276 -0.05297768 -0.12326687 0.0257927 4.9383147e-05 -0.080218896 0.061749674 0.010950596 0.07580543 0.004677604 -0.11997005 -0.12819418 -0.10150215 0.016205886 -0.04635983 0.105593964 0.012061224 0.042594817 -0.0601058 0.026503691 -0.14115886 0.014260479 -0.050679967 -0.029149402 -0.020597184 0.1385743 0.06771425 0.06923273 -0.015892021 0.013583954 -0.013219872 -0.03359658 -0.055308726 -0.031541143 0.058582187 -0.083851375 0.031464674 -0.00875931 0.04445094 -0.0662405 0.13443552 0.04235212 0.06541005 -0.103398666 -0.102593064 -0.08155359 0.042917673 0.0020984882 -0.024326 0.07661397 0.002267844 -0.0017357713 0.05989476 -0.04797567 0.10274567 0.07474448 -0.08581478 -0.044901483 0.055006534 0.034876924 -0.04651195 0.1262812 -0.14511485 0.033114202 -0.045060743
about 0.067613564 -0.038670555 -0.14563088 -0.09574423 0.01505346 0.012050346 -0.0053335386 0.07526207 -0.08639666 -0.014263524 0.051349796 -0.022000188 -0.0010513114 0.030579843 0.009875835 -0.07224813 0.06449405 -0.027634514 -0.00015797163 -0.062090993 -0.074172825 0.054936085 0.0045953924 0.0930702 -0.126918 -0.0611519 -0.04631467 -0.070558555 0.08266064 0.051490907 -0.007350052 -0.010832642 0.10082978 -0.0037419524 -0.022054376 0.13173501 -0.11239943 -0.10873394 0.070017226 -0.112379484 0.07161695 0.078009166 -0.07571512 0.038784675 0.030981097 -0.05205416 -0.10879408 -0.12769705 -0.010902058 0.067393824 0.09621812 0.04537358 -0.033725683 0.08894311 0.060259458 -0.09144816 0.084975325 0.13752839 -0.0032958407 0.02735845 -0.039902 -0.12138924 0.020992246 -0.05019932 -0.10658272 0.09113903 -0.039327383 -0.00794982 0.006624609 -0.04631193 -0.122460194 -0.12758128 -0.053937145 -0.008918975 0.0399769 -0.015434295 -0.014025325 0.13371183 0.033608004 -0.0950813 -0.039594818 -0.018690681 -0.030519508 0.0033539543 0.08405947 -0.12931824 0.09852469 -0.083205424 0.11307698 0.11761518 0.09874831 0.08218962 0.10156424 0.07299043 0.09417451 -0.06064976 0.08239071 -0.034403156 0.100370415 -0.06285652
were 0.09493272 0.009175975 -0.07235554 -0.08195659 0.01868912 0.0036219247 -0.0026625055 0.004181416 -0.001979643 0.066112384 -0.045375828 -0.009726612 0.012761797 -0.031709198 -0.031189483 0.0260524 -0.06848143 -0.059738934 -0.07901524 0.0050487733 -0.1225243 -0.08002483 -0.04642768 -0.070637494 -0.0511951 0.03467336 -0.051798984 0.1023849 -0.031943515 0.028966324 -0.073862545 -0.0024236995 -0.033591952 0.035716414 0.011442788 0.085417986 -0.042085897 -0.060538124 0.059387397 -0.048412383 0.1084157 0.030729236 0.0002785083 0.02035478 0.13875803 -0.09658666 0.010463602 0.09035778 -0.008020461 -0.00047685404 0.17541505 -0.09246503 -0.096487015 0.03966261 0.075746976 -0.011933204 0.004283985 -0.00027369754 -0.024621915 -0.010661211 0.11086898 -0.03122717 0.08164239 0.013128575 0.040284753 0.049071137 -0.1329372 -0.00017202133 0.035927184 -0.00081936934 -0.037768222 -0.03608605 0.07070493 0.011043951 0.06808579 0.07500435 0.1516941 0.12204926 -0.09232053 -0.1122017 0.09270129 -0.020022633 -0.11302766 0.004733256 0.037606332 -0.15918736 0.14641678 -0.016273227 -0.024293289 0.12122684 0.10155264 0.0050135185 -0.015382427 0.08029086 0.004115659 0.014842453 -0.022423783 -0.14103836 0.14535145 0.11403758
how -0.011672717 0.015818335 -0.029299127 -0.14093526 -0.11355165 0.04178242 0.014314543 0.02689969 -0.051678307 -0.10964865 -0.020687647 0.053276464 -0.031636674 0.07336282 0.00892854 0.07622103 -0.026520386 -0.13032658 -0.09529704 -0.0227019 0.0044186795 0.036991566 -0.10326862 0.12977572 -0.047163866 -0.056388788 0.032850683 0.09219879 0.042894024 0.011746399 -0.0016441006 -0.03766494 0.05643516 -0.037244484 -0.093741834 0.15462647 0.007227238 0.005475997 0.05071006 -0.11377314 -0.0055311983 -0.032620855 -0.032454662 0.03494843 -0.049786467 0.094830185 0.022958547 0.060996313 0.04573401 0.066570245 0.014237376 -0.14810802 -0.049320858 -0.0795319 0.061118495 -0.118959695 0.1302804 0.114952475 -0.018338379 0.03836911 0.10055587 -0.04045052 -0.051742192 -0.016610509 -0.0064095855 -0.04673925 -0.004124591 -0.056211878 0.033147614 0.07311137 -0.024959113 -0.0668809 0.04383666 -0.052258026 -0.05523683 0.057609793 0.012038187 0.06539457 0.061827626 0.01331948 0.0215167 -0.12455179 -0.047863185 0.0717261 0.089221925 -0.061751243 0.09657038 -0.02332026 -0.04475006 0.010770223 0.04491224 0.006507575 0.11447301 0.022852222 0.1264926 -0.085077286 -0.07671659 -0.004641536 0.05532779 -0.0039361278
if 0.06921121 -0.0924693 -0.14392982 -0.06759374 -0.09497881 -0.024134288 -0.041666415 -3.4864526e-05 -0.10021154 -0.11919344 -0.10610724 0.019211516 -0.14047955 -0.13860132 -0.08957416 -0.08655353 0.054381415 -0.13733068 -0.023489531 -0.069365785 0.044260766 0.003620701 0.07964515 0.0071746088 0.024101403 -0.058198445 -0.06139901 -0.06869451 0.04367991 -0.06357825 0.09665715 -0.0049323686 0.031658754 0.11325783 0.05033312 0.13757206 -0.02297624 -0.018114416 0.0011457088 -0.11456082 -0.03456328 0.10697949 -0.049749307 -0.03294455 0.07853411 -0.15500686 -0.1250253 0.10901405 0.08425088 0.048135303 0.0977632 -0.043684483 -0.08911321 0.08406811 0.027358085 -0.022077953 0.040271424 0.14386325 -0.0499264 -0.050697304 0.10319029 0.08001449 0.10601171 0.043744344 -0.01718615 -0.12033105 -0.10216454 0.010688058 0.02515255 -0.05586542 0.06390945 -0.02459175 -0.02014427 0.09754081 0.13204814 0.048488263 0.14602962 0.13561824 -0.12376355 -0.12696072 -0.0031489735 0.09026618 -0.0374577 -0.02439065 -0.048129093 -0.056576744 0.0841529 -0.021679174 -0.14103082 -0.03073302 0.10573058 -0.014807475 0.07143269 0.085621856 0.11373875 -0.07210162 -0.014466773 -0.12220574 -0.015818514 0.059382413
get -0.0012454996 -0.1073919 -0.124749124 0.03807273 -0.08687198 -0.025568573 0.002736548 0.009098896 0.046269894 -0.05123286 -0.109052114 0.025362663 -0.120174855 0.010658514 0.05896054 -0.064959444 0.10473155 0.030698542 -0.14048985 -0.12097465 0.01863926 0.081395075 -0.08505102 0.053799886 -0.04338696 0.043602772 -0.00904216 -0.032706518 -0.022187227 0.13838157 0.024270669 0.05757145 0.03697945 -0.0708398 -0.030254483 0.10134665 -0.066594 -0.06768946 0.034985594 0.05107316 -0.03608778 0.07627488 0.0013955133 0.07629206 -0.09897133 0.050909802 -0.09667779 0.08817269 0.0005656518 -0.043588046 -0.023499563 -0.032757856 -0.002207337 0.15001133 0.1137317 -0.07528722 0.123330034 -0.022270327 0.008775021 0.07751368 0.036548555 0.0988134 -0.08973792 0.109140344 0.11314059 0.09860066 -0.034065828 0.016801436 0.07298392 0.11028421 0.028598765 -0.027037721 0.07721742 0.0733757 -0.0027604494 -0.04466601 -0.0223145 0.07490164 -0.0035112854 -0.026899623 -0.12252177 0.03716369 0.017318496 -0.066228434 -0.060333565 -0.0035384009 0.020169541 0.038066443 0.111811884 0.021012105 0.031847425 0.06577418 0.069231376 -0.028262243 0.086611144 -0.00060937565 -0.059018664 0.043438476 0.053925928 0.084836274
what 0.084562674 0.05841888 -0.081377774 -0.017817074 -0.047918737 0.12578602 -0.05806144 0.07586671 -0.032670926 0.06502657 -0.034644138 -0.102564 0.0017322627 -0.1376934 -0.1009292 -0.036933705 -0.013644182 0.010801527 -0.12522766 -0.021792222 -0.07639561 0.14053516 -0.0010957615 -0.03781714 0.010011585 -0.14362517 -0.0010373088 -0.01892347 0.06411838 -0.015232138 0.061676793 0.01863741 -0.009884412 -0.007526716 -0.06739753 0.088986926 -0.108797915 0.0025991579 -0.035656027 -0.062477965 0.004893575 0.009380922 0.020220203 0.08208118 0.07297511 -0.06790246 -0.10136972 -0.06288708 0.0901272 -0.061814446 0.15941754 -0.08827613 0.052602142 -0.06351395 0.036051553 -0.09969426 0.0015427731 0.08526755 0.03232174 -0.019941932 -0.029475257 -0.0061052195 0.021849914 0.020548686 -0.03935266 0.08028825 0.018457249 -0.0029002395 0.01002163 0.051746346 0.10172519 0.0016783045 -0.032735247 0.0038436316 0.048166294 0.038459715 0.13288672 0.02693069 -0.03995989 -0.123484805 0.052403685 -0.036892228 0.011133561 0.062586226 -0.04955584 0.022286516 -0.024118438 -0.08314462 0.065906376 0.10931118 -0.022261143 -0.006346739 -0.0025784345 0.017268457 0.08188979 0.003896147 -0.0007461766 -0.07642809 0.08611067 0.10334725
rabbit -0.008072085 0.13568978 -0.04028694 -0.028944537 0.035981618 0.042902347 -0.019135855 -0.02113363 0.05972497 0.08247033 -0.042698346 -0.126416 -0.092335284 -0.0343699 0.03439219 -0.0133320475 -0.05559872 -0.092112295 0.019955484 -0.09602284 -0.053981528 0.10029154 0.031670365 -0.012387565 -0.11613448 -0.07670388 -0.05799947 0.028446577 -0.024736244 0.044036347 -0.08108078 -0.09876326 0.06894772 -0.06672405 -0.116635576 0.057115443 0.03403725 -0.11618606 0.078791656 -0.053797167 0.013500011 0.108365156 -0.067248374 0.102142505 -0.08818083 -0.01126507 0.0564626 -0.059959263 0.056249842 -0.07661883 0.097051844 -0.014792079 0.03319496 -0.036653556 0.047332752 0.039530702 0.040055506 -0.06619952 -0.0073431423 0.052707285 -0.04904639 0.10559056 -0.1008884 -0.025893582 -0.1193281 0.038290188 0.040515184 0.055854775 -0.023548026 0.10365175 0.106935136 -0.0012013207 0.055297207 0.11871605 -0.058182117 0.024198312 -0.025678987 -0.004951404 -0.08704061 -0.0949801 0.029916435 -0.08495636 -0.08344003 0.039578166 0.087045915 -0.02931282 0.0030798903 0.03196024 -0.015015846 0.039658964 0.07378498 0.016343018 -0.09866282 0.024926532 -0.047049843 -0.09332027 -0.034765318 -0.031085884 0.03814753 -0.035978135
down, 0.07051458 -0.056537278 -0.12798986 -0.011721574 -0.0121621005 0.032876104 0.07690419 -0.0009888215 -0.07752101 -0.091985166 0.051603813 -0.049719833 -0.005935585 -0.066129476 -0.10782817 0.052614048 -0.03191428 0.07957923 0.020458428 -0.11410204 -0.06994041 0.02510654 -0.11259175 0.087041035 0.06685381 -0.13780624 0.08315428 -0.08509697 0.15454078 0.020702202 -0.071412005 -0.0776407 0.102487825 -0.047110762 0.0070473542 0.022448594 -0.019458393 -0.08452031 0.1043229 -0.14468019 0.10451583 -0.041937575 0.024659986 -0.01331364 -0.03843593 -0.123422205 -0.072003074 -0.010510549 0.058388352 -0.02790227 0.061578672 0.013639368 -0.0566348 0.11759849 0.108282536 0.0024578574 -0.028203355 -0.04813252 -0.03064898 0.11968535 0.11327832 -0.032474305 -0.09442665 0.084950805 0.010042583 -0.029793588 -0.022778535 -0.031367213 0.018670646 0.08543213 0.15631008 -0.13392681 0.07712761 -0.046463575 0.03093636 0.09166555 -0.050376862 -0.038481 0.04703957 -0.008168649 -0.059965607 -0.11049374 0.053900145 0.14425355 -0.030437745 0.0017765657 0.1027613 -0.034360558 -0.06200896 0.13403903 -0.054271065 0.10041686 0.035925403 0.10077532 0.08771462 -0.11143762 0.040628575 -0.10545911 0.024697712 -0.028989976
one 0.07000693 -0.036529418 -0.04538199 0.018295527 -0.03930521 0.075445905 0.05164028 -0.02877298 0.048131317 0.08156421 0.044879727 0.016992358 -0.021876633 -0.019899437 0.071633585 0.11181734 0.02038985 -0.05583131 0.0021160734 -0.08787834 -0.020665586 0.0668735 -0.101761594 -0.03359786 0.054120384 -0.106308185 0.057988003 0.12857744 -0.047575973 -0.032380864 -0.076872386 0.052064013 0.093922764 -0.0008443565 -0.018733982 0.0025384137 0.064364694 0.075155616 0.0042313626 -0.015943695 0.04194015 0.080615275 -0.08066139 -0.042917497 -0.055965535 0.091953866 0.07426537 -0.031372342 0.06498823 0.04800544 0.010162016 0.084857844 0.10176666 0.053557523 0.03172479 0.025983086 0.083174266 -0.021189736 0.03976223 0.08330102 -0.0042835353 -0.008476488 -0.091048546 0.018215364 0.05176664 0.055143446 0.02158979 0.07069184 -0.006501248 0.06874159 -0.11541357 -0.067726865 0.010605535 0.07564867 0.036219425 0.10397802 0.05517918 -0.010580948 0.050939113 0.011414262 -0.08334004 -0.060068425 0.0018125218 0.0069715497 0.08992849 0.0045231064 -0.065633416 -0.07517752 0.096255586 0.0142297 -0.028607022 -0.0863115 0.06648185 -0.053753667 0.1197772 -0.036583822 0.016674194 0.01995665 0.065751135 -0.051441666
nothing -0.0073488196 0.012372291 0.101991214 -0.0063270913 -0.056639392 -0.024169842 0.06610414 0.012245884 -0.14899068 0.048869163 -0.0528381 0.084468625 -0.051637735 0.010842219 -0.033369213 -0.036084946 0.06702773 0.1229388 0.010232833 -0.0052235555 0.02171216 -0.0482757 -0.048309755 -0.048822135 0.044910014 0.012838334 0.04322774 0.029006353 0.096010536 0.037152126 0.037848208 0.053480003 0.062275674 0.06545199 0.0020242566 0.08105862 0.031682473 -0.009475318 0.020492107 -0.1403592 0.048984293 -0.013630558 0.04587668 -0.060669754 -0.06987478 0.076414354 0.0030740798 0.027387355 0.047188736 0.08680392 -0.06168564 -0.10391109 -0.051967893 0.052183446 -0.006201089 0.006841858 -0.027045183 -0.05866611 0.0067003337 0.020002639 -0.10025207 0.053258996 -0.057954326 -0.030784624 -0.021199156 0.046275076 -0.060078707 0.06476971 0.045866303 0.06324115 -0.017356148 -0.06387104 -0.079623476 0.030594565 -0.112326674 0.088161014 -0.03588203 0.03897488 -0.02562692 0.03381393 -0.007067241 -0.048178446 -0.009987107 0.06410862 -0.05995117 0.03998872 -0.07127005 0.09660089 -0.051573955 0.052554067 0.031952225 -0.09254298 0.029874263 -0.10423075 0.01225793 0.005648549 0.05003781 -0.033158157 -0.034760214 -0.046571378
into 0.03161863 0.012383592 0.049898744 -0.052427024 0.0026478756 -0.019560326 -0.05324815 0.014461691 -0.065892875 -0.082157575 -0.07582991 -0.057841502 0.04057151 0.027775554 -0.069269516 -0.062314395 0.034054067 -0.039786488 0.006802968 -0.0067840377 -0.062065262 0.053773712 -0.041462667 0.045740083 0.060965348 0.028992185 -0.07692283 0.055837642 -0.051528558 0.03328085 -0.013397618 -0.06711619 0.019215725 -0.0453589 -0.12219614 -0.023824204 -0.078826405 0.01712434 0.06458406 -0.12745999 0.013115622 0.032200094 0.029848754 0.020898983 -0.040113337 0.023906033 0.020464005 0.022543399 0.08324664 -0.037372567 -0.07297821 -0.03254004 0.004941654 -0.01857371 0.06164819 -0.11219622 -0.037698828 0.071235605 0.045182284 -0.029903155 0.06586947 0.070576996 -0.04655136 -0.015482563 0.035816867 0.07047706 -0.06520657 -0.052628923 0.027130488 0.08550189 -0.010624935 0.014061743 0.049565826 0.019101636 -0.03530911 -0.038657073 0.011948098 0.13118519 -0.13086596 0.061435074 -0.11405679 -0.05608256 -0.07969314 0.04214074 -0.027485797 -0.03568391 -0.047963496 -0.049973335 -0.007033627 -0.03344802 0.10251525 0.064437896 -0.026630607 -0.07378195 -0.004396168 -0.10075567 -0.009311529 0.060919113 0.01514741 -0.035169613
much 0.0067460565 -0.11087142 -0.03909778 -0.10081444 -0.029347993 -0.08043913 0.047788132 0.09191098 -0.11992253 -0.092707045 0.049975835 -0.099251024 -0.048628263 -0.1413188 -0.07263356 0.07441762 0.011546134 -0.086116806 0.02611875 -0.017319035 -0.10880529 0.014463214 0.001703107 -0.09232306 0.058768164 0.08988592 0.0925676 -0.060600292 0.04474173 -0.02437671 0.0458181 0.047933113 -0.02171078 0.025189882 -0.059294045 -0.01391952 -0.09716845 -0.028837817 0.044276603 -0.028425578 0.014272619 0.030194685 0.02260025 0.06366248 -0.004628095 -0.045882534 -0.07763208 0.11531115 0.06372281 0.09007845 0.080279045 0.015256562 -0.09382203 0.08401128 0.06837829 -0.02131376 0.041218195 0.08142325 -0.112487316 0.056748565 0.0072550196 0.053111553 0.033471826 0.018694535 0.062193282 -0.002329641 0.018200057 -0.02343733 0.059952717 0.004852513 0.003126199 -0.1097801 -0.0047102356 0.07202827 0.01889586 0.03218736 -0.07173848 -0.025365314 0.010984973 -0.036432963 0.013984781 -0.008926505 -0.08534851 -0.06074236 -0.048693653 -0.063342474 0.12267417 -0.009920107 -0.026250146 0.04683154 0.07510172 0.043152105 -0.04014636 -0.02243335 0.045809302 -0.10520253 -0.04555614 -0.07194846 -0.051956724 0.06697237
time 0.09639147 0.02123242 0.058759257 -0.03499193 0.020126905 0.1361438 0.015405672 -0.004209423 0.0508524 -0.115804724 -0.07892245 -0.02265691 0.025611417 0.028109476 -0.041625258 -0.03781323 -0.06429519 -0.02400804 0.022133315 -0.05207629 0.08484756 -0.052264478 -0.09403769 0.05289743 0.036991257 -0.06781446 0.07751572 -0.055434942 0.117579386 0.048171245 0.08811656 0.067606784 -0.06209033 -0.03723956 -0.024563095 0.08344989 0.029599443 -0.055147126 -0.0692249 0.085046016 0.10072167 -0.02187929 -0.06119504 0.016494289 -0.124446884 0.0818786 0.08624634 0.045845263 -0.05842133 0.016662031 0.028974194 -0.12637967 -0.056431316 0.08646272 -0.07462114 0.062364824 0.026428852 0.07817725 -0.12510817 0.017270781 0.0953899 -0.05653072 -0.091467544 -0.060204808 0.024862519 0.029459797 0.03996075 0.012327726 -0.08483031 -0.061959684 -0.033690803 0.066727854 0.058684144 -0.03383347 -0.068332076 0.024570536 -0.012575608 0.031142777 0.014433561 -0.07774005 0.06561965 -0.07153568 -0.006759975 0.07478241 -0.03651321 0.06571258 0.05252618 0.018381402 0.07795671 -0.07667707 -0.045072302 -0.030949023 -0.015582813 -0.103681095 -0.044096135 0.09606035 0.15243202 0.021919679 0.06851547 0.10925629
went 0.07281307 0.05997945 -0.011340538 -0.0077263475 0.0022392664 0.09103563 0.017149512 0.06542323 -0.076337315 0.005054837 0.0038830843 -0.09198245 -0.1058107 -0.111268796 -0.104425155 -0.10516966 0.07201362 -0.022713032 -0.07879231 -0.102918446 -0.07751973 -0.107347965 0.0893103 0.016011901 -0.07105881 0.094815716 0.064362355 -0.009125492 0.019701438 0.08038264 -0.015576104 -0.09762817 -0.035308313 0.021480907 -0.0147615075 -0.03189303 -0.090616316 -0.086504124 -0.009633603 0.04004086 -0.03672607 -0.0036978705 -0.028926104 -0.009386082 -0.008103749 0.013860892 -0.043027826 -0.09316951 -0.09124134 0.102219194 0.096314564 0.013702576 -0.0726263 0.010733164 -0.050671358 -0.116781116 0.058044825 0.104893625 -0.02989306 0.029319627 0.11196121 0.021028409 -0.014560796 -0.08144796 0.045615423 0.040442787 0.074197166 0.016740238 0.07964927 0.07167116 0.05226428 -0.022290785 0.03150178 0.012270896 -0.07234369 -0.0570228 0.06527719 0.115712404 0.0025588423 -0.0653614 -0.06719556 -0.07204568 0.13084665 -0.06419497 0.00736712 -0.116690315 0.052207306 -0.0611843 0.04221261 -0.0476994 0.11565323 0.017152224 -0.01583943 0.058901176 0.081346266 0.0015999961 0.053045608 -0.043080777 0.022011481 -0.038210113
me -0.010661269 0.044662453 -0.08773392 -0.034247927 -0.09420687 0.08758989 -0.06805524 -0.012863178 0.08811202 -0.04269766 0.015829185 0.005483027 -0.061120886 0.07408823 -0.061099015 -0.06750108 0.051945537 0.021161912 -0.027066033 -0.10402139 -0.09222901 0.08183688 0.045252156 -0.053353727 0.008315544 -0.116334274 -0.012892761 0.12020638 0.11557215 -0.047936626 0.01918003 -0.011290497 0.11960587 0.0034402222 0.015460813 0.07799297 0.0020278627 -0.09949757 0.05785287 -0.06994688 -0.01682908 -0.016976062 0.04505944 -0.042446706 0.043857068 -0.10067728 -0.010106536 0.010489733 0.081208475 0.0011912795 0.1302801 0.02363211 -0.11606109 0.051187754 0.076487795 0.023178846 0.06406196 0.07640082 -0.022752069 0.010188073 0.011094243 0.02720415 0.047072317 -0.009381125 0.015958782 0.07160716 -0.062496565 -0.07065723 -0.006562832 0.021056486 -0.049976137 0.05564772 -0.0053585116 -0.10999075 0.07606288 0.041939747 -0.07707313 -0.047755085 -0.056877717 0.00898295 0.07064501 -0.06839316 -0.0895051 -0.053653583 0.06795465 -0.06071079 -0.019824464 -0.03188475 0.11630785 0.011969726 0.108556405 0.12295726 0.039847944 0.08862125 -0.038076863 -0.12429012 0.061504517 -0.05801746 0.106579326 0.11880311
i 0.015319144 -0.07858382 -0.020257745 -0.1345228 -0.09387423 -0.0019477963 0.065093614 0.12044316 -0.093380585 0.00086654746 -0.13206689 -0.12266863 -0.03412698 -0.079443835 -0.036490466 -0.07676185 0.026650563 0.061628632 -0.0950499 0.0093813725 -0.031507842 0.10581911 -0.011370575 -0.015865067 0.070396565 0.024759423 0.081604004 0.09537551 0.024605412 0.0025433 0.055797484 -0.002067131 0.086260654 0.035107102 -0.10727462 -0.016609218 -0.032453958 -0.08146724 0.069266714 -0.02114804 -0.0029989986 -0.06955294 -0.105187915 -0.062631324 0.02185081 -0.05669629 -0.0577032 -0.06114755 0.057518385 -0.01506996 0.03812391 -0.0053936415 -0.11829744 -0.07942442 -0.014705129 -0.009344533 -0.020757943 0.015254696 0.02185033 0.09935109 0.062700264 -0.0062792175 -0.108712725 -0.051119547 -0.10143143 0.0019150813 -0.12998648 -0.085313566 0.116070725 0.08602917 0.058059763 -0.038101938 0.07616642 -0.05039011 -0.04563781 0.05899851 -0.07624787 0.1044173 0.0045704204 -0.10317561 -0.0070598414 -0.065032296 -0.11508669 -0.036251098 -0.050411463 -0.11357089 0.064836614 0.0005409904 -0.017673388 0.0332013 0.010514517 0.039249323 0.019115409 0.0335462 0.12902206 -0.00013210019 -0.025095602 -0.076116696 0.11328516 0.123596735
do 0.016157346 -0.059995815 -0.097998366 0.030842604 -0.08384243 -0.010392803 -0.06025687 0.022680977 -0.013412286 0.044464935 -0.005438047 -0.04152268 -0.06843844 -0.0022191224 -0.008756463 0.005235236 -0.021078337 -0.0074382355 -0.06471636 0.029134728 0.08605826 0.0064265598 -0.04655154 0.0017154412 -0.0025149735 0.0030180416 0.096046954 0.054986928 0.06863792 -0.0443901 0.018792035 0.067179486 -0.032553118 0.038867336 0.06694373 0.051307812 -0.06581345 -0.0954388 -0.04550823 -0.062390722 0.07092636 0.06501283 0.011249771 0.1382191 0.021290403 0.016015792 -0.09086525 0.021735638 -0.037920155 -0.0070731645 -0.00017322158 -0.008283083 0.01192442 0.06502767 0.09017508 -0.008818585 0.11096347 0.011780567 -0.05313493 0.007836496 0.074268915 -0.044354893 0.009922352 0.018562773 -0.08449474 -0.07567969 0.034651652 0.04246393 0.03492233 0.002327303 -0.04307039 -0.036418214 0.004572726 0.024074636 -0.018723615 0.07551115 -0.029267034 -0.017905142 0.010317827 -0.06312952 0.043365426 -0.10061855 0.04261894 -0.03948823 -0.07485721 -0.05896344 0.0450873 -0.10369258 0.09036123 0.04546352 0.08278161 0.061119266 0.08910456 -0.060470924 -0.02589484 0.01335489 0.06297435 -0.046582274 0.09141337 0.09788862
eat 0.019878188 0.025764707 -0.070947565 -0.08726085 -0.09546999 -0.005660559 -0.026577007 -0.021711528 -0.076596975 -0.13056207 -0.046818357 -0.045846116 -0.027966244 0.07688705 -0.004882817 -0.028164161 0.040164363 -0.07656646 -0.07277219 0.0025055185 0.013891808 0.06677039 0.02910988 0.13851531 0.01808766 0.04029092 0.04453241 -0.002409457 0.06791002 0.05650605 0.045127008 0.0022564782 0.07116166 0.06742382 -0.104641765 0.041968286 -0.05935246 0.030547472 -0.029949067 -0.12835 0.091472924 0.029442884 0.048202176 0.11396929 0.026943777 -0.08625246 -0.020758782 0.035023637 -0.00782055 0.006484694 0.10879462 -0.029114 0.0018861905 0.0073614027 0.06054098 0.010232853 0.032570332 0.049205583 -0.04648815 0.0032707127 -0.005426972 -0.0465145 0.047812946 -0.036356453 -0.05015235 0.020417728 0.030199045 -0.109249294 0.053244796 0.041986328 -0.11010036 -0.02438769 -0.069898926 0.0005979234 -0.035486724 0.021404771 0.11171749 0.11269598 -0.11213526 -0.05820534 0.04318637 -0.042736817 -0.005669685 -0.007406482 0.069897264 -0.036343463 0.04233603 -0.023340862 0.041082516 0.047928438 0.098065846 0.12113564 0.03974346 0.1323291 -0.020286633 -0.08769136 0.027738925 -0.081478804 -0.051029645 0.09223191
alices 0.090877764 0.032107923 -0.101716295 -0.10857806 0.021115132 0.083556354 0.01293459 -0.0137102995 0.053936854 -0.040245302 -0.053035215 0.09557026 0.040366825 0.08666903 -0.12155862 -0.024716578 -0.08230003 0.07193519 -0.102353014 0.042386424 0.12532833 0.00474884 0.079504766 -0.06958643 -0.008612121 -0.13836527 0.029851642 -0.021795446 -0.008396741 0.04908722 0.04636071 -0.0750519 0.0035852327 -0.12744585 -0.010652964 0.10502185 0.07557927 -0.0013171483 -0.041923404 0.014040966 0.13160744 -0.007365741 0.10414262 0.082220465 -0.025742458 -0.108008176 0.09641307 -0.07997558 0.058997262 0.13525869 -0.09460311 -0.09988086 0.013235724 -0.004199675 0.10526217 0.062158566 -0.052331407 -0.069750555 -0.09047191 0.11388666 0.13786761 0.02713236 0.02291413 0.08297906 -0.11820524 -0.038121402 0.067293316 -0.1341103 -0.06523234 -0.05591617 -0.07965099 -0.06722903 -0.01868116 -0.061588746 -0.068627976 0.04852097 0.0049172346 0.07630225 0.0028410545 -0.033238567 0.07017782 -0.1061717 -0.13087204 0.1007462 -0.04931546 0.01565724 0.029659452 0.014993504 -0.07385433 -0.026766796 0.030799394 0.011073215 0.028470557 -0.10096779 0.036972597 0.024451395 -0.017796984 0.05892007 -0.01685733 -0.10603536
adventures -0.024082087 0.11316202 0.010773404 -0.030308293 -0.052497268 -0.019926352 -0.056934647 0.08942153 0.030705577 -0.0536435 -0.107074276 -0.034735817 0.098194316 0.10096445 0.013749414 -0.024382172 0.06773802 -0.013994423 -0.0888754 0.02341496 0.13156669 -0.09663528 -0.054436807 -0.10356521 -0.12522782 -0.090884954 0.114221245 0.013808734 0.06650682 -0.04487636 0.019152384 -0.06567814 -0.02922152 -0.09264263 -0.122416355 0.08632949 -0.07787009 0.037235383 -0.087373905 0.10193384 0.06319002 0.10446272 -0.042569593 0.07507084 -0.014178354 0.018462854 -0.025885401 0.13330266 0.119690716 -0.029672561 -0.095305644 0.04239112 -0.09659742 -0.0146957375 0.028677348 -0.024121974 0.0060989205 0.026482284 -0.049316313 -0.012810157 0.016381685 -0.13458872 0.00040886167 0.07433502 -0.05500305 -0.032141257 -0.0784669 -0.0012444538 -0.060157645 -0.074870735 -0.0022037637 -0.084337786 0.10458209 -0.10687808 -0.10049519 -0.07241334 0.027361423 0.13845994 -0.053986765 -0.08838532 -0.10487192 0.02515999 -0.0632616 -0.0036980556 -0.010609482 -0.081159934 0.0903714 0.004825859 0.12469371 -0.0042045806 0.06492718 -0.054579906 0.099419996 0.001308265 0.084367394 -0.06597551 -0.012396259 0.10106943 0.04293402 0.0022827382
use 0.025239358 -0.08773711 0.0318176 -0.08199483 0.09545379 0.037348334 0.02744033 -0.01888301 -0.019362226 0.02475189 -0.08842721 -0.08533796 -0.016715266 -0.098685816 0.024777297 0.013312609 0.055723403 0.031335335 -0.018236738 -0.053962793 -0.063042924 0.007937905 0.07222571 -0.0553639 -0.019686302 -0.049309354 0.017591873 0.08246697 0.028869834 -0.0063493503 0.028180365 0.05887229 0.04804364 -0.041133616 -0.0021473723 0.011555716 0.088218845 -0.0147524625 0.087571606 0.07136814 -0.0845923 0.036583226 0.086048275 -0.03767013 0.09461558 0.07781269 -0.010095698 -0.0835591 0.0728708 0.061425302 0.04651967 -0.028182164 -0.048417293 -0.049893912 -0.04824127 0.08372611 -0.074858814 -0.05306888 -0.033343896 0.0024422307 -0.041842505 0.05785023 -0.022000313 -0.05475949 -0.016604716 0.096230574 -0.04171675 -0.0043797926 0.079862215 0.005463309 -0.005174672 -0.03699261 -0.053542983 -0.0078134 0.052703846 0.06289595 0.02097668 0.026961362 0.023611186 -0.016044455 -0.061785445 -0.019434866 -0.0038122502 -0.038569022 -0.058004424 0.075823985 -0.007988719 -0.10571483 -0.022919105 -0.051042534 -0.0404612 -0.03521247 -0.04286844 0.05176535 0.07541316 -0.064777076 -0.023095801 0.100080155 -0.06262122 -0.021844322
with -0.026356256 0.08506955 -0.0050336355 -0.05713734 -0.08578401 -0.06735376 0.062847026 0.11204724 0.050947186 -0.028438477 0.0730855 -0.09600323 0.04353638 0.037773352 -0.005639385 -0.06341103 0.070840165 -0.081086524 -0.10950213 0.05053099 -0.0581625 0.004860762 -0.0700938 0.035858557 -0.045467608 0.04158948 0.10110025 0.07267407 0.035869677 -0.0079041105 0.021179553 0.043273006 -0.11046274 -0.02825109 -0.06736071 0.01684956 -0.0144324275 -0.007259131 0.03511568 -0.04217731 0.03549712 0.054336444 0.06385615 -0.04914496 0.044064358 0.066249706 -0.027730502 0.09322158 -0.0440377 -0.04347498 -0.04283424 -0.044278577 0.02552455 0.025538085 0.11761276 -0.003628152 0.1039195 0.006457658 0.014169139 0.030122187 -0.012000308 -0.07964346 -0.055533536 -0.032138415 0.036458664 -0.062713414 -0.032429382 -0.08447502 -0.0622373 0.05498143 -0.05293672 -0.083326474 -0.082151845 -0.067792594 -0.055696197 0.004003085 0.06453523 0.011524982 0.021958977 -0.11524549 -0.08339317 0.056160215 0.017222295 0.0133651 0.069877245 -0.006136371 0.010138484 -0.10923044 -0.064538375 0.12006424 0.042954586 -0.064172104 0.04352405 -0.0063177217 0.08032757 -0.04118064 -0.01868093 0.03445719 -0.054777153 -0.07474074
and 0.08351836 0.004989772 -0.08451916 -0.096328005 0.043729413 0.1285889 -0.060160764 0.071961984 -0.050848935 -0.07557536 0.00247614 0.03330275 -0.0436787 0.083808914 -0.08245003 0.013579091 -0.07584425 -0.048778266 0.014888402 -0.044050787 0.015668005 0.09043502 0.0028233638 -0.0558817 -0.025003491 -0.08160807 0.03392635 -0.016189858 -0.07363007 0.015059799 -0.05829834 0.0026409193 0.04698797 -0.039970506 -0.07568447 -0.011220047 0.012097733 -0.07185057 -0.029008845 -0.0019354217 0.028496383 -0.084253035 0.03145471 0.11180888 -0.044750094 -0.06823911 0.0019670972 -0.10240796 -0.008332991 0.03268649 0.11107977 0.028049335 -0.07223051 0.055133753 0.09143989 0.03829981 0.09962587 -0.013684251 -0.08202307 -0.020781389 0.03403361 0.0024908688 0.023882441 -0.07739293 -0.0012337271 -0.060633566 -0.05182827 0.0684884 -0.018547717 0.055749994 0.076996885 0.023650352 -0.065911956 0.013020536 -0.030965894 0.04799965 0.07587011 0.081467554 0.026711704 -0.1171525 0.0443638 0.031265043 0.0005368347 -0.021307569 -0.04196606 -0.100424625 -0.015979964 -0.049844757 -0.015138432 -0.043716818 0.0062232874 0.00041607523 -0.023276122 0.07014554 0.018688709 -0.021982683 -0.066926 0.022181518 0.019721625 0.079728134
when 0.0027662772 -0.0076065306 -0.07074717 0.005653952 0.048216652 -0.034036398 0.09752595 -0.017019872 0.1040749 -0.017331006 -0.05543637 0.043092467 -0.0015619817 0.03614019 -0.07804746 0.0915959 -0.033342946 0.00410398 -0.06891477 -0.019520152 0.055126265 0.031231388 -0.037555203 0.0543738 0.06990543 -0.05739928 0.014935819 0.08326227 0.069421664 -0.055829298 -0.0144712115 -0.10406313 0.030210685 0.063715465 -0.11601543 0.018423945 0.016584475 -0.11845802 0.07468957 -0.08251869 -0.061611485 -0.0012199981 0.013361789 0.109879166 -0.04958965 -0.011588894 -0.059239756 0.014831271 -0.04896693 -0.07102448 0.09463941 -0.034337476 0.031261507 -0.0042952495 0.039724752 0.013425342 -0.040603053 -0.067810945 0.08950671 -0.0005823651 -0.05159069 -0.04914829 0.043348182 0.02792583 0.03433805 0.07160052 0.0016193569 -0.09115404 0.022041298 -0.026892764 -0.053948455 0.048394136 0.04206453 -0.062431164 0.007722913 0.025137285 0.09086103 -0.020724168 -0.009125988 0.071445994 0.060089502 -0.118078165 -0.06399479 0.011929133 -0.047479372 -0.0736097 0.014577961 -0.10996752 0.049424507 0.023217672 -0.038181312 0.016711352 -0.077431254 0.10691935 -0.025459228 -0.035857424 0.017036643 -0.018544566 -0.0635699 0.11262834
suddenly 0.02501966 0.039617177 -0.09334546 -0.059511214 -0.07144962 -0.013440639 -0.07087425 0.06884049 0.049573854 -0.09753944 0.019001372 -0.07134636 0.0893958 0.038161274 0.015052149 -0.11864188 0.0031516375 0.081363104 -0.05842911 -0.11821987 -0.099205926 0.090624414 -0.07900264 -0.0058638654 -0.010065553 -0.03401512 0.008821156 -0.04517321 0.014759797 0.044892304 0.03334567 -0.04688132 0.040478785 -0.00838604 -0.058542702 0.10093295 -0.050428808 -0.05820408 -0.0489357 -0.018051913 -0.038053762 -0.03816883 0.06660378 0.022544876 0.06301668 -0.07947443 0.081896245 -0.058007106 0.029543027 0.078168996 0.044021852 -0.05056976 -0.05493298 0.070263095 0.052667435 0.025514152 -0.030958636 -0.053159717 -0.106382184 -0.04790695 0.09746357 -0.04967362 -0.0041402853 0.039074093 -0.07221662 -0.043278795 0.07154848 0.043754935 0.04398803 0.01443849 0.107207716 0.0010580947 0.045702804 0.050677735 -0.111299515 -0.07031319 0.050959602 0.024691178 -0.007066251 0.06375689 0.06308387 0.054412544 0.09374165 0.13210367 0.09245936 -0.024607005 -0.0025778315 -0.08901839 0.09914715 0.055687398 -0.048914034 0.007332944 0.10792193 0.020984257 0.018544363 -0.008234638 0.04329868 -0.07378804 -0.012219255 0.080566615
say -0.0036369013 -0.08507349 0.027045455 0.020196212 0.011541743 0.1069876 -0.045645192 0.07964786 0.014729797 -0.055043343 -0.05373318 -0.07378092 0.04426071 -0.050883505 0.03882363 0.007808996 0.066253215 -0.088185586 0.003868563 -0.047819782 0.025316056 -0.007082632 0.046717815 0.049236923 -0.12080696 0.0613668 -0.018697154 -0.032678355 0.040414773 0.057755817 -0.02534794 0.0417746 -0.00058208406 0.03781337 -0.12218033 0.049855746 0.045938794 -0.032946095 0.038512766 0.08806435 0.01747834 -0.0108305365 -0.08275442 0.0393252 -0.11949288 -0.018330583 -0.04775434 -0.10423636 -0.014965882 0.0068354206 -0.014527058 -0.01190996 -0.027901826 0.030868413 0.13716689 -0.09893401 -0.013908925 -0.08911522 0.01732383 -0.07480132 -0.06355945 0.07984722 0.020889962 0.09531755 0.09731547 0.09034673 0.022399286 -0.05805428 -0.0007773957 -0.045850392 0.045626365 -0.00048144185 0.02555964 0.04549185 -0.050653167 0.052440163 0.011845204 -0.031339724 0.019209577 -0.101608574 0.0911895 0.016688084 -0.09814204 -0.007353641 -0.03623889 -0.1114711 -0.03544732 -0.102075644 0.0072255116 0.076811165 0.061453834 0.050084837 -0.023183431 -0.019627325 0.0020797318 -0.034900986 0.04960621 -0.10266432 0.0006026451 0.028894989
shall 0.018794283 -0.0028150112 0.061579302 -0.0761327 -0.10543138 -0.03497484 0.10928792 0.11451775 -0.10860079 0.025836436 -0.06266476 0.028526908 -0.027465113 0.03148929 -0.05141971 0.019490512 0.050101582 0.036979284 -0.027961178 -0.11843951 0.05218079 0.095801935 -0.008096209 -0.016668087 -0.10202899 -0.06954397 0.05384138 -0.020653607 0.07838722 -0.021601694 -0.06882745 -0.013217453 0.108798355 -0.026886553 -0.010347944 0.0076299687 -0.1196517 -0.010941165 0.09488383 -0.11280681 0.06673155 0.08039413 -0.044931605 -0.029332718 0.088866286 0.005965188 -0.042961214 0.10931424 -0.041615717 0.102189034 -0.018620461 -0.081056625 0.04327852 -0.10884881 0.059269756 0.024742132 0.030537745 -0.04466041 -0.107981645 0.0607691 0.007523113 -0.019197235 0.1171724 0.123632796 0.05518602 -0.10023198 0.020297268 0.058119014 0.05146738 -0.0634294 -0.005919435 -0.08055092 0.07550168 0.04332142 0.13305989 -0.051549084 0.03855511 0.05320273 -0.026560677 0.023124926 0.008562285 0.027961364 -0.095400564 0.09523171 0.013927221 -0.11581186 0.016263533 0.051636532 -0.10412205 -0.03650273 0.059702042 0.032098364 0.040521856 0.03417585 0.06793077 -0.03742527 0.056143153 0.06491053 0.09468698 0.0914302
looked -0.031455405 0.0012028083 -0.05277612 -0.028534211 -0.06464769 0.10904969 0.025725985 0.075254835 0.07344832 0.03677992 -0.08848618 -0.028368717 0.029842805 0.05728069 -0.06714195 -0.047815416 -0.024082804 0.046252355 0.067177065 0.052020133 -0.08203672 -0.041747697 0.04896265 0.07749376 0.012092782 -0.082756914 0.013808993 0.05525616 0.020822572 0.040864695 0.03723722 -0.06860947 0.08020067 -0.06933956 -0.12639876 0.06296083 -0.025371952 0.056366943 -0.01722953 0.10076913 0.037310883 0.01797331 -0.007399329 -0.034076497 0.06437747 0.0012250954 0.0024593687 -0.082074456 -0.09194703 0.046882886 0.020677404 -0.044551495 -0.012402732 0.04347959 0.010753203 0.0721873 0.039192665 0.02107982 0.08692973 0.010428397 -0.05029943 0.009156771 0.047854826 -0.04718253 -0.026859563 0.09607852 0.10950158 -0.03521111 -0.014915132 -0.05161774 -0.05129698 -0.013291289 -0.035062544 -0.081317715 0.08478121 0.1098131 -0.054237768 0.020035673 -0.027290381 -0.057413466 -0.0476603 0.00065708836 -0.007308162 0.033060305 -0.008645388 0.07311091 0.06639277 0.022271188 -0.029884601 -0.03023117 0.017859614 0.014460964 -0.0721482 -0.035269964 -0.03247035 0.047266264 -0.07897907 -0.05918337 0.0050374344 -0.03751511
never 0.047125675 -0.0429427 -0.027168315 0.030894544 0.044581827 -0.05092789 -0.10283105 -0.018450612 0.010158344 0.016207652 -0.034271196 -0.04809646 -0.122152 -0.08412152 -0.08017141 -0.0687772 -0.028000591 -0.08926466 -0.035061408 -0.11512171 0.062342696 0.06858341 -0.10955178 0.026862472 -0.028335545 -0.011276063 -0.021052346 0.09372691 0.08160412 0.09252533 0.043945312 0.04466495 -0.0058378596 0.012655916 -0.1303061 0.00051189004 -0.0836614 -0.02918902 0.09425277 -0.119661935 -0.0028353091 0.023026725 -0.113959104 0.101436175 0.008636127 0.026007468 0.033653513 0.07774161 0.07673779 0.10951651 0.036407296 0.025606416 -0.074207015 -0.059554495 0.018710708 0.020800505 0.0071119275 -0.02631965 -0.0130032 0.08053882 -0.072975345 0.0491545 -0.08864095 0.029199615 -0.043555677 0.09180475 0.016140528 -0.017354848 -0.054672405 -0.005932818 0.05944447 -0.0028176352 0.05127452 0.08160152 -0.010286559 -0.019730307 -0.009324826 -0.018148324 -0.038567644 -0.085783176 0.060872514 -0.1069898 -0.045271087 -0.020098435 -0.07968522 -0.064706594 0.084254764 -0.0017569114 0.07168484 0.089293465 0.069231875 -0.056394897 0.010530461 0.018734103 0.02919994 0.045930497 -0.014593047 -0.02141746 0.050267257 -0.019208893
either 0.117744006 0.057060525 -0.020976977 0.025152797 -0.027437873 0.073702924 -0.009464152 0.033383936 0.05667474 -0.005705273 -0.0030475194 -0.007853815 0.025508702 0.07701245 0.04126254 0.03691361 -0.12723435 -0.10838249 -0.054224964 -0.0021402827 0.04971711 0.090765126 -0.07564062 -0.050834082 0.06314925 0.06891945 -0.03179126 0.0044110194 0.0022295676 0.0850714 -0.030557914 0.0098658325 0.020406803 0.0014813766 -0.061778996 -0.05754903 0.042885307 0.010916148 0.07066459 -0.077313334 -0.068730064 -0.006304808 -0.06121515 0.054285802 0.071165524 -0.076202124 -0.011120035 -0.09148286 0.034343712 0.060476206 -0.038289577 -0.0070464388 -0.04633225 -0.10246524 0.00026664732 -0.0809788 0.019003691 -0.010497027 -0.07520039 0.08749905 -0.046644524 -0.051042907 -0.045197107 0.044577304 -0.013724104 0.06821783 0.0923095 -0.08548912 0.07585748 0.061246414 0.08417206 -0.00429473 0.051245432 -0.039527033 0.07400611 0.08782067 0.081037425 0.09027841 0.013916554 -0.1066153 0.038337022 0.015799342 0.0662926 0.022564018 0.10438793 -0.0016608987 0.003418466 0.019859647 -0.023021419 0.12350206 -0.012022331 0.05365994 -0.036969747 -0.02693971 0.040618498 -0.033353437 0.059165213 -0.022439327 0.03607077 -0.05905909
see -0.004096234 -0.108925365 0.08368364 -0.06536561 -0.015711442 0.056320757 0.026431192 -0.049376946 0.052784767 0.02019276 -0.05251813 0.062965274 -0.07114412 -0.10143694 0.004124953 -0.06046439 0.019374747 -0.029834418 0.04559919 -0.020908687 -0.06334872 -0.07283284 -0.10007023 0.010370071 -0.097017266 -0.0019599306 -0.03579555 -0.08965708 0.055477593 -0.041285925 0.0700415 -0.11930425 0.07046894 -0.055623285 -0.06160937 0.03888884 -0.065175846 -0.02986222 0.08271594 -0.07256427 -0.03352205 -0.056341268 -0.037135947 0.032425478 0.01920002 0.048732623 0.034880742 0.036048163 0.024262778 -0.026031379 0.048648283 -0.058545347 0.014616002 -0.04446915 0.008569885 -0.09186948 0.079316765 -0.08845086 0.0123770125 0.09021008 0.038858198 0.06601069 0.012412261 0.015641812 -0.03481284 0.023997381 -0.09482716 -0.06407452 0.11252204 0.06901886 -0.026342269 -0.06938131 -0.01681594 0.06239723 -0.07070184 0.018745815 -0.021196118 0.08899003 0.052901264 0.047923055 -0.073001914 0.011841376 0.021404753 -0.048527706 -0.05797963 0.008672133 -0.013064142 0.015467972 -0.059799675 -0.0023654723 0.082613535 0.01397634 0.02347748 0.008927437 -0.001550999 -0.0071094073 -0.02514447 -0.038058326 0.05918726 -0.038905572
wonder 0.07938575 -0.112471774 0.018235326 -0.077710524 -0.0689957 0.08088342 0.07736796 -0.030529985 0.014143392 0.046568166 -0.08833678 -0.117988974 0.025236145 -0.04333955 -0.1131419 -0.013832911 0.11476101 0.057237335 -0.11705876 0.035524916 0.028739857 -0.014795709 -0.067497745 0.067786045 -0.08520949 -0.09863066 0.048344735 0.11022437 0.054396763 0.009332557 0.12073533 -0.09044947 -0.056015313 0.04277273 -0.031106481 0.048117023 -0.030664453 -0.061631028 -0.051680367 -0.043172844 0.061349876 0.08473884 -0.0033018223 0.04226689 0.0098731 -0.04713157 -0.04546483 0.009872409 0.014651104 -0.047914933 -0.05451178 0.018602878 -0.023472471 -0.006897928 0.01307833 0.034419555 -0.025318723 0.06853078 -0.014866061 0.060187962 0.020712668 0.017951787 -0.09159244 0.08877125 0.07208292 -0.10064191 -0.06867042 -0.016500192 0.08504048 -0.038035195 -0.041133583 -0.043936696 0.05062821 0.11973367 -0.063003525 -0.023054902 0.058078766 0.08362071 -0.058469534 0.031154374 -0.043501012 -0.11130556 -0.021913102 0.06729827 -0.02259477 -0.08332925 -0.018309822 -0.0682159 0.05261932 0.05074032 0.041842006 0.06743133 0.027742596 0.09682009 0.06122836 -0.04027573 -0.105202265 0.0072833397 0.06656441 0.023236563
too -0.008112781 -0.04418619 0.016029062 -0.0040067174 -0.051721007 -0.028850893 -0.007823682 -0.037073813 -0.010699238 -0.01770047 0.049800083 -0.0018518539 -0.038572636 0.09612908 -0.06324778 0.09496513 0.118838765 0.0030153128 -0.010822866 -0.062437132 0.021779677 0.0077881394 -0.09329537 0.026722714 -0.047618866 0.052240558 -0.0037848428 0.085678585 -0.0642549 -0.04983822 0.011932903 -0.10614876 0.06928193 -0.054610193 -0.10067662 -0.029430058 -0.003356239 0.047322378 -0.09038618 -0.13244194 0.08485498 0.074409395 0.008254385 0.100700036 -0.09356227 0.05118523 0.03206417 -0.035907447 -0.0017813909 -0.079540625 0.026466405 -0.075706474 -0.05844023 0.02743508 -0.012008689 -0.0139717525 -0.025326898 -0.044520963 -0.08203541 0.08216479 0.0067021945 0.012455423 -0.066176 0.088963665 0.05433428 0.09709253 -0.040904727 -0.072268 -0.033006493 0.033975255 -0.07301289 -0.10363325 0.0418141 0.06265274 -0.008469671 0.05038768 -0.086620405 -0.034755424 -0.014297639 0.012597958 -0.053595435 0.0045216545 -0.084219046 0.05406372 -0.052092932 -0.0045482568 0.006890795 -0.020985624 0.079731405 0.035611562 0.1136971 -0.038298532 -0.045263894 0.0401397 0.042707495 0.04302858 -0.034901183 -0.009611578 -0.07460851 -0.010594798
they 0.069197305 -0.029311698 0.0022375353 -0.09427805 0.0077287583 -0.018105742 -0.011046421 0.09702772 -0.10093357 -0.024993014 -0.040880896 -0.06910764 -0.10743404 0.08036729 0.0676752 -0.05693609 0.0149999 -0.08023905 0.023173116 0.05400831 0.0121752955 -0.11207632 0.081204504 0.039709654 0.09294621 0.05629023 0.076868944 0.043458212 0.05885641 -0.040387385 -0.070755966 -0.04166411 -0.049134787 -0.11308754 -0.10704843 0.10379601 -0.02230947 0.013064437 0.05679677 -0.010122733 -0.05229107 0.084523484 0.039754324 0.09958913 0.046374813 -0.06319999 -0.119912274 0.09812514 0.059089437 -0.020316046 -0.024345974 0.08559537 -0.027800987 0.038907308 -0.030608715 0.036467463 0.0748835 0.012546985 -0.061538998 0.036802046 0.008225994 -0.04432681 0.107278876 0.023144409 -0.059842523 0.04872804 -0.0070956736 -0.04904163 0.021842334 0.08741833 -0.09627594 0.0063500623 0.05304692 -0.070748836 -0.017944902 0.07274502 0.089209564 -0.081612766 -0.03425847 -0.023058195 -0.115130514 0.09107966 -0.08419269 0.01273323 0.08490162 -0.115093835 -0.01606569 -0.054470513 0.091044925 -0.069346644 0.037914596 0.02381345 0.09336056 0.056366004 -0.027523411 0.019699292 0.117839254 -0.04070616 0.109472096 -0.039873462
fall -0.05981164 -0.09309825 -0.062759764 -0.059149608 -0.09791473 0.091793425 -0.08129604 0.014070939 -0.09721412 0.04853984 -0.13261212 -0.013193955 0.0429615 0.025503403 0.016736913 0.0030411775 0.06792289 0.03885788 -0.07717062 0.0037077516 -0.02996248 0.027404835 -0.008302299 -0.011263906 0.0028529693 -0.0073639806 0.049528837 -0.035571374 -0.061918087 0.08914132 0.045465913 0.011427043 0.11611517 0.029774513 -0.105111346 -0.020877026 0.056273412 0.0489666 0.0073438035 -0.008525456 -0.041942105 0.005593509 -0.07589581 0.061424308 -0.03244665 0.003555322 0.03450451 -0.012392443 -0.033440877 0.034116205 -0.010581498 0.04321769 0.00071800745 0.007259756 -0.03938766 0.0016141052 0.0846448 -0.00651903 0.06976035 0.07746397 0.04745629 0.004371185 -0.08134943 -0.053688977 -0.05038918 -0.03431698 -0.011489487 0.060731374 0.027032185 -0.04495649 0.008189982 -0.025890626 0.07558332 0.08765255 0.0772258 -0.016691841 -0.03850115 0.025137803 0.03824903 -0.055187102 0.08529795 -0.086857766 0.023435881 0.01168732 -0.060227532 0.058632296 -0.076021425 0.04385309 -0.06324848 -0.035385553 -0.060955584 0.05268467 -0.004281692 0.07538715 -0.03621739 0.060530595 -0.04332647 -0.08164575 -0.029664222 -0.007507021
right 0.0008584835 -0.03353598 -0.046519138 -0.03527524 -0.06836241 0.06894159 -0.057776667 -0.044681527 0.0062545897 -0.021350987 -0.015195874 0.008726812 -0.03700691 0.004297304 0.052603018 -0.03208234 -0.04581189 -0.10469005 -0.09342881 0.009403851 -0.06636239 -0.014919062 -0.11805392 0.10434385 -0.051766705 -0.07434302 -0.05836478 0.06655611 -0.011656245 -0.01229164 0.11944592 0.011278579 0.08413784 -0.122255735 -0.08928756 -0.03988633 0.024138838 -0.057767358 0.102866925 -0.10037476 -0.04405552 -0.07737908 0.016180426 0.047391612 0.02668211 0.020315377 -0.030405993 -0.09474534 0.079561666 0.0046957433 0.06761731 -0.015836421 0.02020421 0.012576516 0.0665313 0.028575305 0.036740758 0.107652806 0.040676642 0.11915443 0.024268946 0.015089441 0.008651852 0.031725805 -0.034314662 0.09809079 -0.03363304 -0.07076159 0.015679477 0.004842161 -0.021041052 -0.10568902 0.051298648 -0.074270494 0.070725225 0.1179076 0.11674088 0.06311183 -0.10254076 -0.094156 0.01738331 -0.0036314977 -0.06892184 -0.004211449 0.023737159 -0.094618514 0.01224426 -0.016224109 0.051036417 0.010692651 -0.0089281285 0.13087185 0.08268752 0.06562454 0.0949545 0.060418442 -0.018478416 -0.10729625 0.10092437 0.045612596
through -0.045986407 0.028057942 -0.035340194 0.03578005 0.041599922 -0.006570431 -0.0090301605 0.11900561 0.05498629 0.10028052 -0.011209871 -0.094458476 0.03316024 0.030416261 -0.023345282 -0.05731122 0.05973519 -0.030872878 -0.06773934 0.028457971 0.017191876 0.08701773 -0.033289045 -0.04640609 -0.08722644 -0.13279188 -0.09646794 0.049355075 -0.01142597 0.08201278 -0.06610118 -0.050365604 -0.03290459 -0.111507 -0.11132483 0.09454077 0.06348059 0.0075264834 0.03272052 -0.04153625 0.0685292 -0.06981677 -0.121415794 0.009820429 -0.08998118 -0.06691944 0.04379125 0.034971286 -0.10300099 0.032194965 -0.034712877 0.08535386 -0.04358586 0.0016826561 0.008439697 -0.08939697 -0.009069341 0.041350972 0.058509 0.037747685 0.06868972 -0.013403214 0.076984614 -0.063135736 0.040398385 0.06608278 -0.012031446 -0.04373187 0.10004251 0.07696644 0.038740955 -0.024569718 0.0233518 0.07216395 0.06294045 0.026257716 0.10428261 -0.0026086508 -0.11067827 0.017557733 -0.07077824 -0.06233969 0.09359179 0.08971885 -0.015295089 0.014640775 0.013868911 0.05420983 0.057379622 -0.001663567 -0.009997074 -0.019332992 0.05230577 -0.053921863 -0.05958056 -0.12800664 0.007080826 0.051300623 0.06019553 0.06557415
my -0.023904663 -0.13420539 0.02281445 0.021261998 -0.0028958963 0.07514199 0.007302284 -0.015269663 0.003200863 -0.0645655 -0.11341424 -0.017263453 -0.04821186 -0.031310678 0.043090355 -0.0792041 -0.087064154 0.008819469 0.030077498 -0.079046294 -0.08135113 -0.008568337 -0.06458923 0.019110717 0.024787705 0.0025455768 0.07255569 0.113254376 -0.01346727 0.067464925 -0.047244918 -0.10053123 0.10858722 -0.02412861 -0.058774196 0.098605335 -0.07666004 -0.061313424 0.07915915 -0.12100121 0.09853981 0.08830328 -0.028583135 -0.051435255 -0.061770014 -0.046903104 -0.07935292 -0.03019378 0.06870853 0.037591573 0.009441187 -0.020628316 0.060974263 0.027104445 -0.030159652 0.011347866 0.10115057 0.08574346 -0.06971118 0.082873315 -0.03462531 0.008602002 0.10710373 0.1035632 0.0063913055 0.06817349 -0.041051902 -0.025733376 -0.048275985 0.079332925 -0.09062807 0.0040190257 0.023954835 0.020818302 -0.045088105 0.08972891 0.109748185 0.032111578 -0.016519004 -0.054881148 0.06796224 -0.10183871 -0.03123673 -0.013537282 0.06325787 -0.06673448 0.082213484 -0.08401669 0.043947347 -0.032270346 0.07703566 0.004230532 0.030080356 -0.012152108 -0.024752207 -0.10847371 0.009459787 -0.04609154 -0.03361709 -0.021563645
bottle -0.044580773 -0.01741039 0.013438125 0.0056243725 -0.029751655 -0.07409549 0.09387337 0.040747005 -0.051323775 -0.0056018275 -0.020344174 -0.0673308 0.019080423 -0.07819267 0.09460199 0.06925986 0.034220796 0.07221383 -0.05943883 -0.043588344 -0.108546115 -0.017539714 -0.015459366 0.06757076 -0.06443683 -0.023151688 0.0415869 0.007029153 -0.07064263 0.017540105 -0.037230242 -0.071863994 0.090412125 -0.0890378 -0.042031225 -0.03770408 -0.07775826 -0.037083793 0.058404904 0.016263347 -0.11617875 0.07215744 -0.06070692 -0.057030447 0.004719726 -0.03619406 -0.048634328 0.06888201 -0.048361175 -0.08766715 0.029570824 0.014506012 0.040484235 -0.018398447 -0.0014546236 -0.091958135 -0.007864613 0.058001008 0.06953093 0.08666635 0.03993059 0.013325373 0.027531581 0.05689634 -0.0081847375 0.012856804 0.031925008 -0.05245837 0.050498348 -0.04123612 -0.0036718396 0.031011717 -0.005993668 0.084971674 0.008442266 0.11260402 0.0357276 0.09356987 -0.0060525993 -0.04069216 -0.020353593 -0.04098587 -0.04375132 0.05986738 -0.011610358 -0.013789456 0.040697403 0.085442305 0.066023715 0.025981048 -0.034819055 -0.07542192 -0.094900705 0.07138888 0.015241249 0.02752469 0.053716213 -0.03019319 -0.0063011693 -0.069237776
ebook 0.03844034 -0.038578063 -0.07413908 -0.098076135 -0.0020746998 -0.03445144 0.059641853 -0.057240237 0.039796695 -0.042101122 -0.0093456 0.00032877526 0.06407615 0.0298673 0.017686129 -0.005175009 0.110297225 -0.068521276 -0.034366906 -0.10788792 -0.0012848544 0.07171448 -0.06295422 0.008242726 -0.092779145 0.025398059 -0.036205363 -0.012590658 0.008659165 0.095617324 0.08563071 -0.048116546 0.08372972 -0.010090796 -0.07135284 0.0004335196 0.03938458 0.030551184 0.11250639 0.024001768 0.050547414 -0.060309652 0.050185952 0.028237516 0.04329145 -0.016347708 0.053005777 -0.022539213 0.09916293 -0.017018586 0.044299193 0.09912198 -0.042553477 -0.0631925 0.08964567 0.023836631 0.050741795 0.07435017 -0.07203727 0.040643305 -0.0066040074 -0.04177712 0.062089328 0.030225845 -0.021254586 0.043750875 0.027811976 -0.07764943 0.018133879 0.05446289 -0.013821768 -0.040109318 -0.016085204 -0.059193335 0.013335245 0.019928327 -0.04064124 0.010705843 -0.06018696 -0.033448778 0.011780173 0.0005454115 -0.019065406 0.0717846 0.118736364 0.006625686 -0.056660373 -0.08936647 0.001260177 -0.07281642 0.008155731 -0.020382468 0.018077347 0.047071207 0.09741421 -0.055620085 -0.004464028 -0.10351703 0.06478774 0.05889066
is -0.033803467 -0.019491436 -0.015688239 -0.06524961 0.053968918 0.04699111 0.00374735 0.021211362 0.0754158 -0.011622855 -0.07431399 0.02331361 0.04312307 -0.03922449 -0.004236825 0.03308317 0.020345995 -0.09035122 -0.0520991 -0.03208835 -0.070821136 0.083995804 -0.06171057 0.008505409 0.06005 -0.12496044 0.046231724 0.07564705 0.04758861 0.009296427 0.036788233 -0.023929184 -0.03956006 0.05611033 0.04301503 0.08878927 -0.110999376 0.021219274 0.032415796 0.022105623 -0.051818453 -0.1021364 -0.03906168 0.0619627 0.056115698 -0.0008445466 0.08696322 -0.036204208 0.019118093 0.072041415 0.08170706 -0.03638934 0.05153839 -0.080515765 0.007940897 -0.022901064 0.010138777 0.075225756 -0.00054736645 0.10265317 0.014563192 -0.021504702 0.054157864 -0.05392943 0.038215593 0.11367233 0.05372191 0.033685297 0.05209908 0.0228941 -0.027678438 -0.06606109 -0.030926486 -0.06914948 0.02181871 0.02974779 -0.043810077 0.01957256 -0.0021130345 0.033272903 0.08459326 0.012145097 0.051695373 -0.0086154835 0.031007295 -0.03613147 -0.04701719 -0.05192962 0.09602103 0.08212783 -0.009897611 -0.047903165 0.028618721 0.06708559 0.075601734 -0.1038994 -0.027832638 -0.076676264 0.011503825 -0.0506896
